{"learner":{"attributes":{"scikit_learn":"{\"_estimator_type\": \"classifier\"}"},"feature_names":["flux__length","flux__variance","flux__root_mean_square","flux__absolute_maximum","sci_std_dev","sci_cv","sci_iqr","sci_transit_depth_min","sci_rms","sci_transit_depth_p1","sci_amplitude","flux__standard_deviation","flux__minimum","flux__median","flux__maximum","flux__mean","flux__sum_values","sci_low_cluster_mean_gap","sci_low_cluster_std_gap","sci_snr_approx","sci_below_above_ratio","sci_mad","sci_kurtosis","sci_max_sigma","sci_transit_fraction","sci_skewness","sci_transit_depth_p5"],"feature_types":["float","float","float","float","float","float","float","float","float","float","float","float","float","float","float","float","float","float","float","float","float","float","float","float","float","float","float"],"gradient_booster":{"model":{"cats":{"enc":[],"feature_segments":[],"sorted_idx":[]},"gbtree_model_param":{"num_parallel_tree":"1","num_trees":"500"},"iteration_indptr":[0,1,2,3,4,5,6,7,8,9,10,11,12,13,14,15,16,17,18,19,20,21,22,23,24,25,26,27,28,29,30,31,32,33,34,35,36,37,38,39,40,41,42,43,44,45,46,47,48,49,50,51,52,53,54,55,56,57,58,59,60,61,62,63,64,65,66,67,68,69,70,71,72,73,74,75,76,77,78,79,80,81,82,83,84,85,86,87,88,89,90,91,92,93,94,95,96,97,98,99,100,101,102,103,104,105,106,107,108,109,110,111,112,113,114,115,116,117,118,119,120,121,122,123,124,125,126,127,128,129,130,131,132,133,134,135,136,137,138,139,140,141,142,143,144,145,146,147,148,149,150,151,152,153,154,155,156,157,158,159,160,161,162,163,164,165,166,167,168,169,170,171,172,173,174,175,176,177,178,179,180,181,182,183,184,185,186,187,188,189,190,191,192,193,194,195,196,197,198,199,200,201,202,203,204,205,206,207,208,209,210,211,212,213,214,215,216,217,218,219,220,221,222,223,224,225,226,227,228,229,230,231,232,233,234,235,236,237,238,239,240,241,242,243,244,245,246,247,248,249,250,251,252,253,254,255,256,257,258,259,260,261,262,263,264,265,266,267,268,269,270,271,272,273,274,275,276,277,278,279,280,281,282,283,284,285,286,287,288,289,290,291,292,293,294,295,296,297,298,299,300,301,302,303,304,305,306,307,308,309,310,311,312,313,314,315,316,317,318,319,320,321,322,323,324,325,326,327,328,329,330,331,332,333,334,335,336,337,338,339,340,341,342,343,344,345,346,347,348,349,350,351,352,353,354,355,356,357,358,359,360,361,362,363,364,365,366,367,368,369,370,371,372,373,374,375,376,377,378,379,380,381,382,383,384,385,386,387,388,389,390,391,392,393,394,395,396,397,398,399,400,401,402,403,404,405,406,407,408,409,410,411,412,413,414,415,416,417,418,419,420,421,422,423,424,425,426,427,428,429,430,431,432,433,434,435,436,437,438,439,440,441,442,443,444,445,446,447,448,449,450,451,452,453,454,455,456,457,458,459,460,461,462,463,464,465,466,467,468,469,470,471,472,473,474,475,476,477,478,479,480,481,482,483,484,485,486,487,488,489,490,491,492,493,494,495,496,497,498,499,500],"tree_info":[0,0,0,0,0,0,0,0,0,0,0,0,0,0,0,0,0,0,0,0,0,0,0,0,0,0,0,0,0,0,0,0,0,0,0,0,0,0,0,0,0,0,0,0,0,0,0,0,0,0,0,0,0,0,0,0,0,0,0,0,0,0,0,0,0,0,0,0,0,0,0,0,0,0,0,0,0,0,0,0,0,0,0,0,0,0,0,0,0,0,0,0,0,0,0,0,0,0,0,0,0,0,0,0,0,0,0,0,0,0,0,0,0,0,0,0,0,0,0,0,0,0,0,0,0,0,0,0,0,0,0,0,0,0,0,0,0,0,0,0,0,0,0,0,0,0,0,0,0,0,0,0,0,0,0,0,0,0,0,0,0,0,0,0,0,0,0,0,0,0,0,0,0,0,0,0,0,0,0,0,0,0,0,0,0,0,0,0,0,0,0,0,0,0,0,0,0,0,0,0,0,0,0,0,0,0,0,0,0,0,0,0,0,0,0,0,0,0,0,0,0,0,0,0,0,0,0,0,0,0,0,0,0,0,0,0,0,0,0,0,0,0,0,0,0,0,0,0,0,0,0,0,0,0,0,0,0,0,0,0,0,0,0,0,0,0,0,0,0,0,0,0,0,0,0,0,0,0,0,0,0,0,0,0,0,0,0,0,0,0,0,0,0,0,0,0,0,0,0,0,0,0,0,0,0,0,0,0,0,0,0,0,0,0,0,0,0,0,0,0,0,0,0,0,0,0,0,0,0,0,0,0,0,0,0,0,0,0,0,0,0,0,0,0,0,0,0,0,0,0,0,0,0,0,0,0,0,0,0,0,0,0,0,0,0,0,0,0,0,0,0,0,0,0,0,0,0,0,0,0,0,0,0,0,0,0,0,0,0,0,0,0,0,0,0,0,0,0,0,0,0,0,0,0,0,0,0,0,0,0,0,0,0,0,0,0,0,0,0,0,0,0,0,0,0,0,0,0,0,0,0,0,0,0,0,0,0,0,0,0,0,0,0,0,0,0,0,0,0,0,0,0,0,0,0,0,0,0,0,0,0,0,0,0,0,0,0,0,0,0,0,0,0,0,0,0,0,0,0,0,0,0,0,0,0,0,0,0,0,0,0,0,0,0,0,0,0,0,0,0],"trees":[{"base_weights":[1.2269938E-2,8.729282E-1,-1.033557E0,4.3076923E-1,5.563636E-2,-1.3185185E0,4E-2,8.468468E-1,-4.9565215E-2,1.8260868E-2,-1.6551725E0,4.4444446E-3,4.229508E-2,-5.5384614E-2,-0E0],"categories":[],"categories_nodes":[],"categories_segments":[],"categories_sizes":[],"default_left":[0,0,0,0,0,0,0,0,0,0,0,0,0,0,0],"id":0,"left_children":[1,3,5,7,-1,9,-1,11,-1,-1,13,-1,-1,-1,-1],"loss_changes":[7.4260345E1,1.8841015E1,2.6882126E1,2.9565784E1,0E0,2.2904633E1,0E0,1.0706871E1,0E0,0E0,9.167114E0,0E0,0E0,0E0,0E0],"parents":[2147483647,0,0,1,1,2,2,3,3,5,5,7,7,10,10],"right_children":[2,4,6,8,-1,10,-1,12,-1,-1,14,-1,-1,-1,-1],"split_conditions":[4.618233E-4,2.7251451E1,4.640413E1,5.637085E0,5.563636E-2,1.7475599E-4,4E-2,3.7682276E0,-4.9565215E-2,1.8260868E-2,1.1909067E3,4.4444446E-3,4.229508E-2,-5.5384614E-2,-0E0],"split_indices":[26,22,18,19,0,6,0,22,0,0,16,0,0,0,0],"split_type":[0,0,0,0,0,0,0,0,0,0,0,0,0,0,0],"sum_hessian":[8.05E1,4.425E1,3.625E1,3.15E1,1.275E1,3.275E1,3.5E0,2.675E1,4.75E0,4.75E0,2.8E1,1.25E1,1.425E1,2.5E1,3E0],"tree_param":{"num_deleted":"0","num_feature":"27","num_nodes":"15","size_leaf_vector":"1"}},{"base_weights":[-1.7608391E-2,6.9428134E-1,-1.2256601E0,1.18410364E-1,1.6429284E0,-1.6825892E0,4.1154973E-2,8.3231896E-1,-7.4374866E-1,5.4869696E-2,1.7007895E-2,-5.572788E-2,-1.5544772E-2,4.1102227E-2,-3.3437163E-2,-5.2985683E-2,2.1399064E-2],"categories":[],"categories_nodes":[],"categories_segments":[],"categories_sizes":[],"default_left":[0,0,0,0,0,0,0,0,0,0,0,0,0,0,0,0,0],"id":1,"left_children":[1,3,5,7,9,11,-1,13,15,-1,-1,-1,-1,-1,-1,-1,-1],"loss_changes":[6.89712E1,2.7381552E1,3.759569E1,2.06156E1,2.7649078E0,4.2814026E0,0E0,2.0627588E1,2.3969868E1,0E0,0E0,0E0,0E0,0E0,0E0,0E0,0E0],"parents":[2147483647,0,0,1,1,2,2,3,3,4,4,5,5,7,7,8,8],"right_children":[2,4,6,8,10,12,-1,14,16,-1,-1,-1,-1,-1,-1,-1,-1],"split_conditions":[3.1274842E-4,6.708472E0,4.9237976E1,1.167E3,3.4658516E1,1.185E3,4.1154973E-2,4.85E1,1.185E3,5.4869696E-2,1.7007895E-2,-5.572788E-2,-1.5544772E-2,4.1102227E-2,-3.3437163E-2,-5.2985683E-2,2.1399064E-2],"split_indices":[6,23,18,0,18,0,0,17,0,0,0,0,0,0,0,0,0],"split_type":[0,0,0,0,0,0,0,0,0,0,0,0,0,0,0,0,0],"sum_hessian":[7.820962E1,4.947809E1,2.873153E1,3.1488182E1,1.7989908E1,2.4732943E1,3.9985862E0,1.7243969E1,1.4244213E1,1.4741076E1,3.2488313E0,2.0983906E1,3.7490377E0,1.3743986E1,3.4999826E0,8.245805E0,5.998409E0],"tree_param":{"num_deleted":"0","num_feature":"27","num_nodes":"17","size_leaf_vector":"1"}},{"base_weights":[7.8457E-2,8.5291606E-1,-9.291449E-1,1.4249374E0,7.4681856E-2,-1.279136E0,4.5890387E-2,-2.4351873E-4,5.188171E-2,-1.0249093E0,4.820165E-2,1.0021453E-2,-1.6058054E0,-4.9125582E-2,8.629318E-3,-5.201497E-2,-1.6521322E-2],"categories":[],"categories_nodes":[],"categories_segments":[],"categories_sizes":[],"default_left":[0,0,0,0,0,0,0,0,0,0,0,0,0,0,0,0,0],"id":2,"left_children":[1,3,5,7,9,11,-1,-1,-1,13,-1,-1,15,-1,-1,-1,-1],"loss_changes":[6.174817E1,1.9787144E1,3.1582281E1,1.1227341E1,3.531696E1,1.6704483E1,0E0,0E0,0E0,1.0317964E1,0E0,0E0,2.5148773E0,0E0,0E0,0E0,0E0],"parents":[2147483647,0,0,1,1,2,2,3,3,4,4,5,5,9,9,12,12],"right_children":[2,4,6,8,10,12,-1,-1,-1,14,-1,-1,16,-1,-1,-1,-1],"split_conditions":[4.618233E-4,3.48285E1,7.2862454E-2,5.5128236E0,-5.7172447E-2,1.0006406E0,4.5890387E-2,-2.4351873E-4,5.188171E-2,2.0776283E1,4.820165E-2,1.0021453E-2,6.968933E-2,-4.9125582E-2,8.629318E-3,-5.201497E-2,-1.6521322E-2],"split_indices":[26,18,25,23,25,3,0,0,0,22,0,0,24,0,0,0,0],"split_type":[0,0,0,0,0,0,0,0,0,0,0,0,0,0,0,0,0],"sum_hessian":[7.711362E1,4.3687904E1,3.342571E1,2.4701042E1,1.8986862E1,2.9680712E1,3.7449982E0,4.498766E0,2.0202276E1,1.1246167E1,7.740696E0,4.9943995E0,2.4686312E1,7.4987016E0,3.7474656E0,2.1441296E1,3.2450163E0],"tree_param":{"num_deleted":"0","num_feature":"27","num_nodes":"17","size_leaf_vector":"1"}},{"base_weights":[-1.6876858E-2,7.7869946E-1,-1.1128812E0,-4.5356858E-1,1.0333991E0,2.1048354E-2,-1.3522221E0,3.6257375E-2,-4.8033636E-2,6.453411E-1,5.2835505E-2,-1.651157E0,2.022653E-2,3.6793593E-2,-1.693743E-2,-5.3359844E-2,-1.796308E-2],"categories":[],"categories_nodes":[],"categories_segments":[],"categories_sizes":[],"default_left":[0,0,0,0,0,0,0,0,0,0,0,0,0,0,0,0,0],"id":3,"left_children":[1,3,5,7,9,-1,11,-1,-1,13,-1,15,-1,-1,-1,-1,-1],"loss_changes":[7.273887E1,1.56429E1,1.6183052E1,1.9056446E1,1.0265114E1,0E0,2.0093937E1,0E0,0E0,2.0315584E1,0E0,2.6378098E0,0E0,0E0,0E0,0E0,0E0],"parents":[2147483647,0,0,1,1,2,2,3,3,4,4,6,6,9,9,11,11],"right_children":[2,4,6,8,10,-1,12,-1,-1,14,-1,16,-1,-1,-1,-1,-1],"split_conditions":[5.050775E-4,8.6390735E2,1.0003768E0,2.6248222E1,-1.0867143E-1,2.1048354E-2,4.0083004E1,3.6257375E-2,-4.8033636E-2,3.385645E1,5.2835505E-2,1.166666E3,2.022653E-2,3.6793593E-2,-1.693743E-2,-5.3359844E-2,-1.796308E-2],"split_indices":[26,16,3,18,25,0,18,0,0,18,0,16,0,0,0,0,0],"split_type":[0,0,0,0,0,0,0,0,0,0,0,0,0,0,0,0,0],"sum_hessian":[8.142656E1,4.7347263E1,3.40793E1,7.9762745E0,3.937099E1,3.7463093E0,3.0332989E1,3.2359922E0,4.7402825E0,2.6909462E1,1.2461529E1,2.6594965E1,3.738025E0,1.816929E1,8.74017E0,2.3105448E1,3.4895155E0],"tree_param":{"num_deleted":"0","num_feature":"27","num_nodes":"17","size_leaf_vector":"1"}},{"base_weights":[3.1014128E-2,8.522073E-1,-8.9065063E-1,4.777456E-1,5.1252626E-2,2.5190087E-2,-1.1782403E0,8.2094896E-1,-4.697119E-2,-1.5616366E0,-7.580251E-2,-1.1353087E-2,3.581181E-2,-2.3057217E-2,-5.049647E-2,4.0052883E-2,-4.067968E-2],"categories":[],"categories_nodes":[],"categories_segments":[],"categories_sizes":[],"default_left":[0,0,0,0,0,0,0,0,0,0,0,0,0,0,0,0,0],"id":4,"left_children":[1,3,5,7,-1,-1,9,11,-1,13,15,-1,-1,-1,-1,-1,-1],"loss_changes":[6.373355E1,1.3455063E1,2.0741419E1,2.3977303E1,0E0,0E0,1.4443504E1,1.3131304E1,0E0,1.166111E0,1.9765652E1,0E0,0E0,0E0,0E0,0E0,0E0],"parents":[2147483647,0,0,1,1,2,2,3,3,6,6,7,7,9,9,10,10],"right_children":[2,4,6,8,-1,-1,10,12,-1,14,16,-1,-1,-1,-1,-1,-1],"split_conditions":[4.618233E-4,2.7251451E1,1.0005519E0,5.637085E0,5.1252626E-2,2.5190087E-2,1.9948277E1,7.57657E-1,-4.697119E-2,2.9737677E-4,9.999957E-1,-1.1353087E-2,3.581181E-2,-2.3057217E-2,-5.049647E-2,4.0052883E-2,-4.067968E-2],"split_indices":[26,22,3,19,0,0,17,22,0,6,13,0,0,0,0,0,0],"split_type":[0,0,0,0,0,0,0,0,0,0,0,0,0,0,0,0,0],"sum_hessian":[8.2204475E1,4.3511536E1,3.869294E1,3.135606E1,1.2155477E1,5.240873E0,3.345207E1,2.7359253E1,3.996807E0,2.451123E1,8.940836E0,6.4835978E0,2.0875654E1,4.2313914E0,2.0279839E1,4.232876E0,4.70796E0],"tree_param":{"num_deleted":"0","num_feature":"27","num_nodes":"17","size_leaf_vector":"1"}},{"base_weights":[4.712629E-2,7.438684E-1,-9.345461E-1,2.2408609E-1,1.447628E0,-1.2236477E0,4.3708988E-2,-4.5188457E-1,4.4025797E-2,5.1056072E-2,1.6103218E-3,-1.595374E0,3.742349E-2,-2.9913498E-2,1.9405026E-2,-5.0295904E-2,-2.2281185E-2],"categories":[],"categories_nodes":[],"categories_segments":[],"categories_sizes":[],"default_left":[0,0,0,0,0,0,0,0,0,0,0,0,0,0,0,0,0],"id":5,"left_children":[1,3,5,7,9,11,-1,13,-1,-1,-1,15,-1,-1,-1,-1,-1],"loss_changes":[5.7753468E1,1.7727438E1,2.6032103E1,2.5515608E1,7.2734413E0,3.1232094E1,0E0,1.2577692E1,0E0,0E0,0E0,7.000427E-1,0E0,0E0,0E0,0E0,0E0],"parents":[2147483647,0,0,1,1,2,2,3,3,4,4,5,5,7,7,11,11],"right_children":[2,4,6,8,10,12,-1,14,-1,-1,-1,16,-1,-1,-1,-1,-1],"split_conditions":[5.1793223E-4,6.708472E0,7.640638E-2,-2.371014E-3,-1.343342E0,4.640413E1,4.3708988E-2,6.426735E-2,4.4025797E-2,5.1056072E-2,1.6103218E-3,1.1668663E3,3.742349E-2,-2.9913498E-2,1.9405026E-2,-5.0295904E-2,-2.2281185E-2],"split_indices":[26,23,24,25,25,18,0,24,0,0,0,16,0,0,0,0,0],"split_type":[0,0,0,0,0,0,0,0,0,0,0,0,0,0,0,0,0],"sum_hessian":[8.2421906E1,4.834867E1,3.4073235E1,2.8567627E1,1.9781046E1,3.0834139E1,3.239095E0,1.8919188E1,9.648439E0,1.6542908E1,3.2381382E0,2.7110329E1,3.7238097E0,1.2706261E1,6.2129264E0,2.3871996E1,3.238333E0],"tree_param":{"num_deleted":"0","num_feature":"27","num_nodes":"17","size_leaf_vector":"1"}},{"base_weights":[2.1549838E-2,8.0848885E-1,-8.804279E-1,4.4742572E-1,4.8856784E-2,-1.1376559E0,4.1509468E-2,8.193763E-1,-4.5634016E-2,-1.4285038E0,3.672956E-2,3.666166E-2,-1.7958379E-4,-2.1341749E-2,-4.776505E-2],"categories":[],"categories_nodes":[],"categories_segments":[],"categories_sizes":[],"default_left":[0,0,0,0,0,0,0,0,0,0,0,0,0,0,0],"id":6,"left_children":[1,3,5,7,-1,9,-1,11,-1,13,-1,-1,-1,-1,-1],"loss_changes":[5.617789E1,1.17826805E1,2.305763E1,2.3737E1,0E0,2.4882313E1,0E0,8.809683E0,0E0,2.4404068E0,0E0,0E0,0E0,0E0,0E0],"parents":[2147483647,0,0,1,1,2,2,3,3,5,5,7,7,9,9],"right_children":[2,4,6,8,-1,10,-1,12,-1,14,-1,-1,-1,-1,-1],"split_conditions":[4.618233E-4,2.7251451E1,7.2862454E-2,5.637085E0,4.8856784E-2,7.520143E-2,4.1509468E-2,4.509485E1,-4.5634016E-2,2.9737677E-4,3.672956E-2,3.666166E-2,-1.7958379E-4,-2.1341749E-2,-4.776505E-2],"split_indices":[26,22,25,19,0,24,0,18,0,6,0,0,0,0,0],"split_type":[0,0,0,0,0,0,0,0,0,0,0,0,0,0,0],"sum_hessian":[7.714309E1,4.1254158E1,3.588893E1,2.971621E1,1.1537947E1,3.267424E1,3.2146902E0,2.5484749E1,4.2314606E0,2.9443808E1,3.2304316E0,1.6805183E1,8.679566E0,6.4647093E0,2.29791E1],"tree_param":{"num_deleted":"0","num_feature":"27","num_nodes":"15","size_leaf_vector":"1"}},{"base_weights":[1.9495655E-2,8.0843294E-1,-9.082367E-1,3.997987E-1,4.825929E-2,-1.1651132E0,4.209306E-2,7.329869E-1,-4.4078805E-2,-1.3355823E0,1.1136295E-2,-1.3038209E-2,3.1659316E-2,-4.7819097E-2,-5.617285E-3],"categories":[],"categories_nodes":[],"categories_segments":[],"categories_sizes":[],"default_left":[0,0,0,0,0,0,0,0,0,0,0,0,0,0,0],"id":7,"left_children":[1,3,5,7,-1,9,-1,11,-1,13,-1,-1,-1,-1,-1],"loss_changes":[5.9979885E1,1.3834152E1,2.4001299E1,2.0157354E1,0E0,9.51799E0,0E0,1.04958105E1,0E0,8.966953E0,0E0,0E0,0E0,0E0,0E0],"parents":[2147483647,0,0,1,1,2,2,3,3,5,5,7,7,9,9],"right_children":[2,4,6,8,-1,10,-1,12,-1,14,-1,-1,-1,-1,-1],"split_conditions":[4.618233E-4,2.7251451E1,7.640638E-2,5.637085E0,4.825929E-2,1.1909108E3,4.209306E-2,7.57657E-1,-4.4078805E-2,2.0776283E1,1.1136295E-2,-1.3038209E-2,3.1659316E-2,-4.7819097E-2,-5.617285E-3],"split_indices":[26,22,24,19,0,16,0,22,0,22,0,0,0,0,0],"split_type":[0,0,0,0,0,0,0,0,0,0,0,0,0,0,0],"sum_hessian":[7.994523E1,4.327395E1,3.667128E1,2.9638441E1,1.3635508E1,3.3449677E1,3.2216015E0,2.5670248E1,3.9681933E0,3.0226442E1,3.2232347E0,5.4780526E0,2.0192196E1,2.4357662E1,5.8687797E0],"tree_param":{"num_deleted":"0","num_feature":"27","num_nodes":"15","size_leaf_vector":"1"}},{"base_weights":[1.104098E-2,6.490796E-1,-9.2656857E-1,2.728568E-1,4.733675E-2,-1.1901898E0,3.403004E-2,-1.0052015E-1,4.6093307E-2,1.9144239E-2,-1.4798322E0,2.088714E-2,-4.1150086E-2,-4.8049547E-2,-1.6318789E-2],"categories":[],"categories_nodes":[],"categories_segments":[],"categories_sizes":[],"default_left":[0,0,0,0,0,0,0,0,0,0,0,0,0,0,0],"id":8,"left_children":[1,3,5,7,-1,9,-1,11,-1,-1,13,-1,-1,-1,-1],"loss_changes":[4.808672E1,1.6280348E1,1.9036768E1,1.6782635E1,0E0,1.6487179E1,0E0,2.9459421E1,0E0,0E0,2.05167E0,0E0,0E0,0E0,0E0],"parents":[2147483647,0,0,1,1,2,2,3,3,5,5,7,7,10,10],"right_children":[2,4,6,8,-1,10,-1,12,-1,-1,14,-1,-1,-1,-1],"split_conditions":[5.1793223E-4,2.7251451E1,4.640413E1,5.9095412E-2,4.733675E-2,1.0003768E0,3.403004E-2,3.385645E1,4.6093307E-2,1.9144239E-2,1.1668529E3,2.088714E-2,-4.1150086E-2,-4.8049547E-2,-1.6318789E-2],"split_indices":[26,22,18,25,0,3,0,18,0,0,16,0,0,0,0],"split_type":[0,0,0,0,0,0,0,0,0,0,0,0,0,0,0],"sum_hessian":[7.837618E1,4.6821865E1,3.155432E1,3.4244587E1,1.2577278E1,2.8350363E1,3.2039576E0,2.7144201E1,7.1003857E0,3.7124941E0,2.4637869E1,1.6963644E1,1.0180558E1,2.1170744E1,3.4671247E0],"tree_param":{"num_deleted":"0","num_feature":"27","num_nodes":"15","size_leaf_vector":"1"}},{"base_weights":[-7.741882E-2,5.926625E-1,-8.5517985E-1,3.7053466E-2,1.3446693E0,-1.115661E0,4.0642694E-2,-6.9846714E-1,1.2092656E0,4.6923198E-2,8.749395E-3,1.3905486E-1,-1.4379694E0,8.253897E-3,-3.854279E-2,1.3235817E-2,4.455421E-2,-1.4419585E-2,2.4149017E-2,-4.554295E-2,-1.8758016E-2],"categories":[],"categories_nodes":[],"categories_segments":[],"categories_sizes":[],"default_left":[0,0,0,0,0,0,0,0,0,0,0,0,0,0,0,0,0,0,0,0,0],"id":9,"left_children":[1,3,5,7,9,11,-1,13,15,-1,-1,17,19,-1,-1,-1,-1,-1,-1,-1,-1],"loss_changes":[4.250863E1,1.8285782E1,2.3218294E1,2.3490643E1,3.8459358E0,1.4063385E1,0E0,9.927703E0,1.5681067E0,0E0,0E0,3.6544771E0,8.3267975E-1,0E0,0E0,0E0,0E0,0E0,0E0,0E0,0E0],"parents":[2147483647,0,0,1,1,2,2,3,3,4,4,5,5,7,7,8,8,11,11,12,12],"right_children":[2,4,6,8,10,12,-1,14,16,-1,-1,18,20,-1,-1,-1,-1,-1,-1,-1,-1],"split_conditions":[4.618233E-4,6.708472E0,6.0393136E-2,-5.7172447E-2,9.99993E-1,1.0007366E0,4.0642694E-2,1.3987804E1,3.119586E0,4.6923198E-2,8.749395E-3,3.4066688E-3,2.5064678E1,8.253897E-3,-3.854279E-2,1.3235817E-2,4.455421E-2,-1.4419585E-2,2.4149017E-2,-4.554295E-2,-1.8758016E-2],"split_indices":[26,23,25,25,2,3,0,17,23,0,0,10,22,0,0,0,0,0,0,0,0],"split_type":[0,0,0,0,0,0,0,0,0,0,0,0,0,0,0,0,0,0,0,0,0],"sum_hessian":[7.959241E1,4.288379E1,3.6708614E1,2.52658E1,1.7617989E1,3.3281006E1,3.427611E0,1.5772977E1,9.492825E0,1.4178096E1,3.4398935E0,6.9180927E0,2.6362911E1,6.1278324E0,9.645144E0,3.19547E0,6.297354E0,3.7274644E0,3.190628E0,2.3206852E1,3.15606E0],"tree_param":{"num_deleted":"0","num_feature":"27","num_nodes":"21","size_leaf_vector":"1"}},{"base_weights":[6.824624E-2,7.45346E-1,-8.367362E-1,3.1281367E-1,1.3420233E0,-1.1032674E0,3.5107855E-2,6.6446036E-1,-4.28226E-2,4.6390682E-2,6.6815685E-3,3.0142546E-2,-1.4136702E0,3.258655E-2,-2.3344804E-2,-4.5511127E-2,-1.7121054E-2],"categories":[],"categories_nodes":[],"categories_segments":[],"categories_sizes":[],"default_left":[0,0,0,0,0,0,0,0,0,0,0,0,0,0,0,0,0],"id":10,"left_children":[1,3,5,7,9,11,-1,13,-1,-1,-1,-1,15,-1,-1,-1,-1],"loss_changes":[5.1020992E1,1.1858519E1,2.03724E1,1.8624783E1,4.1588783E0,2.2361546E1,0E0,1.58809805E1,0E0,0E0,0E0,0E0,1.6011696E0,0E0,0E0,0E0,0E0],"parents":[2147483647,0,0,1,1,2,2,3,3,4,4,5,5,7,7,12,12],"right_children":[2,4,6,8,10,12,-1,14,-1,-1,-1,-1,16,-1,-1,-1,-1],"split_conditions":[5.027127E-4,6.708472E0,4.640413E1,5.537154E0,1.999986E3,1.0003768E0,3.5107855E-2,3.88125E1,-4.28226E-2,4.6390682E-2,6.6815685E-3,3.0142546E-2,1.1668529E3,3.258655E-2,-2.3344804E-2,-4.5511127E-2,-1.7121054E-2],"split_indices":[26,23,18,19,16,3,0,17,0,0,0,0,16,0,0,0,0],"split_type":[0,0,0,0,0,0,0,0,0,0,0,0,0,0,0,0,0],"sum_hessian":[8.1246E1,4.657523E1,3.4670773E1,2.7885351E1,1.8689877E1,3.1003736E1,3.6670358E0,2.3712065E1,4.1732874E0,1.5482044E1,3.2078328E0,3.6921995E0,2.7311537E1,1.8539106E1,5.172958E0,2.3616026E1,3.69551E0],"tree_param":{"num_deleted":"0","num_feature":"27","num_nodes":"17","size_leaf_vector":"1"}},{"base_weights":[-2.2278406E-2,5.7111543E-1,-8.993517E-1,2.2998534E-1,4.4451784E-2,2.210319E-2,-1.1313586E0,5.745621E-1,-4.365781E-2,-4.3341793E-2,-5.849566E-2,-1.919839E-2,2.719088E-2,2.0942342E-2,-2.4177823E-2],"categories":[],"categories_nodes":[],"categories_segments":[],"categories_sizes":[],"default_left":[0,0,0,0,0,0,0,0,0,0,0,0,0,0,0],"id":11,"left_children":[1,3,5,7,-1,-1,9,11,-1,-1,13,-1,-1,-1,-1],"loss_changes":[3.9845592E1,1.3851535E1,1.2557337E1,2.0823996E1,0E0,0E0,9.142151E0,1.2384888E1,0E0,0E0,4.660175E0,0E0,0E0,0E0,0E0],"parents":[2147483647,0,0,1,1,2,2,3,3,6,6,7,7,10,10],"right_children":[2,4,6,8,-1,-1,10,12,-1,-1,14,-1,-1,-1,-1],"split_conditions":[5.1793223E-4,2.7251451E1,1.0003768E0,5.537154E0,4.4451784E-2,2.210319E-2,1.7625E1,8.64E2,-4.365781E-2,-4.3341793E-2,2.2757785E0,-1.919839E-2,2.719088E-2,2.0942342E-2,-2.4177823E-2],"split_indices":[26,22,3,19,0,0,17,0,0,0,19,0,0,0,0],"split_type":[0,0,0,0,0,0,0,0,0,0,0,0,0,0,0],"sum_hessian":[7.4573E1,4.46878E1,2.9885197E1,3.342049E1,1.1267314E1,3.4413023E0,2.6443893E1,2.8294308E1,5.126182E0,2.0197798E1,6.246095E0,5.871998E0,2.242231E1,3.1368794E0,3.1092157E0],"tree_param":{"num_deleted":"0","num_feature":"27","num_nodes":"15","size_leaf_vector":"1"}},{"base_weights":[6.887536E-2,7.3857635E-1,-7.5850534E-1,-1.4451247E-2,9.4706875E-1,-1.034026E0,4.1067224E-2,6.439592E-1,4.3925785E-2,-1.4191458E0,-1.6178053E-2,-2.035977E-2,3.3781346E-2,-2.2027314E-2,-4.484545E-2,3.296294E-2,-3.4711476E-2],"categories":[],"categories_nodes":[],"categories_segments":[],"categories_sizes":[],"default_left":[0,0,0,0,0,0,0,0,0,0,0,0,0,0,0,0,0],"id":12,"left_children":[1,3,5,-1,7,9,-1,11,-1,13,15,-1,-1,-1,-1,-1,-1],"loss_changes":[4.303897E1,1.1364569E1,2.180609E1,0E0,4.8497963E0,1.2273281E1,0E0,1.6758362E1,0E0,8.1783295E-2,1.3510943E1,0E0,0E0,0E0,0E0,0E0,0E0],"parents":[2147483647,0,0,1,1,2,2,4,4,5,5,7,7,9,9,10,10],"right_children":[2,4,6,-1,8,10,-1,12,-1,14,16,-1,-1,-1,-1,-1,-1],"split_conditions":[4.618233E-4,7.57657E-1,7.520143E-2,-1.4451247E-2,7.6496973E0,1.78E1,4.1067224E-2,9.999718E-1,4.3925785E-2,3.4276017E-3,9.9999666E-1,-2.035977E-2,3.3781346E-2,-2.2027314E-2,-4.484545E-2,3.296294E-2,-3.4711476E-2],"split_indices":[26,22,24,0,23,17,0,2,0,10,13,0,0,0,0,0,0],"split_type":[0,0,0,0,0,0,0,0,0,0,0,0,0,0,0,0,0],"sum_hessian":[7.566294E1,4.187538E1,3.3787563E1,5.9193873E0,3.5955994E1,3.0368498E1,3.4190655E0,2.408435E1,1.1871642E1,2.17462E1,8.622298E0,6.324664E0,1.7759687E1,3.229258E0,1.8516943E1,4.3793674E0,4.242931E0],"tree_param":{"num_deleted":"0","num_feature":"27","num_nodes":"17","size_leaf_vector":"1"}},{"base_weights":[4.0213056E-2,7.069378E-1,-8.074311E-1,-1.14748515E-2,1.0491221E0,-1.0605478E0,3.768626E-2,-5.6251067E-1,3.7914347E-2,4.4212516E-2,6.935746E-1,-1.3367045E0,7.767728E-3,1.5648766E-3,-3.6095686E-2,-2.5024805E-3,4.1833814E-2,-4.23795E-2,-1.8370848E-2],"categories":[],"categories_nodes":[],"categories_segments":[],"categories_sizes":[],"default_left":[0,0,0,0,0,0,0,0,0,0,0,0,0,0,0,0,0,0,0],"id":13,"left_children":[1,3,5,7,9,11,-1,13,-1,-1,15,17,-1,-1,-1,-1,-1,-1,-1],"loss_changes":[4.290096E1,1.0449476E1,1.8801113E1,1.1032284E1,3.3214836E0,1.1398396E1,0E0,4.3741956E0,0E0,0E0,9.672629E0,5.2366257E-1,0E0,0E0,0E0,0E0,0E0,0E0,0E0],"parents":[2147483647,0,0,1,1,2,2,3,3,4,4,5,5,7,7,10,10,11,11],"right_children":[2,4,6,8,10,12,-1,14,-1,-1,16,18,-1,-1,-1,-1,-1,-1,-1],"split_conditions":[4.618233E-4,1.0003102E0,7.2862454E-2,7.13686E-2,1.0880063E-3,7.13686E-2,3.768626E-2,5.9809903E-5,3.7914347E-2,4.4212516E-2,2.7251451E1,1.185E3,7.767728E-3,1.5648766E-3,-3.6095686E-2,-2.5024805E-3,4.1833814E-2,-4.23795E-2,-1.8370848E-2],"split_indices":[26,3,25,24,7,24,0,6,0,0,22,0,0,0,0,0,0,0,0],"split_type":[0,0,0,0,0,0,0,0,0,0,0,0,0,0,0,0,0,0,0],"sum_hessian":[7.390136E1,4.145804E1,3.244332E1,1.3687574E1,2.7770464E1,2.9331707E1,3.1116152E0,9.948055E0,3.7395194E0,1.1222488E1,1.6547976E1,2.4244448E1,5.08726E0,5.545875E0,4.4021797E0,8.26572E0,8.282255E0,2.1083632E1,3.1608155E0],"tree_param":{"num_deleted":"0","num_feature":"27","num_nodes":"19","size_leaf_vector":"1"}},{"base_weights":[-4.8705578E-2,-3.827018E-1,4.3517966E-2,-7.238541E-1,4.1289628E-2,-9.536754E-1,4.096145E-2,-3.823628E-2,8.898499E-3],"categories":[],"categories_nodes":[],"categories_segments":[],"categories_sizes":[],"default_left":[0,0,0,0,0,0,0,0,0],"id":14,"left_children":[1,3,-1,5,-1,7,-1,-1,-1],"loss_changes":[3.7335762E1,3.7517612E1,0E0,2.6091679E1,0E0,1.9273922E1,0E0,0E0,0E0],"parents":[2147483647,0,0,1,1,3,3,5,5],"right_children":[2,4,-1,6,-1,8,-1,-1,-1],"split_conditions":[2.7251451E1,7.2862454E-2,4.3517966E-2,7.520143E-2,4.1289628E-2,1.1909108E3,4.096145E-2,-3.823628E-2,8.898499E-3],"split_indices":[22,25,0,24,0,16,0,0,0],"split_type":[0,0,0,0,0,0,0,0,0],"sum_hessian":[7.244929E1,5.9859325E1,1.2589963E1,5.0628674E1,9.230649E0,4.610098E1,4.5276957E0,3.667065E1,9.430328E0],"tree_param":{"num_deleted":"0","num_feature":"27","num_nodes":"9","size_leaf_vector":"1"}},{"base_weights":[-1.9284545E-2,6.2977225E-1,-7.6221657E-1,1.0746012E0,1.0105634E-1,-1.0134419E0,3.8085148E-2,1.0390385E-3,4.135352E-2,-9.210614E-1,4.0448923E-2,1.2486175E-2,-1.2849975E0,-4.3647632E-2,1.2128149E-2,-1.5769107E-2,-4.2227875E-2],"categories":[],"categories_nodes":[],"categories_segments":[],"categories_sizes":[],"default_left":[0,0,0,0,0,0,0,0,0,0,0,0,0,0,0,0,0],"id":15,"left_children":[1,3,5,7,9,11,-1,-1,-1,13,-1,-1,15,-1,-1,-1,-1],"loss_changes":[3.642952E1,9.378332E0,1.9260853E1,6.8418236E0,2.6145273E1,1.2917603E1,0E0,0E0,0E0,8.6049385E0,0E0,0E0,1.7782707E0,0E0,0E0,0E0,0E0],"parents":[2147483647,0,0,1,1,2,2,3,3,4,4,5,5,9,9,12,12],"right_children":[2,4,6,8,10,12,-1,-1,-1,14,-1,-1,16,-1,-1,-1,-1],"split_conditions":[4.5980656E-4,3.5079643E1,4.640413E1,5.5128236E0,-5.7172447E-2,1.5830762E-4,3.8085148E-2,1.0390385E-3,4.135352E-2,1.8179634E-7,4.0448923E-2,1.2486175E-2,1.684461E-7,-4.3647632E-2,1.2128149E-2,-1.5769107E-2,-4.2227875E-2],"split_indices":[26,18,18,23,25,6,0,0,0,1,0,0,1,0,0,0,0],"split_type":[0,0,0,0,0,0,0,0,0,0,0,0,0,0,0,0,0],"sum_hessian":[7.35523E1,3.9337612E1,3.4214684E1,2.0802881E1,1.853473E1,3.089559E1,3.3190956E0,4.955611E0,1.5847269E1,1.0330433E1,8.204299E0,4.846697E0,2.6048893E1,7.2943897E0,3.0360432E0,4.3559723E0,2.169292E1],"tree_param":{"num_deleted":"0","num_feature":"27","num_nodes":"17","size_leaf_vector":"1"}},{"base_weights":[-6.1954487E-2,5.9352183E-1,-8.8990223E-1,1.0202894E0,6.859188E-2,-1.1532253E0,3.1187238E-2,4.4837296E-3,4.0476914E-2,-9.031158E-1,3.9655767E-2,8.292348E-3,-4.0274333E-2,-4.272644E-2,1.1706193E-2],"categories":[],"categories_nodes":[],"categories_segments":[],"categories_sizes":[],"default_left":[0,0,0,0,0,0,0,0,0,0,0,0,0,0,0],"id":16,"left_children":[1,3,5,7,9,11,-1,-1,-1,13,-1,-1,-1,-1,-1],"loss_changes":[3.8741447E1,8.868498E0,1.7210054E1,6.0818443E0,2.4288649E1,8.001797E0,0E0,0E0,0E0,8.155284E0,0E0,0E0,0E0,0E0,0E0],"parents":[2147483647,0,0,1,1,2,2,3,3,4,4,5,5,9,9],"right_children":[2,4,6,8,10,12,-1,-1,-1,14,-1,-1,-1,-1,-1],"split_conditions":[4.830938E-4,3.385986E1,4.640413E1,5.5128236E0,-5.7172447E-2,1.7475599E-4,3.1187238E-2,4.4837296E-3,4.0476914E-2,1.8179634E-7,3.9655767E-2,8.292348E-3,-4.0274333E-2,-4.272644E-2,1.1706193E-2],"split_indices":[26,18,18,23,25,6,0,0,0,1,0,0,0,0,0],"split_type":[0,0,0,0,0,0,0,0,0,0,0,0,0,0,0],"sum_hessian":[6.941322E1,3.8899834E1,3.0513391E1,2.093557E1,1.7964266E1,2.7203182E1,3.3102095E0,6.1386366E0,1.4796932E1,1.027615E1,7.6881156E0,3.1262858E0,2.4076897E1,7.252716E0,3.0234337E0],"tree_param":{"num_deleted":"0","num_feature":"27","num_nodes":"15","size_leaf_vector":"1"}},{"base_weights":[4.423008E-2,6.2250406E-1,-7.798141E-1,1.3280174E-1,3.963939E-2,1.7423453E-2,-9.945335E-1,-1.0351706E0,7.114954E-1,-1.2582026E0,1.252249E-2,-7.905099E-3,-4.5052167E-2,3.9428957E-2,-2.7871793E-2,-4.1894764E-2,-9.463088E-3],"categories":[],"categories_nodes":[],"categories_segments":[],"categories_sizes":[],"default_left":[0,0,0,0,0,0,0,0,0,0,0,0,0,0,0,0,0],"id":17,"left_children":[1,3,5,7,-1,-1,9,11,13,15,-1,-1,-1,-1,-1,-1,-1],"loss_changes":[3.389554E1,1.4113821E1,9.153875E0,1.808215E1,0E0,0E0,1.0101715E1,2.8121557E0,1.8777788E1,2.4179344E0,0E0,0E0,0E0,0E0,0E0,0E0,0E0],"parents":[2147483647,0,0,1,1,2,2,3,3,6,6,7,7,8,8,9,9],"right_children":[2,4,6,8,-1,-1,10,12,14,16,-1,-1,-1,-1,-1,-1,-1],"split_conditions":[4.618233E-4,6.708472E0,1.0005031E0,-3.136958E0,3.963939E-2,1.7423453E-2,4.0051826E1,1.3611765E1,4.4557693E1,1.1666752E3,1.252249E-2,-7.905099E-3,-4.5052167E-2,3.9428957E-2,-2.7871793E-2,-4.1894764E-2,-9.463088E-3],"split_indices":[26,23,3,25,0,0,18,17,17,16,0,0,0,0,0,0,0],"split_type":[0,0,0,0,0,0,0,0,0,0,0,0,0,0,0,0,0],"sum_hessian":[6.9112206E1,4.0756123E1,2.8356081E1,2.4663082E1,1.6093039E1,3.6326292E0,2.4723452E1,7.9098654E0,1.6753218E1,2.0924818E1,3.7986343E0,3.5700512E0,4.339814E0,1.2396964E1,4.356253E0,1.7828392E1,3.0964246E0],"tree_param":{"num_deleted":"0","num_feature":"27","num_nodes":"17","size_leaf_vector":"1"}},{"base_weights":[-8.813359E-3,5.8979267E-1,-7.0417196E-1,-7.360159E-2,9.1615635E-1,-9.3649983E-1,3.7975404E-2,8.416121E-1,-9.263441E-1,1.2524768E0,4.2469472E-1,-1.1687185E0,2.609951E-2,3.5840753E-2,7.270044E-3,-6.844833E-3,-4.4618394E-2,1.7791508E-2,4.1480836E-2,-1.7973507E-2,3.25678E-2,-1.0298639E-2,-3.9109733E-2],"categories":[],"categories_nodes":[],"categories_segments":[],"categories_sizes":[],"default_left":[0,0,0,0,0,0,0,0,0,0,0,0,0,0,0,0,0,0,0,0,0,0,0],"id":18,"left_children":[1,3,5,7,9,11,-1,13,15,17,19,21,-1,-1,-1,-1,-1,-1,-1,-1,-1,-1,-1],"loss_changes":[3.1350218E1,8.832122E0,1.7129894E1,1.1919835E1,3.9652271E0,1.4330212E1,0E0,1.2781515E0,2.7410126E0,5.230293E-1,9.153923E0,2.7322693E0,0E0,0E0,0E0,0E0,0E0,0E0,0E0,0E0,0E0,0E0,0E0],"parents":[2147483647,0,0,1,1,2,2,3,3,4,4,5,5,7,7,8,8,9,9,10,10,11,11],"right_children":[2,4,6,8,10,12,-1,14,16,18,20,22,-1,-1,-1,-1,-1,-1,-1,-1,-1,-1,-1],"split_conditions":[4.618233E-4,1.0003102E0,7.640638E-2,1.3987804E1,1.5506774E-4,6.0393136E-2,3.7975404E-2,5.027993E-4,9.643679E-5,9.9988574E-1,2.5956242E-4,1.0007366E0,2.609951E-2,3.5840753E-2,7.270044E-3,-6.844833E-3,-4.4618394E-2,1.7791508E-2,4.1480836E-2,-1.7973507E-2,3.25678E-2,-1.0298639E-2,-3.9109733E-2],"split_indices":[26,3,24,17,6,25,0,9,26,2,6,3,0,0,0,0,0,0,0,0,0,0,0],"split_type":[0,0,0,0,0,0,0,0,0,0,0,0,0,0,0,0,0,0,0,0,0,0,0],"sum_hessian":[7.3318825E1,3.94821E1,3.3836723E1,1.3274242E1,2.6207859E1,3.0736532E1,3.1001906E0,6.408892E0,6.86535E0,1.4640497E1,1.1567362E1,2.7548313E1,3.1882207E0,3.4076397E0,3.0012524E0,3.68521E0,3.1801398E0,3.3302612E0,1.1310236E1,4.574457E0,6.9929047E0,4.3687105E0,2.3179602E1],"tree_param":{"num_deleted":"0","num_feature":"27","num_nodes":"23","size_leaf_vector":"1"}},{"base_weights":[1.1316611E-2,-3.0413273E-1,4.105317E-2,-6.4659184E-1,4.159206E-2,-8.89733E-1,3.999802E-2,-3.670871E-2,3.0788113E-3],"categories":[],"categories_nodes":[],"categories_segments":[],"categories_sizes":[],"default_left":[0,0,0,0,0,0,0,0,0],"id":19,"left_children":[1,3,-1,5,-1,7,-1,-1,-1],"loss_changes":[3.1179346E1,3.512598E1,0E0,2.5181856E1,0E0,1.5034119E1,0E0,0E0,0E0],"parents":[2147483647,0,0,1,1,3,3,5,5],"right_children":[2,4,-1,6,-1,8,-1,-1,-1],"split_conditions":[2.7251451E1,7.2862454E-2,4.105317E-2,7.640638E-2,4.159206E-2,1.185E3,3.999802E-2,-3.670871E-2,3.0788113E-3],"split_indices":[22,25,0,24,0,0,0,0,0],"split_type":[0,0,0,0,0,0,0,0,0],"sum_hessian":[7.085919E1,5.812461E1,1.2734579E1,4.8846985E1,9.277627E0,4.399472E1,4.852265E0,3.2744442E1,1.1250275E1],"tree_param":{"num_deleted":"0","num_feature":"27","num_nodes":"9","size_leaf_vector":"1"}},{"base_weights":[-1.448817E-2,4.4997948E-1,-8.0045146E-1,1.8832307E-1,3.9259944E-2,-1.2067677E0,3.703955E-2,-6.302531E-1,6.870232E-1,-6.433359E-1,-4.141429E-2,-3.645158E-2,3.5978172E-2,2.9657329E-2,-2.3145845E-2,-3.288064E-2,-1.8826795E-3],"categories":[],"categories_nodes":[],"categories_segments":[],"categories_sizes":[],"default_left":[0,0,0,0,0,0,0,0,0,0,0,0,0,0,0,0,0],"id":20,"left_children":[1,3,5,7,-1,9,-1,11,13,15,-1,-1,-1,-1,-1,-1,-1],"loss_changes":[2.7100456E1,1.0242029E1,2.4286043E1,1.5515775E1,0E0,1.4105263E0,0E0,1.698067E1,1.1071551E1,1.8779936E0,0E0,0E0,0E0,0E0,0E0,0E0,0E0],"parents":[2147483647,0,0,1,1,2,2,3,3,5,5,7,7,8,8,9,9],"right_children":[2,4,6,8,-1,10,-1,12,14,16,-1,-1,-1,-1,-1,-1,-1],"split_conditions":[3.1024584E-4,7.6496973E0,7.2862454E-2,-3.136958E0,3.9259944E-2,9.999845E-1,3.703955E-2,7.520143E-2,4.85E1,8.64E2,-4.141429E-2,-3.645158E-2,3.5978172E-2,2.9657329E-2,-2.3145845E-2,-3.288064E-2,-1.8826795E-3],"split_indices":[6,23,25,25,0,13,0,24,17,0,0,0,0,0,0,0,0],"split_type":[0,0,0,0,0,0,0,0,0,0,0,0,0,0,0,0,0],"sum_hessian":[7.225006E1,4.5681755E1,2.6568308E1,3.59473E1,9.734456E0,2.248593E1,4.0823784E0,1.3509217E1,2.2438084E1,6.4072533E0,1.6078676E1,1.0491516E1,3.0177007E0,1.8860838E1,3.5772452E0,3.101314E0,3.3059392E0],"tree_param":{"num_deleted":"0","num_feature":"27","num_nodes":"17","size_leaf_vector":"1"}},{"base_weights":[-2.6774261E-2,4.6577355E-1,-7.916666E-1,1.0264847E0,-2.5955541E-2,-1.0588245E0,2.942269E-2,-1.3183011E-3,4.0071923E-2,-7.346966E-1,3.505618E-2,3.5910318E-3,-3.81967E-2,2.6198253E-2,-3.6346838E-2],"categories":[],"categories_nodes":[],"categories_segments":[],"categories_sizes":[],"default_left":[0,0,0,0,0,0,0,0,0,0,0,0,0,0,0],"id":21,"left_children":[1,3,5,7,9,11,-1,-1,-1,13,-1,-1,-1,-1,-1],"loss_changes":[2.7033434E1,1.2070651E1,1.4341419E1,6.822958E0,2.138665E1,6.442713E0,0E0,0E0,0E0,1.3198055E1,0E0,0E0,0E0,0E0,0E0],"parents":[2147483647,0,0,1,1,2,2,3,3,4,4,5,5,9,9],"right_children":[2,4,6,8,10,12,-1,-1,-1,14,-1,-1,-1,-1,-1],"split_conditions":[5.1793223E-4,2.8814043E1,4.640413E1,9.9831367E-1,-2.371014E-3,1.7475599E-4,2.942269E-2,-1.3183011E-3,4.0071923E-2,9.999939E-1,3.505618E-2,3.5910318E-3,-3.81967E-2,2.6198253E-2,-3.6346838E-2],"split_indices":[26,18,18,20,25,6,0,0,0,13,0,0,0,0,0],"split_type":[0,0,0,0,0,0,0,0,0,0,0,0,0,0,0],"sum_hessian":[6.977631E1,4.268234E1,2.7093973E1,1.9434254E1,2.3248085E1,2.3894897E1,3.199075E0,4.5483704E0,1.4885883E1,1.4832378E1,8.415706E0,3.7458863E0,2.0149012E1,3.20247E0,1.1629909E1],"tree_param":{"num_deleted":"0","num_feature":"27","num_nodes":"15","size_leaf_vector":"1"}},{"base_weights":[1.4713184E-2,5.435414E-1,-7.1285504E-1,9.3875945E-1,-5.5207618E-2,-9.7603804E-1,3.669833E-2,-9.507482E-2,3.924253E-2,-9.894216E-1,3.7983347E-2,-1.2246311E0,1.2081458E-2,3.823585E-2,-4.3813735E-2,-4.3624092E-2,-1.6357519E-3,-7.900121E-3,-4.072486E-2],"categories":[],"categories_nodes":[],"categories_segments":[],"categories_sizes":[],"default_left":[0,0,0,0,0,0,0,0,0,0,0,0,0,0,0,0,0,0,0],"id":22,"left_children":[1,3,5,7,9,11,-1,13,-1,15,-1,17,-1,-1,-1,-1,-1,-1,-1],"loss_changes":[2.7411377E1,9.81082E0,1.6478428E1,9.630974E0,2.2660036E1,9.734478E0,0E0,1.5859822E1,0E0,4.578434E0,0E0,2.5917435E0,0E0,0E0,0E0,0E0,0E0,0E0,0E0],"parents":[2147483647,0,0,1,1,2,2,3,3,4,4,5,5,7,7,9,9,11,11],"right_children":[2,4,6,8,10,12,-1,14,-1,16,-1,18,-1,-1,-1,-1,-1,-1,-1],"split_conditions":[4.618233E-4,3.5810364E1,7.640638E-2,9.9831367E-1,-2.9132988E-3,4.0051826E1,3.669833E-2,1.167E3,3.924253E-2,5.8529977E-8,3.7983347E-2,1.993144E-7,1.2081458E-2,3.823585E-2,-4.3813735E-2,-4.3624092E-2,-1.6357519E-3,-7.900121E-3,-4.072486E-2],"split_indices":[26,18,24,20,25,18,0,0,0,1,0,1,0,0,0,0,0,0,0],"split_type":[0,0,0,0,0,0,0,0,0,0,0,0,0,0,0,0,0,0,0],"sum_hessian":[6.923602E1,4.024045E1,2.8995573E1,2.3898094E1,1.6342358E1,2.5962336E1,3.0332382E0,6.4856577E0,1.7412437E1,9.720703E0,6.6216545E0,2.2091043E1,3.8712924E0,3.2710445E0,3.214613E0,6.122136E0,3.598567E0,3.0446346E0,1.904641E1],"tree_param":{"num_deleted":"0","num_feature":"27","num_nodes":"19","size_leaf_vector":"1"}},{"base_weights":[-7.0754816E-3,-2.777999E-1,3.954506E-2,-5.768669E-1,3.7003726E-2,-9.9700326E-1,3.261348E-1,-1.3902033E-2,-3.9880693E-2,-7.5174994E-3,4.0129654E-2],"categories":[],"categories_nodes":[],"categories_segments":[],"categories_sizes":[],"default_left":[0,0,0,0,0,0,0,0,0,0,0],"id":23,"left_children":[1,3,-1,5,-1,7,9,-1,-1,-1,-1],"loss_changes":[2.6105686E1,2.800981E1,0E0,1.971251E1,0E0,5.612694E0,1.0240687E1,0E0,0E0,0E0,0E0],"parents":[2147483647,0,0,1,1,3,3,5,5,6,6],"right_children":[2,4,-1,6,-1,8,10,-1,-1,-1,-1],"split_conditions":[2.7251451E1,7.2862454E-2,3.954506E-2,1.185E3,3.7003726E-2,1.0006756E0,6.426735E-2,-1.3902033E-2,-3.9880693E-2,-7.5174994E-3,4.0129654E-2],"split_indices":[22,25,0,0,0,3,24,0,0,0,0],"split_type":[0,0,0,0,0,0,0,0,0,0,0],"sum_hessian":[7.0742546E1,5.939878E1,1.1343763E1,5.01022E1,9.29658E0,3.4122192E1,1.5980008E1,1.4015012E1,2.0107182E1,1.0656486E1,5.323522E0],"tree_param":{"num_deleted":"0","num_feature":"27","num_nodes":"11","size_leaf_vector":"1"}},{"base_weights":[2.0178156E-3,-2.9864678E-1,3.91072E-2,2.1940017E-1,-9.232618E-1,3.896124E-2,2.0332636E-2,-1.0795141E0,1.2540172E-3,-3.837778E-2,7.837617E-3,-3.8548328E-2,7.2291534E-4],"categories":[],"categories_nodes":[],"categories_segments":[],"categories_sizes":[],"default_left":[0,0,0,0,0,0,0,0,0,0,0,0,0],"id":24,"left_children":[1,3,-1,5,7,-1,9,11,-1,-1,-1,-1,-1],"loss_changes":[2.8101706E1,1.9080318E1,0E0,6.9990664E0,4.0625095E0,0E0,9.295976E0,5.237816E0,0E0,0E0,0E0,0E0,0E0],"parents":[2147483647,0,0,1,1,3,3,4,4,6,6,7,7],"right_children":[2,4,-1,6,8,-1,10,12,-1,-1,-1,-1,-1],"split_conditions":[2.7251451E1,2.905502E-7,3.91072E-2,9.982877E-1,1.1668663E3,3.896124E-2,8.64E2,1.7625E1,1.2540172E-3,-3.837778E-2,7.837617E-3,-3.8548328E-2,7.2291534E-4],"split_indices":[22,1,0,20,16,0,0,17,0,0,0,0,0],"split_type":[0,0,0,0,0,0,0,0,0,0,0,0,0],"sum_hessian":[6.981563E1,5.7340324E1,1.24753E1,3.169865E1,2.5641674E1,4.0759015E0,2.762275E1,2.1966503E1,3.6751702E0,3.6459079E0,2.3976841E1,1.8380737E1,3.5857666E0],"tree_param":{"num_deleted":"0","num_feature":"27","num_nodes":"13","size_leaf_vector":"1"}},{"base_weights":[6.345075E-2,-1.9655944E-1,3.8573127E-2,-4.7195932E-1,3.6308162E-2,-9.1777134E-1,4.301308E-1,3.5691695E-4,-3.5857987E-2,3.9531596E-2,-3.8534522E-2],"categories":[],"categories_nodes":[],"categories_segments":[],"categories_sizes":[],"default_left":[0,0,0,0,0,0,0,0,0,0,0],"id":25,"left_children":[1,3,-1,5,-1,7,9,-1,-1,-1,-1],"loss_changes":[2.2689266E1,2.3461401E1,0E0,2.0554281E1,0E0,8.751263E0,2.7960745E1,0E0,0E0,0E0,0E0],"parents":[2147483647,0,0,1,1,3,3,5,5,6,6],"right_children":[2,4,-1,6,-1,8,10,-1,-1,-1,-1],"split_conditions":[2.7251451E1,7.2862454E-2,3.8573127E-2,1.185E3,3.6308162E-2,4.9713023E-8,3.385645E1,3.5691695E-4,-3.5857987E-2,3.9531596E-2,-3.8534522E-2],"split_indices":[22,25,0,0,0,1,18,0,0,0,0],"split_type":[0,0,0,0,0,0,0,0,0,0,0],"sum_hessian":[6.9596054E1,5.8080452E1,1.1515599E1,4.9127773E1,8.952679E0,3.286737E1,1.6260405E1,7.7753544E0,2.5092016E1,1.0866646E1,5.3937597E0],"tree_param":{"num_deleted":"0","num_feature":"27","num_nodes":"11","size_leaf_vector":"1"}},{"base_weights":[-2.3516385E-2,4.2557725E-1,-8.439999E-1,1.3456982E-1,3.7020054E-2,-3.88046E-2,3.4730513E-2,-2.7819114E-2,4.2138684E-1,3.8914766E-2,-8.5964554E-4],"categories":[],"categories_nodes":[],"categories_segments":[],"categories_sizes":[],"default_left":[0,0,0,0,0,0,0,0,0,0,0],"id":26,"left_children":[1,3,5,7,-1,-1,-1,-1,9,-1,-1],"loss_changes":[2.4645195E1,1.00111685E1,2.2775854E1,1.042061E1,0E0,0E0,0E0,0E0,1.0527464E1,0E0,0E0],"parents":[2147483647,0,0,1,1,2,2,3,3,8,8],"right_children":[2,4,6,8,-1,-1,-1,-1,10,-1,-1],"split_conditions":[1.5399836E-4,2.7251451E1,6.077574E-2,-4.3064313E0,3.7020054E-2,-3.88046E-2,3.4730513E-2,-2.7819114E-2,1.3987804E1,3.8914766E-2,-8.5964554E-4],"split_indices":[21,22,25,25,0,0,0,0,17,0,0],"split_type":[0,0,0,0,0,0,0,0,0,0,0],"sum_hessian":[6.4909706E1,4.2259937E1,2.2649769E1,3.1931913E1,1.0328024E1,1.878526E1,3.8645096E0,6.315851E0,2.5616062E1,8.056318E0,1.7559744E1],"tree_param":{"num_deleted":"0","num_feature":"27","num_nodes":"11","size_leaf_vector":"1"}},{"base_weights":[2.4392411E-2,-2.2149552E-1,3.7613533E-2,-5.371379E-1,3.8065966E-2,-7.9967044E-2,-1.1734759E0,1.2119815E-2,-3.07879E-2,-1.8359777E-2,-3.895738E-2],"categories":[],"categories_nodes":[],"categories_segments":[],"categories_sizes":[],"default_left":[0,0,0,0,0,0,0,0,0,0,0],"id":27,"left_children":[1,3,-1,5,-1,7,9,-1,-1,-1,-1],"loss_changes":[2.0871773E1,2.7787874E1,0E0,1.3943764E1,0E0,1.3765724E1,6.1720467E-1,0E0,0E0,0E0,0E0],"parents":[2147483647,0,0,1,1,3,3,5,5,6,6],"right_children":[2,4,-1,6,-1,8,10,-1,-1,-1,-1],"split_conditions":[7.6496973E0,1.3774213E-1,3.7613533E-2,3.1024584E-4,3.8065966E-2,3.576726E1,9.9998134E-1,1.2119815E-2,-3.07879E-2,-1.8359777E-2,-3.895738E-2],"split_indices":[23,25,0,6,0,18,13,0,0,0,0],"split_type":[0,0,0,0,0,0,0,0,0,0,0],"sum_hessian":[6.712627E1,5.6621384E1,1.0504883E1,4.7253246E1,9.368135E0,2.8152803E1,1.9100443E1,1.900581E1,9.146994E0,4.5538692E0,1.4546574E1],"tree_param":{"num_deleted":"0","num_feature":"27","num_nodes":"11","size_leaf_vector":"1"}},{"base_weights":[2.0563383E-2,-2.3458645E-1,3.734449E-2,-1.0332932E0,8.40283E-2,-3.860355E-2,-9.861393E-3,-4.4707498E-1,8.0667925E-1,-2.6277784E-2,3.573145E-2,3.6381707E-2,-7.9022034E-4],"categories":[],"categories_nodes":[],"categories_segments":[],"categories_sizes":[],"default_left":[0,0,0,0,0,0,0,0,0,0,0,0,0],"id":28,"left_children":[1,3,-1,5,7,-1,-1,9,11,-1,-1,-1,-1],"loss_changes":[2.072817E1,1.40784645E1,0E0,2.3907013E0,1.5800122E1,0E0,0E0,1.7784271E1,5.9165106E0,0E0,0E0,0E0,0E0],"parents":[2147483647,0,0,1,1,3,3,4,4,7,7,8,8],"right_children":[2,4,-1,6,8,-1,-1,10,12,-1,-1,-1,-1],"split_conditions":[2.7251451E1,8.6391705E2,3.734449E-2,5.787037E-2,1.78E1,-3.860355E-2,-9.861393E-3,7.640638E-2,1.999972E3,-2.6277784E-2,3.573145E-2,3.6381707E-2,-7.9022034E-4],"split_indices":[22,16,0,24,17,0,0,24,16,0,0,0,0],"split_type":[0,0,0,0,0,0,0,0,0,0,0,0,0],"sum_hessian":[6.442334E1,5.398133E1,1.044201E1,1.4753648E1,3.922768E1,1.0242365E1,4.5112834E0,2.283023E1,1.6397451E1,1.8462215E1,4.368014E0,1.0717524E1,5.6799283E0],"tree_param":{"num_deleted":"0","num_feature":"27","num_nodes":"13","size_leaf_vector":"1"}},{"base_weights":[3.5052083E-2,-2.2457111E-1,3.7124738E-2,-4.9564552E-1,3.4771707E-2,-2.0904271E-2,-3.5708725E-2,1.2028382E-2,-3.083206E-2],"categories":[],"categories_nodes":[],"categories_segments":[],"categories_sizes":[],"default_left":[0,0,0,0,0,0,0,0,0],"id":29,"left_children":[1,3,-1,5,-1,7,-1,-1,-1],"loss_changes":[2.1391369E1,2.1754036E1,0E0,1.5777547E1,0E0,1.293432E1,0E0,0E0,0E0],"parents":[2147483647,0,0,1,1,3,3,5,5],"right_children":[2,4,-1,6,-1,8,-1,-1,-1],"split_conditions":[2.7251451E1,7.2862454E-2,3.7124738E-2,3.1024584E-4,3.4771707E-2,3.576726E1,-3.5708725E-2,1.2028382E-2,-3.083206E-2],"split_indices":[22,25,0,6,0,18,0,0,0],"split_type":[0,0,0,0,0,0,0,0,0],"sum_hessian":[6.66321E1,5.546885E1,1.1163252E1,4.691855E1,8.550301E0,2.8482714E1,1.8435835E1,2.049664E1,7.986076E0],"tree_param":{"num_deleted":"0","num_feature":"27","num_nodes":"9","size_leaf_vector":"1"}},{"base_weights":[6.2342663E-3,4.1138583E-1,-6.478023E-1,1.7168601E-1,3.6093887E-2,-8.6169624E-1,1.4426205E-2,-1.586203E-1,3.1890865E-2,-1.1112336E0,8.384477E-3,1.3311749E-2,-3.5598136E-2,-1.7066317E-2,-3.6067344E-2],"categories":[],"categories_nodes":[],"categories_segments":[],"categories_sizes":[],"default_left":[0,0,0,0,0,0,0,0,0,0,0,0,0,0,0],"id":30,"left_children":[1,3,5,7,-1,9,-1,11,-1,13,-1,-1,-1,-1,-1],"loss_changes":[1.7795427E1,7.661571E0,6.6168203E0,9.881619E0,0E0,6.5631676E0,0E0,1.5969992E1,0E0,2.1532631E-1,0E0,0E0,0E0,0E0,0E0],"parents":[2147483647,0,0,1,1,2,2,3,3,5,5,7,7,9,9],"right_children":[2,4,6,8,-1,10,-1,12,-1,14,-1,-1,-1,-1,-1],"split_conditions":[5.1793223E-4,4.3807514E-3,1.185E3,-2.371014E-3,3.6093887E-2,2.9917683E1,1.4426205E-2,3.576726E1,3.1890865E-2,1.0008403E0,8.384477E-3,1.3311749E-2,-3.5598136E-2,-1.7066317E-2,-3.6067344E-2],"split_indices":[26,10,0,25,0,18,0,18,0,3,0,0,0,0,0],"split_type":[0,0,0,0,0,0,0,0,0,0,0,0,0,0,0],"sum_hessian":[6.515092E1,4.0459038E1,2.469188E1,3.1990719E1,8.468319E0,2.0956905E1,3.7349741E0,2.3940933E1,8.049786E0,1.7218122E1,3.7387834E0,1.5454031E1,8.486902E0,3.5160165E0,1.37021055E1],"tree_param":{"num_deleted":"0","num_feature":"27","num_nodes":"15","size_leaf_vector":"1"}},{"base_weights":[2.8045408E-2,-2.2711025E-1,3.6411427E-2,-4.74712E-1,3.6163308E-2,-8.8271934E-1,3.325263E-1,1.1903882E-2,-3.1040903E-2,3.612174E-2,-3.6912564E-2],"categories":[],"categories_nodes":[],"categories_segments":[],"categories_sizes":[],"default_left":[0,0,0,0,0,0,0,0,0,0,0],"id":31,"left_children":[1,3,-1,5,-1,7,9,-1,-1,-1,-1],"loss_changes":[1.9874E1,1.9780005E1,0E0,1.5736821E1,0E0,6.520426E0,2.391469E1,0E0,0E0,0E0,0E0],"parents":[2147483647,0,0,1,1,3,3,5,5,6,6],"right_children":[2,4,-1,6,-1,8,10,-1,-1,-1,-1],"split_conditions":[2.7251451E1,1.3774213E-1,3.6411427E-2,1.1835588E3,3.6163308E-2,5.73049E2,3.576726E1,1.1903882E-2,-3.1040903E-2,3.612174E-2,-3.6912564E-2],"split_indices":[22,25,0,16,0,16,18,0,0,0,0],"split_type":[0,0,0,0,0,0,0,0,0,0,0],"sum_hessian":[6.378149E1,5.315171E1,1.0629782E1,4.5888924E1,7.262788E0,3.0420036E1,1.5468886E1,3.0585837E0,2.7361452E1,1.0078514E1,5.3903728E0],"tree_param":{"num_deleted":"0","num_feature":"27","num_nodes":"11","size_leaf_vector":"1"}},{"base_weights":[2.5849463E-2,-1.9817653E-1,3.6342148E-2,-4.699956E-1,3.5249356E-2,-6.7236394E-1,3.5985377E-2,-4.078344E-3,-3.1438757E-2],"categories":[],"categories_nodes":[],"categories_segments":[],"categories_sizes":[],"default_left":[0,0,0,0,0,0,0,0,0],"id":32,"left_children":[1,3,-1,5,-1,7,-1,-1,-1],"loss_changes":[1.7344103E1,2.1089666E1,0E0,1.6565924E1,0E0,8.368572E0,0E0,0E0,0E0],"parents":[2147483647,0,0,1,1,3,3,5,5],"right_children":[2,4,-1,6,-1,8,-1,-1,-1],"split_conditions":[1.3774213E-1,7.6496973E0,3.6342148E-2,7.640638E-2,3.5249356E-2,1.2811194E-3,3.5985377E-2,-4.078344E-3,-3.1438757E-2],"split_indices":[25,23,0,24,0,9,0,0,0],"split_type":[0,0,0,0,0,0,0,0,0],"sum_hessian":[6.339886E1,5.40233E1,9.375559E0,4.5645416E1,8.377884E0,4.1243393E1,4.4020224E0,1.7546158E1,2.3697235E1],"tree_param":{"num_deleted":"0","num_feature":"27","num_nodes":"9","size_leaf_vector":"1"}},{"base_weights":[1.7010875E-2,-1.8807131E-1,3.517E-2,3.4138975E-1,-7.012878E-1,3.6474444E-2,5.1543225E-2,-9.873533E-1,1.2662038E-1,-2.9446317E-2,1.551884E-2,-3.733814E-2,3.1813052E-3,-2.6549803E-2,3.8441204E-2],"categories":[],"categories_nodes":[],"categories_segments":[],"categories_sizes":[],"default_left":[0,0,0,0,0,0,0,0,0,0,0,0,0,0,0],"id":33,"left_children":[1,3,-1,5,7,-1,9,11,13,-1,-1,-1,-1,-1,-1],"loss_changes":[1.51656E1,1.5029435E1,0E0,6.897889E0,6.74841E0,0E0,1.0934804E1,6.0101795E0,1.0558722E1,0E0,0E0,0E0,0E0,0E0,0E0],"parents":[2147483647,0,0,1,1,3,3,4,4,6,6,7,7,8,8],"right_children":[2,4,-1,6,8,-1,10,12,14,-1,-1,-1,-1,-1,-1],"split_conditions":[2.7251451E1,1.2811194E-3,3.517E-2,1.3987804E1,6.968933E-2,3.6474444E-2,1.0003102E0,1.78E1,9.9831367E-1,-2.9446317E-2,1.551884E-2,-3.733814E-2,3.1813052E-3,-2.6549803E-2,3.8441204E-2],"split_indices":[22,9,0,17,24,0,14,17,20,0,0,0,0,0,0],"split_type":[0,0,0,0,0,0,0,0,0,0,0,0,0,0,0],"sum_hessian":[6.2076588E1,5.342949E1,8.647098E0,2.6463331E1,2.6966158E1,5.7927513E0,2.067058E1,1.9898188E1,7.067971E0,6.0790806E0,1.4591499E1,1.5996325E1,3.9018624E0,3.8920097E0,3.1759613E0],"tree_param":{"num_deleted":"0","num_feature":"27","num_nodes":"15","size_leaf_vector":"1"}},{"base_weights":[-1.3262001E-2,-2.4850798E-1,3.5226014E-2,-5.0224453E-1,3.2758165E-2,-6.897178E-1,3.4864005E-2,-4.9115876E-3,-3.2545228E-2],"categories":[],"categories_nodes":[],"categories_segments":[],"categories_sizes":[],"default_left":[0,0,0,0,0,0,0,0,0],"id":34,"left_children":[1,3,-1,5,-1,7,-1,-1,-1],"loss_changes":[1.7550678E1,1.8368223E1,0E0,1.4761158E1,0E0,8.309708E0,0E0,0E0,0E0],"parents":[2147483647,0,0,1,1,3,3,5,5],"right_children":[2,4,-1,6,-1,8,-1,-1,-1],"split_conditions":[2.7251451E1,7.2862454E-2,3.5226014E-2,7.520143E-2,3.2758165E-2,3.0890293E-4,3.4864005E-2,-4.9115876E-3,-3.2545228E-2],"split_indices":[22,25,0,24,0,4,0,0,0],"split_type":[0,0,0,0,0,0,0,0,0],"sum_hessian":[6.0783215E1,5.139264E1,9.390576E0,4.3738567E1,7.654069E0,3.9836987E1,3.9015832E0,1.7695124E1,2.2141861E1],"tree_param":{"num_deleted":"0","num_feature":"27","num_nodes":"9","size_leaf_vector":"1"}},{"base_weights":[-4.228572E-2,-2.707416E-1,3.486612E-2,-5.198704E-1,3.5038907E-2,-1.08986504E-1,-1.1471771E0,-1.7409615E-2,1.6616559E-2,-1.7524328E-2,-3.7007008E-2],"categories":[],"categories_nodes":[],"categories_segments":[],"categories_sizes":[],"default_left":[0,0,0,0,0,0,0,0,0,0,0],"id":35,"left_children":[1,3,-1,5,-1,7,9,-1,-1,-1,-1],"loss_changes":[1.7593992E1,1.9816565E1,0E0,1.1828273E1,0E0,9.421537E0,1.6705894E-1,0E0,0E0,0E0,0E0],"parents":[2147483647,0,0,1,1,3,3,5,5,6,6],"right_children":[2,4,-1,6,-1,8,10,-1,-1,-1,-1],"split_conditions":[2.7251451E1,1.3774213E-1,3.486612E-2,3.1024584E-4,3.5038907E-2,1.185E3,9.9998134E-1,-1.7409615E-2,1.6616559E-2,-1.7524328E-2,-3.7007008E-2],"split_indices":[22,25,0,6,0,0,13,0,0,0,0],"split_type":[0,0,0,0,0,0,0,0,0,0,0],"sum_hessian":[6.179449E1,5.2594166E1,9.200326E0,4.537551E1,7.2186513E0,2.8126488E1,1.7249023E1,1.6510942E1,1.1615545E1,3.3270717E0,1.3921952E1],"tree_param":{"num_deleted":"0","num_feature":"27","num_nodes":"11","size_leaf_vector":"1"}},{"base_weights":[5.138192E-2,-1.7162405E-1,3.461195E-2,-3.9510554E-1,3.4232743E-2,-7.469574E-1,2.9218683E-1,4.7241785E-3,-2.7759397E-2,3.6698982E-2,-3.5687268E-2],"categories":[],"categories_nodes":[],"categories_segments":[],"categories_sizes":[],"default_left":[0,0,0,0,0,0,0,0,0,0,0],"id":36,"left_children":[1,3,-1,5,-1,7,9,-1,-1,-1,-1],"loss_changes":[1.5278246E1,1.5674492E1,0E0,1.1121254E1,0E0,5.001375E0,2.3509436E1,0E0,0E0,0E0,0E0],"parents":[2147483647,0,0,1,1,3,3,5,5,6,6],"right_children":[2,4,-1,6,-1,8,10,-1,-1,-1,-1],"split_conditions":[2.7251451E1,1.3774213E-1,3.461195E-2,1.185E3,3.4232743E-2,9.982877E-1,3.385645E1,4.7241785E-3,-2.7759397E-2,3.6698982E-2,-3.5687268E-2],"split_indices":[22,25,0,0,0,20,18,0,0,0,0],"split_type":[0,0,0,0,0,0,0,0,0,0,0],"sum_hessian":[6.034402E1,5.089271E1,9.451312E0,4.408631E1,6.8063984E0,2.910137E1,1.4984942E1,4.812847E0,2.4288523E1,9.30947E0,5.675472E0],"tree_param":{"num_deleted":"0","num_feature":"27","num_nodes":"11","size_leaf_vector":"1"}},{"base_weights":[3.6402993E-2,4.2507294E-1,-7.6407826E-1,-2.6649567E-1,7.0958793E-1,-1.0979074E0,2.4275884E-2,3.7796102E-2,-4.2046905E-2,1.2336514E0,-1.7355873E-1,-3.5933893E-2,-1.4520214E-2,1.7249508E-2,3.9910667E-2,-2.846985E-2,2.8724007E-2],"categories":[],"categories_nodes":[],"categories_segments":[],"categories_sizes":[],"default_left":[0,0,0,0,0,0,0,0,0,0,0,0,0,0,0,0,0],"id":37,"left_children":[1,3,5,7,9,11,-1,-1,-1,13,15,-1,-1,-1,-1,-1,-1],"loss_changes":[1.8654963E1,8.119022E0,1.1189789E1,2.3378218E1,1.3556266E1,4.3850517E-1,0E0,0E0,0E0,3.9530182E-1,1.10932045E1,0E0,0E0,0E0,0E0,0E0,0E0],"parents":[2147483647,0,0,1,1,2,2,3,3,4,4,5,5,9,9,10,10],"right_children":[2,4,6,8,10,12,-1,-1,-1,14,16,-1,-1,-1,-1,-1,-1],"split_conditions":[1.5399836E-4,9.9831367E-1,4.9237976E1,1.167E3,3.576726E1,2.0197655E1,2.4275884E-2,3.7796102E-2,-4.2046905E-2,4.249526E-4,-2.9132988E-3,-3.5933893E-2,-1.4520214E-2,1.7249508E-2,3.9910667E-2,-2.846985E-2,2.8724007E-2],"split_indices":[21,20,18,0,18,22,0,0,0,9,25,0,0,0,0,0,0],"split_type":[0,0,0,0,0,0,0,0,0,0,0,0,0,0,0,0,0],"sum_hessian":[5.7916153E1,3.9302155E1,1.8613998E1,1.1474501E1,2.7827654E1,1.5604972E1,3.009028E0,4.846837E0,6.627664E0,1.7215195E1,1.061246E1,1.2603159E1,3.0018127E0,3.093137E0,1.4122057E1,6.3914185E0,4.221042E0],"tree_param":{"num_deleted":"0","num_feature":"27","num_nodes":"17","size_leaf_vector":"1"}},{"base_weights":[2.2339651E-2,-1.8362124E-1,3.368339E-2,-4.0925604E-1,3.1410728E-2,-7.5049686E-1,3.1172028E-1,4.2673787E-3,-2.8348343E-2,3.563E-2,-3.3664286E-2],"categories":[],"categories_nodes":[],"categories_segments":[],"categories_sizes":[],"default_left":[0,0,0,0,0,0,0,0,0,0,0],"id":38,"left_children":[1,3,-1,5,-1,7,9,-1,-1,-1,-1],"loss_changes":[1.375121E1,1.4645575E1,0E0,1.1055721E1,0E0,5.3680305E0,1.9968134E1,0E0,0E0,0E0,0E0],"parents":[2147483647,0,0,1,1,3,3,5,5,6,6],"right_children":[2,4,-1,6,-1,8,10,-1,-1,-1,-1],"split_conditions":[2.7251451E1,7.2862454E-2,3.368339E-2,1.185E3,3.1410728E-2,9.982877E-1,3.385645E1,4.2673787E-3,-2.8348343E-2,3.563E-2,-3.3664286E-2],"split_indices":[22,25,0,0,0,20,18,0,0,0,0],"split_type":[0,0,0,0,0,0,0,0,0,0,0],"sum_hessian":[5.8762573E1,5.0200138E1,8.562435E0,4.2986206E1,7.213934E0,2.914895E1,1.3837255E1,5.2614093E0,2.3887543E1,8.696356E0,5.140898E0],"tree_param":{"num_deleted":"0","num_feature":"27","num_nodes":"11","size_leaf_vector":"1"}},{"base_weights":[-1.23631405E-2,-2.0848423E-1,3.2935947E-2,2.8370172E-1,-7.045687E-1,4.8245195E-1,-2.5358243E-2,-1.0016263E0,1.6460896E-1,-1.6528487E-2,2.2893995E-2,-3.5266336E-2,-5.6570093E-3,1.03541445E-2,-1.7134459E-3],"categories":[],"categories_nodes":[],"categories_segments":[],"categories_sizes":[],"default_left":[0,0,0,0,0,0,0,0,0,0,0,0,0,0,0],"id":39,"left_children":[1,3,-1,5,7,9,-1,11,13,-1,-1,-1,-1,-1,-1],"loss_changes":[1.2347649E1,1.1954487E1,0E0,5.990223E0,6.429492E0,6.741151E0,0E0,2.355318E0,3.0146757E-1,0E0,0E0,0E0,0E0,0E0,0E0],"parents":[2147483647,0,0,1,1,3,3,4,4,5,5,7,7,8,8],"right_children":[2,4,-1,6,8,10,-1,12,14,-1,-1,-1,-1,-1,-1],"split_conditions":[2.7251451E1,1.2811194E-3,3.2935947E-2,7.480755E0,6.968933E-2,8.64E2,-2.5358243E-2,1.7625E1,1.0004271E0,-1.6528487E-2,2.2893995E-2,-3.5266336E-2,-5.6570093E-3,1.03541445E-2,-1.7134459E-3],"split_indices":[22,9,0,23,24,0,0,17,3,0,0,0,0,0,0],"split_type":[0,0,0,0,0,0,0,0,0,0,0,0,0,0,0],"sum_hessian":[5.465724E1,4.7141872E1,7.515367E0,2.3878822E1,2.326305E1,2.0791292E1,3.0875309E0,1.7224035E1,6.039016E0,4.2352405E0,1.6556051E1,1.3821668E1,3.4023678E0,3.0219269E0,3.017089E0],"tree_param":{"num_deleted":"0","num_feature":"27","num_nodes":"15","size_leaf_vector":"1"}},{"base_weights":[1.9408617E-2,3.735986E-1,-5.9269416E-1,1.7835988E-1,3.2221105E-2,-7.962068E-1,1.3280129E-2,4.2494678E-1,-3.3020243E-2,7.348751E-3,-3.1431273E-2,3.6555212E-2,1.6033286E-3],"categories":[],"categories_nodes":[],"categories_segments":[],"categories_sizes":[],"default_left":[0,0,0,0,0,0,0,0,0,0,0,0,0],"id":40,"left_children":[1,3,5,7,-1,9,-1,11,-1,-1,-1,-1,-1],"loss_changes":[1.2528761E1,4.8099313E0,4.81838E0,9.866517E0,0E0,4.988449E0,0E0,7.5129786E0,0E0,0E0,0E0,0E0,0E0],"parents":[2147483647,0,0,1,1,2,2,3,3,5,5,7,7],"right_children":[2,4,6,8,-1,10,-1,12,-1,-1,-1,-1,-1],"split_conditions":[5.1793223E-4,2.7251451E1,4.0051826E1,5.537154E0,3.2221105E-2,1.7475599E-4,1.3280129E-2,1.3987804E1,-3.3020243E-2,7.348751E-3,-3.1431273E-2,3.6555212E-2,1.6033286E-3],"split_indices":[26,22,18,19,0,6,0,17,0,0,0,0,0],"split_type":[0,0,0,0,0,0,0,0,0,0,0,0,0],"sum_hessian":[5.5767956E1,3.5573303E1,2.0194653E1,2.8800226E1,6.773076E0,1.7070286E1,3.124366E0,2.4705061E1,4.0951643E0,3.32627E0,1.3744016E1,7.1506767E0,1.7554384E1],"tree_param":{"num_deleted":"0","num_feature":"27","num_nodes":"13","size_leaf_vector":"1"}},{"base_weights":[2.0995801E-2,4.2096624E-1,-5.8414096E-1,3.7209995E-2,2.3503673E-1,-7.670314E-1,1.1309088E-2,-3.2539826E-2,4.2026663E-1,-9.6721685E-1,7.2562825E-3,5.1385155E-3,3.5099726E-2,-4.523455E-3,-3.39956E-2],"categories":[],"categories_nodes":[],"categories_segments":[],"categories_sizes":[],"default_left":[0,0,0,0,0,0,0,0,0,0,0,0,0,0,0],"id":41,"left_children":[1,3,5,-1,7,9,-1,-1,11,13,-1,-1,-1,-1,-1],"loss_changes":[1.4418959E1,5.1679525E0,4.458788E0,0E0,7.8973746E0,4.325489E0,0E0,0E0,4.9173155E0,2.1468258E0,0E0,0E0,0E0,0E0,0E0],"parents":[2147483647,0,0,1,1,2,2,4,4,5,5,8,8,9,9],"right_children":[2,4,6,-1,8,10,-1,-1,12,14,-1,-1,-1,-1,-1],"split_conditions":[5.1793223E-4,9.982877E-1,1.185E3,3.7209995E-2,8.64E2,3.0269663E1,1.1309088E-2,-3.2539826E-2,-1.0867143E-1,1.0004271E0,7.2562825E-3,5.1385155E-3,3.5099726E-2,-4.523455E-3,-3.39956E-2],"split_indices":[26,20,0,0,0,18,0,0,25,3,0,0,0,0,0],"split_type":[0,0,0,0,0,0,0,0,0,0,0,0,0,0,0],"sum_hessian":[5.7557438E1,3.4836376E1,2.2721062E1,5.394136E0,2.9442238E1,1.9258314E1,3.462747E0,3.0261605E0,2.6416079E1,1.6104261E1,3.1540534E0,2.0752615E1,5.663463E0,3.043118E0,1.3061144E1],"tree_param":{"num_deleted":"0","num_feature":"27","num_nodes":"15","size_leaf_vector":"1"}},{"base_weights":[1.7038994E-2,-1.9409443E-1,3.324589E-2,-5.001232E-1,3.1891942E-2,-7.023623E-1,3.219451E-2,-1.1025199E-2,-3.391638E-2],"categories":[],"categories_nodes":[],"categories_segments":[],"categories_sizes":[],"default_left":[0,0,0,0,0,0,0,0,0],"id":42,"left_children":[1,3,-1,5,-1,7,-1,-1,-1],"loss_changes":[1.35916E1,1.9575792E1,0E0,1.3636628E1,0E0,4.8153133E0,0E0,0E0,0E0],"parents":[2147483647,0,0,1,1,3,3,5,5],"right_children":[2,4,-1,6,-1,8,-1,-1,-1],"split_conditions":[7.6496973E0,7.2862454E-2,3.324589E-2,7.640638E-2,3.1891942E-2,3.1024584E-4,3.219451E-2,-1.1025199E-2,-3.391638E-2],"split_indices":[23,25,0,24,0,6,0,0,0],"split_type":[0,0,0,0,0,0,0,0,0],"sum_hessian":[5.7062836E1,4.8500378E1,8.562457E0,3.9489643E1,9.010736E0,3.54821E1,4.0075393E0,2.095377E1,1.4528334E1],"tree_param":{"num_deleted":"0","num_feature":"27","num_nodes":"9","size_leaf_vector":"1"}},{"base_weights":[1.4182165E-2,-8.5110384E-1,3.0609E-1,-8.719769E-3,-3.2851364E-2,-5.254694E-1,6.216732E-1,3.1742014E-2,-3.9957047E-2,3.6865782E-2,2.4273488E-1,-1.6886475E-2,2.213129E-2],"categories":[],"categories_nodes":[],"categories_segments":[],"categories_sizes":[],"default_left":[0,0,0,0,0,0,0,0,0,0,0,0,0],"id":43,"left_children":[1,3,5,-1,-1,7,9,-1,-1,-1,11,-1,-1],"loss_changes":[1.3817896E1,1.5689745E0,1.1052175E1,0E0,0E0,1.6459595E1,6.623852E0,0E0,0E0,0E0,8.298881E0,0E0,0E0],"parents":[2147483647,0,0,1,1,2,2,5,5,6,6,10,10],"right_children":[2,4,6,-1,-1,8,10,-1,-1,-1,12,-1,-1],"split_conditions":[7.57657E-1,4.8386426E-8,9.9831367E-1,-8.719769E-3,-3.2851364E-2,1.167E3,2.6437992E1,3.1742014E-2,-3.9957047E-2,3.6865782E-2,1.78E1,-1.6886475E-2,2.213129E-2],"split_indices":[22,1,20,0,0,0,18,0,0,0,17,0,0],"split_type":[0,0,0,0,0,0,0,0,0,0,0,0,0],"sum_hessian":[5.2674797E1,1.2804241E1,3.9870556E1,4.547676E0,8.256565E0,1.0785575E1,2.908498E1,3.5340207E0,7.2515545E0,1.0314613E1,1.8770367E1,7.091347E0,1.1679019E1],"tree_param":{"num_deleted":"0","num_feature":"27","num_nodes":"13","size_leaf_vector":"1"}},{"base_weights":[5.7171214E-2,-1.703678E-1,3.2631364E-2,4.8143458E-1,-5.5698407E-1,-1.4436025E-2,7.518552E-1,-8.1502324E-1,1.5723318E-2,2.952679E-2,-1.007966E-3,-2.9775694E-2,9.1896194E-4],"categories":[],"categories_nodes":[],"categories_segments":[],"categories_sizes":[],"default_left":[0,0,0,0,0,0,0,0,0,0,0,0,0],"id":44,"left_children":[1,3,-1,5,7,-1,9,11,-1,-1,-1,-1,-1],"loss_changes":[1.2458973E1,1.1290559E1,0E0,4.740678E0,8.215516E0,0E0,2.5011625E0,3.4723492E0,0E0,0E0,0E0,0E0,0E0],"parents":[2147483647,0,0,1,1,3,3,4,4,6,6,7,7],"right_children":[2,4,-1,6,8,-1,10,12,-1,-1,-1,-1,-1],"split_conditions":[2.7251451E1,7.4232114E-4,3.2631364E-2,5.303178E-4,1.1909108E3,-1.4436025E-2,1.7780098E-3,7.388749E-2,1.5723318E-2,2.952679E-2,-1.007966E-3,-2.9775694E-2,9.1896194E-4],"split_indices":[22,9,0,10,16,0,10,24,0,0,0,0,0],"split_type":[0,0,0,0,0,0,0,0,0,0,0,0,0],"sum_hessian":[5.1342323E1,4.2740158E1,8.602162E0,1.5821386E1,2.6918772E1,3.2988355E0,1.2522551E1,2.1930454E1,4.9883184E0,9.468341E0,3.0542102E0,1.7982353E1,3.948101E0],"tree_param":{"num_deleted":"0","num_feature":"27","num_nodes":"13","size_leaf_vector":"1"}},{"base_weights":[-3.377042E-2,-2.4069546E-1,3.2175805E-2,-4.6634328E-1,3.2381713E-2,-6.2773114E-1,2.814431E-2,-6.645288E-3,-3.2772537E-2],"categories":[],"categories_nodes":[],"categories_segments":[],"categories_sizes":[],"default_left":[0,0,0,0,0,0,0,0,0],"id":45,"left_children":[1,3,-1,5,-1,7,-1,-1,-1],"loss_changes":[1.2476556E1,1.4140219E1,0E0,9.609289E0,0E0,6.6089478E0,0E0,0E0,0E0],"parents":[2147483647,0,0,1,1,3,3,5,5],"right_children":[2,4,-1,6,-1,8,-1,-1,-1],"split_conditions":[2.7251451E1,1.3774213E-1,3.2175805E-2,7.520143E-2,3.2381713E-2,1.935457E-7,2.814431E-2,-6.645288E-3,-3.2772537E-2],"split_indices":[22,25,0,24,0,1,0,0,0],"split_type":[0,0,0,0,0,0,0,0,0],"sum_hessian":[5.2373978E1,4.478053E1,7.593448E0,3.8795742E1,5.9847865E0,3.529329E1,3.5024548E0,1.9619198E1,1.5674092E1],"tree_param":{"num_deleted":"0","num_feature":"27","num_nodes":"9","size_leaf_vector":"1"}},{"base_weights":[4.4105735E-2,-7.893442E-1,3.0308867E-1,4.536607E-3,-3.290905E-2,7.8012884E-1,-1.772632E-1,-3.305999E-2,3.7578467E-2,-6.214578E-1,3.0595725E-2,3.2092627E-2,-2.5742883E-2,-3.6731996E-2,-5.9158476E-3],"categories":[],"categories_nodes":[],"categories_segments":[],"categories_sizes":[],"default_left":[0,0,0,0,0,0,0,0,0,0,0,0,0,0,0],"id":46,"left_children":[1,3,5,-1,-1,7,9,11,-1,13,-1,-1,-1,-1,-1],"loss_changes":[1.2163647E1,4.03557E0,9.961817E0,0E0,0E0,8.376808E0,1.2425819E1,9.058437E0,0E0,4.054961E0,0E0,0E0,0E0,0E0,0E0],"parents":[2147483647,0,0,1,1,2,2,5,5,6,6,7,7,9,9],"right_children":[2,4,6,-1,-1,8,10,12,-1,14,-1,-1,-1,-1,-1],"split_conditions":[2.3148147E-2,9.9999833E-1,4.8061776E0,4.536607E-3,-3.290905E-2,3.7682276E0,7.3817797E0,4.670242E0,3.7578467E-2,9.9831367E-1,3.0595725E-2,3.2092627E-2,-2.5742883E-2,-3.6731996E-2,-5.9158476E-3],"split_indices":[24,13,19,0,0,22,23,23,0,20,0,0,0,0,0],"split_type":[0,0,0,0,0,0,0,0,0,0,0,0,0,0,0],"sum_hessian":[5.424412E1,1.2374162E1,4.186996E1,3.1749978E0,9.199163E0,2.0694279E1,2.1175684E1,7.946949E0,1.2747329E1,1.5795571E1,5.380112E0,3.2740104E0,4.6729383E0,5.7450438E0,1.0050528E1],"tree_param":{"num_deleted":"0","num_feature":"27","num_nodes":"15","size_leaf_vector":"1"}},{"base_weights":[4.22203E-4,-1.8628395E-1,3.2008704E-2,-3.7700412E-1,3.1574264E-2,-7.4304783E-1,3.263848E-1,6.1389315E-3,-2.8668959E-2,3.6364973E-2,-3.1067759E-2],"categories":[],"categories_nodes":[],"categories_segments":[],"categories_sizes":[],"default_left":[0,0,0,0,0,0,0,0,0,0,0],"id":47,"left_children":[1,3,-1,5,-1,7,9,-1,-1,-1,-1],"loss_changes":[1.1027168E1,1.1531326E1,0E0,1.0947496E1,0E0,5.7662725E0,1.9262049E1,0E0,0E0,0E0,0E0],"parents":[2147483647,0,0,1,1,3,3,5,5,6,6],"right_children":[2,4,-1,6,-1,8,10,-1,-1,-1,-1],"split_conditions":[2.7251451E1,1.3774213E-1,3.2008704E-2,1.185E3,3.1574264E-2,9.982877E-1,3.385645E1,6.1389315E-3,-2.8668959E-2,3.6364973E-2,-3.1067759E-2],"split_indices":[22,25,0,0,0,20,18,0,0,0,0],"split_type":[0,0,0,0,0,0,0,0,0,0,0],"sum_hessian":[5.3379E1,4.6129047E1,7.249954E0,4.057739E1,5.5516605E0,2.6651539E1,1.3925849E1,4.889966E0,2.1761572E1,8.504695E0,5.421154E0],"tree_param":{"num_deleted":"0","num_feature":"27","num_nodes":"11","size_leaf_vector":"1"}},{"base_weights":[5.1365424E-2,-7.925429E-1,3.2834768E-1,-3.2710146E-2,2.967309E-3,-8.8955574E-2,8.513101E-1,-5.254356E-1,3.0398129E-2,3.5962254E-2,-1.21904705E-2,-2.8722042E-2,3.3008002E-3],"categories":[],"categories_nodes":[],"categories_segments":[],"categories_sizes":[],"default_left":[0,0,0,0,0,0,0,0,0,0,0,0,0],"id":48,"left_children":[1,3,5,-1,-1,7,9,11,-1,-1,-1,-1,-1],"loss_changes":[1.2424335E1,3.599412E0,8.780451E0,0E0,0E0,1.1641026E1,8.263551E0,4.826344E0,0E0,0E0,0E0,0E0,0E0],"parents":[2147483647,0,0,1,1,2,2,5,5,6,6,7,7],"right_children":[2,4,6,-1,-1,8,10,12,-1,-1,-1,-1,-1],"split_conditions":[2.59624E-2,8.640153E2,-3.136958E0,-3.2710146E-2,2.967309E-3,2.7251451E1,1.999972E3,6.968933E-2,3.0398129E-2,3.5962254E-2,-1.21904705E-2,-2.8722042E-2,3.3008002E-3],"split_indices":[24,16,25,0,0,22,16,24,0,0,0,0,0],"split_type":[0,0,0,0,0,0,0,0,0,0,0,0,0],"sum_hessian":[5.1039482E1,1.2152364E1,3.8887115E1,8.942099E0,3.2102644E0,2.2090042E1,1.6797075E1,1.6198683E1,5.891358E0,1.3197953E1,3.5991225E0,9.341813E0,6.856871E0],"tree_param":{"num_deleted":"0","num_feature":"27","num_nodes":"13","size_leaf_vector":"1"}},{"base_weights":[5.681533E-2,4.2039323E-1,-6.4947975E-1,7.493139E-1,-2.631539E-2,-1.0173403E0,1.8349225E-2,-1.26447575E-2,1.0057464E0,-5.47469E-1,2.9645683E-2,-1.4865121E-2,-3.3533596E-2,3.723513E-2,-1.0319722E-3,-2.873606E-2,1.0976858E-2],"categories":[],"categories_nodes":[],"categories_segments":[],"categories_sizes":[],"default_left":[0,0,0,0,0,0,0,0,0,0,0,0,0,0,0,0,0],"id":49,"left_children":[1,3,5,7,9,11,-1,-1,13,15,-1,-1,-1,-1,-1,-1,-1],"loss_changes":[1.3698517E1,5.1801724E0,9.04689E0,6.507057E0,8.926391E0,2.0273209E-1,0E0,0E0,4.18511E0,4.519169E0,0E0,0E0,0E0,0E0,0E0,0E0,0E0],"parents":[2147483647,0,0,1,1,2,2,3,3,4,4,5,5,8,8,9,9],"right_children":[2,4,6,8,10,12,-1,-1,14,16,-1,-1,-1,-1,-1,-1,-1],"split_conditions":[3.1024584E-4,4.8061776E0,4.0083004E1,2.2688355E-2,2.7251451E1,9.999803E-1,1.8349225E-2,-1.26447575E-2,1.9999712E3,1.185E3,2.9645683E-2,-1.4865121E-2,-3.3533596E-2,3.723513E-2,-1.0319722E-3,-2.873606E-2,1.0976858E-2],"split_indices":[6,19,18,24,22,13,0,0,16,0,0,0,0,0,0,0,0],"split_type":[0,0,0,0,0,0,0,0,0,0,0,0,0,0,0,0,0],"sum_hessian":[5.1281273E1,3.4121445E1,1.7159828E1,1.9261444E1,1.4860003E1,1.3434405E1,3.7254226E0,3.3450615E0,1.5916382E1,1.0121119E1,4.738885E0,3.12621E0,1.0308196E1,1.282119E1,3.095192E0,6.9497013E0,3.1714172E0],"tree_param":{"num_deleted":"0","num_feature":"27","num_nodes":"17","size_leaf_vector":"1"}},{"base_weights":[2.8249064E-2,3.481033E-1,-6.320568E-1,-2.628344E-1,5.831947E-1,-9.3897E-1,9.499547E-3,3.3405352E-2,-3.7211742E-2,-2.2087978E-2,7.9315597E-1,-3.1506445E-2,-1.3740307E-2,3.9345834E-2,1.1029175E-2],"categories":[],"categories_nodes":[],"categories_segments":[],"categories_sizes":[],"default_left":[0,0,0,0,0,0,0,0,0,0,0,0,0,0,0],"id":50,"left_children":[1,3,5,7,9,11,-1,-1,-1,-1,13,-1,-1,-1,-1],"loss_changes":[1.1015483E1,5.191577E0,5.257504E0,1.542374E1,7.6877804E0,2.2115517E-1,0E0,0E0,0E0,0E0,4.503598E0,0E0,0E0,0E0,0E0],"parents":[2147483647,0,0,1,1,2,2,3,3,4,4,5,5,10,10],"right_children":[2,4,6,8,10,12,-1,-1,-1,-1,14,-1,-1,-1,-1],"split_conditions":[3.1024584E-4,9.9831367E-1,5.9618898E-2,1.1169988E3,8.636228E2,6.708472E0,9.499547E-3,3.3405352E-2,-3.7211742E-2,-2.2087978E-2,6.5243807E0,-3.1506445E-2,-1.3740307E-2,3.9345834E-2,1.1029175E-2],"split_indices":[6,20,25,16,16,23,0,0,0,0,23,0,0,0,0],"split_type":[0,0,0,0,0,0,0,0,0,0,0,0,0,0,0],"sum_hessian":[5.0114483E1,3.4079216E1,1.6035267E1,9.437012E0,2.4642204E1,1.2123501E1,3.9117656E0,3.8613577E0,5.5756536E0,3.0387988E0,2.1603407E1,8.884869E0,3.2386315E0,8.800405E0,1.2803001E1],"tree_param":{"num_deleted":"0","num_feature":"27","num_nodes":"15","size_leaf_vector":"1"}},{"base_weights":[-9.028073E-3,-2.0363984E-1,3.338213E-2,-4.1583562E-1,3.1246608E-2,-6.212438E-1,2.9280266E-2,-6.8123927E-3,-2.8060062E-2],"categories":[],"categories_nodes":[],"categories_segments":[],"categories_sizes":[],"default_left":[0,0,0,0,0,0,0,0,0],"id":51,"left_children":[1,3,-1,5,-1,7,-1,-1,-1],"loss_changes":[1.1584014E1,1.237042E1,0E0,1.1846424E1,0E0,4.104679E0,0E0,0E0,0E0],"parents":[2147483647,0,0,1,1,3,3,5,5],"right_children":[2,4,-1,6,-1,8,-1,-1,-1],"split_conditions":[7.520143E-2,1.3774213E-1,3.338213E-2,7.6496973E0,3.1246608E-2,1.2811194E-3,2.9280266E-2,-6.8123927E-3,-2.8060062E-2],"split_indices":[24,25,0,23,0,9,0,0,0],"split_type":[0,0,0,0,0,0,0,0,0],"sum_hessian":[5.1024544E1,4.4178596E1,6.8459473E0,3.8315266E1,5.86333E0,3.3870342E1,4.4449244E0,1.5784642E1,1.80857E1],"tree_param":{"num_deleted":"0","num_feature":"27","num_nodes":"9","size_leaf_vector":"1"}},{"base_weights":[5.909813E-3,-8.490067E-1,2.4302177E-1,-3.3691008E-2,-5.8731646E-3,-4.9537984E-1,5.1829314E-1,2.9943412E-2,-3.760538E-2,3.639286E-2,1.1092599E-1,3.014948E-2,-1.1603155E-2],"categories":[],"categories_nodes":[],"categories_segments":[],"categories_sizes":[],"default_left":[0,0,0,0,0,0,0,0,0,0,0,0,0],"id":52,"left_children":[1,3,5,-1,-1,7,9,-1,-1,-1,11,-1,-1],"loss_changes":[1.0320554E1,1.7592435E0,8.354384E0,0E0,0E0,1.4079517E1,8.2176E0,0E0,0E0,0E0,9.155882E0,0E0,0E0],"parents":[2147483647,0,0,1,1,2,2,5,5,6,6,10,10],"right_children":[2,4,6,-1,-1,8,10,-1,-1,-1,12,-1,-1],"split_conditions":[5.1495236E-1,8.640056E2,9.9831367E-1,-3.3691008E-2,-5.8731646E-3,1.1662646E3,2.6746946E1,2.9943412E-2,-3.760538E-2,3.639286E-2,3.7600715E-2,3.014948E-2,-1.1603155E-2],"split_indices":[22,16,20,0,0,16,18,0,0,0,24,0,0],"split_type":[0,0,0,0,0,0,0,0,0,0,0,0,0],"sum_hessian":[4.889483E1,1.0056198E1,3.8838634E1,6.5777097E0,3.478488E0,1.0329816E1,2.8508818E1,3.3715143E0,6.9583015E0,9.805959E0,1.8702858E1,6.323735E0,1.2379124E1],"tree_param":{"num_deleted":"0","num_feature":"27","num_nodes":"13","size_leaf_vector":"1"}},{"base_weights":[-3.9142486E-2,-2.1643387E-1,3.036794E-2,-4.0830794E-1,3.0428967E-2,-9.999467E-2,-9.551309E-1,-2.7586106E-2,5.8819493E-3,-1.659836E-2,-3.306004E-2],"categories":[],"categories_nodes":[],"categories_segments":[],"categories_sizes":[],"default_left":[0,0,0,0,0,0,0,0,0,0,0],"id":53,"left_children":[1,3,-1,5,-1,7,9,-1,-1,-1,-1],"loss_changes":[9.582138E0,1.0758658E1,0E0,6.413915E0,0E0,6.441828E0,2.0498753E-1,0E0,0E0,0E0,0E0],"parents":[2147483647,0,0,1,1,3,3,5,5,6,6],"right_children":[2,4,-1,6,-1,8,10,-1,-1,-1,-1],"split_conditions":[2.7251451E1,1.3774213E-1,3.036794E-2,3.1024584E-4,3.0428967E-2,-4.3064313E0,9.999561E-1,-2.7586106E-2,5.8819493E-3,-1.659836E-2,-3.306004E-2],"split_indices":[22,25,0,6,0,25,2,0,0,0,0],"split_type":[0,0,0,0,0,0,0,0,0,0,0],"sum_hessian":[4.9229492E1,4.280563E1,6.423863E0,3.7610332E1,5.1952977E0,2.4806585E1,1.2803746E1,6.0243278E0,1.8782257E1,4.7029977E0,8.100748E0],"tree_param":{"num_deleted":"0","num_feature":"27","num_nodes":"11","size_leaf_vector":"1"}},{"base_weights":[7.339776E-2,3.925194E-1,-5.458721E-1,5.483685E-1,-1.85244E-2,-2.9569998E-2,9.947869E-2,-1.4376813E-1,8.7321186E-1,2.6766874E-2,-2.4329636E-2,3.262351E-2,-3.5534125E-2,3.248444E-2,6.617636E-3],"categories":[],"categories_nodes":[],"categories_segments":[],"categories_sizes":[],"default_left":[0,0,0,0,0,0,0,0,0,0,0,0,0,0,0],"id":54,"left_children":[1,3,5,7,-1,-1,9,11,13,-1,-1,-1,-1,-1,-1],"loss_changes":[9.869195E0,5.5051513E0,4.9323053E0,6.6378393E0,0E0,0E0,6.36168E0,1.4242989E1,2.4770317E0,0E0,0E0,0E0,0E0,0E0,0E0],"parents":[2147483647,0,0,1,1,2,2,3,3,6,6,7,7,8,8],"right_children":[2,4,6,8,-1,-1,10,12,14,-1,-1,-1,-1,-1,-1],"split_conditions":[2.9737677E-4,4.85E1,1.78E1,9.9831367E-1,-1.85244E-2,-2.9569998E-2,9.999972E-1,1.1662646E3,5.537154E0,2.6766874E-2,-2.4329636E-2,3.262351E-2,-3.5534125E-2,3.248444E-2,6.617636E-3],"split_indices":[6,17,17,20,0,0,13,16,19,0,0,0,0,0,0],"split_type":[0,0,0,0,0,0,0,0,0,0,0,0,0,0,0],"sum_hessian":[4.7855442E1,3.1822733E1,1.603271E1,2.7964674E1,3.8580592E0,9.221258E0,6.8114505E0,9.110517E0,1.8854158E1,3.651816E0,3.1596344E0,4.1526933E0,4.9578233E0,1.3771879E1,5.0822783E0],"tree_param":{"num_deleted":"0","num_feature":"27","num_nodes":"15","size_leaf_vector":"1"}},{"base_weights":[-1.8103192E-2,-2.0600232E-1,3.250155E-2,-3.5905144E-1,2.852626E-2,-6.526763E-2,-3.3611927E-2,-8.473703E-3,3.4998264E-2],"categories":[],"categories_nodes":[],"categories_segments":[],"categories_sizes":[],"default_left":[0,0,0,0,0,0,0,0,0],"id":55,"left_children":[1,3,-1,5,-1,7,-1,-1,-1],"loss_changes":[1.0225982E1,7.8004265E0,0E0,8.410965E0,0E0,7.936409E0,0E0,0E0,0E0],"parents":[2147483647,0,0,1,1,3,3,5,5],"right_children":[2,4,-1,6,-1,8,-1,-1,-1],"split_conditions":[7.520143E-2,2.7251451E1,3.250155E-2,5.0980783E0,2.852626E-2,1.2109203E1,-3.3611927E-2,-8.473703E-3,3.4998264E-2],"split_indices":[24,22,0,19,0,22,0,0,0],"split_type":[0,0,0,0,0,0,0,0,0],"sum_hessian":[4.733003E1,4.1127247E1,6.2027793E0,3.6931087E1,4.1961603E0,2.743165E1,9.499438E0,2.3975328E1,3.456321E0],"tree_param":{"num_deleted":"0","num_feature":"27","num_nodes":"9","size_leaf_vector":"1"}},{"base_weights":[3.1057129E-2,-1.4391647E-1,3.0047586E-2,-3.3497256E-1,2.9898772E-2,-4.7827262E-1,2.5961589E-2,-4.1906075E-3,-2.664087E-2],"categories":[],"categories_nodes":[],"categories_segments":[],"categories_sizes":[],"default_left":[0,0,0,0,0,0,0,0,0],"id":56,"left_children":[1,3,-1,5,-1,7,-1,-1,-1],"loss_changes":[7.96277E0,9.024669E0,0E0,6.4186673E0,0E0,4.291998E0,0E0,0E0,0E0],"parents":[2147483647,0,0,1,1,3,3,5,5],"right_children":[2,4,-1,6,-1,8,-1,-1,-1],"split_conditions":[2.7251451E1,1.3774213E-1,3.0047586E-2,7.520143E-2,2.9898772E-2,1.935457E-7,2.5961589E-2,-4.1906075E-3,-2.664087E-2],"split_indices":[22,25,0,24,0,1,0,0,0],"split_type":[0,0,0,0,0,0,0,0,0],"sum_hessian":[4.504149E1,3.8883095E1,6.158396E0,3.390916E1,4.9739337E0,3.083018E1,3.0789797E0,1.7615347E1,1.3214832E1],"tree_param":{"num_deleted":"0","num_feature":"27","num_nodes":"9","size_leaf_vector":"1"}},{"base_weights":[3.561422E-2,-1.3303974E-1,3.110007E-2,-3.4977558E-1,3.0083394E-2,-5.4297704E-1,3.0551748E-2,-7.371413E-3,-2.9245919E-2],"categories":[],"categories_nodes":[],"categories_segments":[],"categories_sizes":[],"default_left":[0,0,0,0,0,0,0,0,0],"id":57,"left_children":[1,3,-1,5,-1,7,-1,-1,-1],"loss_changes":[8.386673E0,1.0862213E1,0E0,1.0227162E1,0E0,3.961482E0,0E0,0E0,0E0],"parents":[2147483647,0,0,1,1,3,3,5,5],"right_children":[2,4,-1,6,-1,8,-1,-1,-1],"split_conditions":[7.2862454E-2,7.6496973E0,3.110007E-2,7.640638E-2,3.0083394E-2,3.1024584E-4,3.0551748E-2,-7.371413E-3,-2.9245919E-2],"split_indices":[25,23,0,24,0,6,0,0,0],"split_type":[0,0,0,0,0,0,0,0,0],"sum_hessian":[4.7857815E1,4.1699535E1,6.158281E0,3.5598682E1,6.1008515E0,3.172226E1,3.8764243E0,1.9718887E1,1.2003372E1],"tree_param":{"num_deleted":"0","num_feature":"27","num_nodes":"9","size_leaf_vector":"1"}},{"base_weights":[3.905807E-2,-1.3286704E-1,2.9865451E-2,-3.147923E-1,2.9506654E-2,-5.786819E-1,3.3791527E-1,8.112908E-4,-2.6592541E-2,-1.4091421E-2,3.1541858E-2],"categories":[],"categories_nodes":[],"categories_segments":[],"categories_sizes":[],"default_left":[0,0,0,0,0,0,0,0,0,0,0],"id":58,"left_children":[1,3,-1,5,-1,7,9,-1,-1,-1,-1],"loss_changes":[7.660711E0,8.370707E0,0E0,6.2043133E0,0E0,4.7233047E0,6.6450315E0,0E0,0E0,0E0,0E0],"parents":[2147483647,0,0,1,1,3,3,5,5,6,6],"right_children":[2,4,-1,6,-1,8,10,-1,-1,-1,-1],"split_conditions":[2.7251451E1,1.3774213E-1,2.9865451E-2,6.5972224E-2,2.9506654E-2,1.1844692E-3,5.5128236E0,8.112908E-4,-2.6592541E-2,-1.4091421E-2,3.1541858E-2],"split_indices":[22,25,0,24,0,7,23,0,0,0,0],"split_type":[0,0,0,0,0,0,0,0,0,0,0],"sum_hessian":[4.4782578E1,3.8689198E1,6.093379E0,3.3885468E1,4.803732E0,2.4210556E1,9.6749115E0,8.463586E0,1.574697E1,4.698296E0,4.9766154E0],"tree_param":{"num_deleted":"0","num_feature":"27","num_nodes":"11","size_leaf_vector":"1"}},{"base_weights":[5.557673E-2,3.2240936E-1,-4.931661E-1,7.0658904E-1,8.247916E-3,-2.8982386E-2,1.7133497E-2,3.7206065E-2,1.4164352E-1,-3.633737E-2,6.755648E-1,-2.587226E-2,2.9986834E-2,3.417962E-2,-1.7180432E-2],"categories":[],"categories_nodes":[],"categories_segments":[],"categories_sizes":[],"default_left":[0,0,0,0,0,0,0,0,0,0,0,0,0,0,0],"id":59,"left_children":[1,3,5,7,9,-1,-1,-1,11,-1,13,-1,-1,-1,-1],"loss_changes":[7.0889974E0,3.9105678E0,8.544321E0,4.221431E0,1.6168734E1,0E0,0E0,0E0,7.937417E0,0E0,8.081578E0,0E0,0E0,0E0,0E0],"parents":[2147483647,0,0,1,1,2,2,3,3,4,4,8,8,10,10],"right_children":[2,4,6,8,10,-1,-1,-1,12,-1,14,-1,-1,-1,-1],"split_conditions":[1.5399836E-4,1.167E3,4.0083004E1,3.910895E1,1.185E3,-2.8982386E-2,1.7133497E-2,3.7206065E-2,8.6396704E2,-3.633737E-2,3.3600883E1,-2.587226E-2,2.9986834E-2,3.417962E-2,-1.7180432E-2],"split_indices":[21,0,18,18,0,0,0,0,16,0,18,0,0,0,0],"split_type":[0,0,0,0,0,0,0,0,0,0,0,0,0,0,0],"sum_hessian":[4.6328766E1,3.144885E1,1.4879914E1,1.3585895E1,1.7862955E1,1.0366041E1,4.513873E0,6.372016E0,7.213879E0,6.029394E0,1.1833561E1,3.3214412E0,3.892438E0,8.691649E0,3.1419117E0],"tree_param":{"num_deleted":"0","num_feature":"27","num_nodes":"15","size_leaf_vector":"1"}},{"base_weights":[4.1538425E-2,-1.0918858E-1,3.0751947E-2,-2.9060388E-2,1.2884219E-1,-6.336042E-1,3.4650856E-1,-3.7215083E-4,-3.1034041E-2,3.6620833E-2,-3.831649E-3],"categories":[],"categories_nodes":[],"categories_segments":[],"categories_sizes":[],"default_left":[0,0,0,0,0,0,0,0,0,0,0],"id":60,"left_children":[1,3,-1,-1,5,7,9,-1,-1,-1,-1],"loss_changes":[7.049547E0,8.611719E0,0E0,0E0,5.7574587E0,1.9205945E0,1.1185374E1,0E0,0E0,0E0,0E0],"parents":[2147483647,0,0,1,1,4,4,5,5,6,6],"right_children":[2,4,-1,-1,6,8,10,-1,-1,-1,-1],"split_conditions":[7.640638E-2,1.2857142E1,3.0751947E-2,-2.9060388E-2,8.633725E2,9.999998E-1,1.1662646E3,-3.7215083E-4,-3.1034041E-2,3.6620833E-2,-3.831649E-3],"split_indices":[24,17,0,0,16,2,16,0,0,0,0],"split_type":[0,0,0,0,0,0,0,0,0,0,0],"sum_hessian":[4.579867E1,4.0483494E1,5.3151774E0,8.114343E0,3.236915E1,6.7642603E0,2.5604889E1,3.0573614E0,3.706899E0,8.451508E0,1.7153383E1],"tree_param":{"num_deleted":"0","num_feature":"27","num_nodes":"11","size_leaf_vector":"1"}},{"base_weights":[2.6523992E-2,-1.3168855E-1,2.9781105E-2,-3.1691164E-1,2.8976696E-2,-5.963816E-1,2.7856678E-1,9.163684E-3,-2.3103999E-2,3.4396473E-2,-3.036567E-2],"categories":[],"categories_nodes":[],"categories_segments":[],"categories_sizes":[],"default_left":[0,0,0,0,0,0,0,0,0,0,0],"id":61,"left_children":[1,3,-1,5,-1,7,9,-1,-1,-1,-1],"loss_changes":[7.2426753E0,8.613156E0,0E0,6.109705E0,0E0,4.0939236E0,1.4704865E1,0E0,0E0,0E0,0E0],"parents":[2147483647,0,0,1,1,3,3,5,5,6,6],"right_children":[2,4,-1,6,-1,8,10,-1,-1,-1,-1],"split_conditions":[1.3774213E-1,7.6496973E0,2.9781105E-2,1.185E3,2.8976696E-2,9.982877E-1,3.3678486E1,9.163684E-3,-2.3103999E-2,3.4396473E-2,-3.036567E-2],"split_indices":[25,23,0,0,0,20,18,0,0,0,0],"split_type":[0,0,0,0,0,0,0,0,0,0,0],"sum_hessian":[4.5525375E1,3.98617E1,5.6636777E0,3.471465E1,5.147047E0,2.3625303E1,1.1089347E1,3.6940033E0,1.99313E1,6.6973596E0,4.3919873E0],"tree_param":{"num_deleted":"0","num_feature":"27","num_nodes":"11","size_leaf_vector":"1"}},{"base_weights":[-1.1186279E-2,-1.6877633E-1,2.9059133E-2,-3.529241E-1,2.8931595E-2,-5.152902E-1,2.9028956E-2,-3.0555435E-2,-8.14393E-3],"categories":[],"categories_nodes":[],"categories_segments":[],"categories_sizes":[],"default_left":[0,0,0,0,0,0,0,0,0],"id":62,"left_children":[1,3,-1,5,-1,7,-1,-1,-1],"loss_changes":[7.086564E0,8.577612E0,0E0,7.936395E0,0E0,3.593854E0,0E0,0E0,0E0],"parents":[2147483647,0,0,1,1,3,3,5,5],"right_children":[2,4,-1,6,-1,8,-1,-1,-1],"split_conditions":[7.6496973E0,1.3774213E-1,2.9059133E-2,7.640638E-2,2.8931595E-2,2.2601074E1,2.9028956E-2,-3.0555435E-2,-8.14393E-3],"split_indices":[23,25,0,24,0,18,0,0,0],"split_type":[0,0,0,0,0,0,0,0,0],"sum_hessian":[4.3835556E1,3.847515E1,5.3604045E0,3.3688976E1,4.786172E0,3.0543377E1,3.1456008E0,8.931899E0,2.1611479E1],"tree_param":{"num_deleted":"0","num_feature":"27","num_nodes":"9","size_leaf_vector":"1"}},{"base_weights":[4.6207353E-2,3.3879787E-1,-4.8756298E-1,-1.534481E-1,5.5102634E-1,-1.6378188E-1,-2.8729463E-2,2.0597234E-2,-2.6721751E-2,-4.5114355E-3,6.8462384E-1,1.8744469E-2,-6.409878E-1,3.4396864E-2,9.9466145E-3,-2.6618278E-2,-7.09371E-3],"categories":[],"categories_nodes":[],"categories_segments":[],"categories_sizes":[],"default_left":[0,0,0,0,0,0,0,0,0,0,0,0,0,0,0,0,0],"id":63,"left_children":[1,3,5,7,9,11,-1,-1,-1,-1,13,-1,15,-1,-1,-1,-1],"loss_changes":[6.928259E0,3.0683248E0,2.239276E0,6.4249015E0,1.9934683E0,4.3625526E0,0E0,0E0,0E0,0E0,2.4132195E0,0E0,4.9287295E-1,0E0,0E0,0E0,0E0],"parents":[2147483647,0,0,1,1,2,2,3,3,4,4,5,5,10,10,12,12],"right_children":[2,4,6,8,10,12,-1,-1,-1,-1,14,-1,16,-1,-1,-1,-1],"split_conditions":[5.050775E-4,1.0003102E0,9.999971E-1,1.3987804E1,8.639484E2,5.080419E0,-2.8729463E-2,2.0597234E-2,-2.6721751E-2,-4.5114355E-3,1.0880063E-3,1.8744469E-2,5.3882484E0,3.4396864E-2,9.9466145E-3,-2.6618278E-2,-7.09371E-3],"split_indices":[26,14,13,17,16,19,0,0,0,0,7,0,19,0,0,0,0],"split_type":[0,0,0,0,0,0,0,0,0,0,0,0,0,0,0,0,0],"sum_hessian":[4.2304142E1,2.7561409E1,1.4742734E1,8.38653E0,1.917488E1,9.528319E0,5.214414E0,3.9522598E0,4.4342704E0,3.0478053E0,1.6127073E1,3.4755485E0,6.0527716E0,6.012815E0,1.0114259E1,3.0204828E0,3.0322886E0],"tree_param":{"num_deleted":"0","num_feature":"27","num_nodes":"17","size_leaf_vector":"1"}},{"base_weights":[7.5021006E-2,3.322571E-1,-5.259374E-1,-2.6507616E-1,5.981423E-1,-8.421058E-1,9.414763E-3,3.267929E-2,-3.5417695E-2,-1.4344861E-2,8.0309147E-1,-8.934338E-3,-3.1303298E-2,3.0595915E-2,4.333613E-3],"categories":[],"categories_nodes":[],"categories_segments":[],"categories_sizes":[],"default_left":[0,0,0,0,0,0,0,0,0,0,0,0,0,0,0],"id":64,"left_children":[1,3,5,7,9,11,-1,-1,-1,-1,13,-1,-1,-1,-1],"loss_changes":[7.111179E0,5.246217E0,3.9379961E0,1.4379781E1,5.3414755E0,8.205786E-1,0E0,0E0,0E0,0E0,2.6013966E0,0E0,0E0,0E0,0E0],"parents":[2147483647,0,0,1,1,2,2,3,3,4,4,5,5,10,10],"right_children":[2,4,6,8,10,12,-1,-1,-1,-1,14,-1,-1,-1,-1],"split_conditions":[1.4998048E-4,9.9831367E-1,6.0195517E-2,1.167E3,1.9644701E-4,9.9998844E-1,9.414763E-3,3.267929E-2,-3.5417695E-2,-1.4344861E-2,5.637085E0,-8.934338E-3,-3.1303298E-2,3.0595915E-2,4.333613E-3],"split_indices":[21,20,25,0,9,13,0,0,0,0,19,0,0,0,0],"split_type":[0,0,0,0,0,0,0,0,0,0,0,0,0,0,0],"sum_hessian":[4.387039E1,3.1033735E1,1.2836655E1,9.559829E0,2.1473907E1,9.323567E0,3.513088E0,3.7791793E0,5.780649E0,3.221725E0,1.8252182E1,3.1870043E0,6.136563E0,1.3319871E1,4.9323106E0],"tree_param":{"num_deleted":"0","num_feature":"27","num_nodes":"15","size_leaf_vector":"1"}},{"base_weights":[3.8329042E-2,3.4737033E-1,-4.9232134E-1,-1.437779E-1,5.609809E-1,-7.2053033E-1,7.595741E-3,1.6568102E-2,-2.1502035E-2,1.9973344E-3,6.998487E-1,-2.8089013E-2,-1.1638359E-3,7.6563423E-3,3.2924637E-2],"categories":[],"categories_nodes":[],"categories_segments":[],"categories_sizes":[],"default_left":[0,0,0,0,0,0,0,0,0,0,0,0,0,0,0],"id":65,"left_children":[1,3,5,7,9,11,-1,-1,-1,-1,13,-1,-1,-1,-1],"loss_changes":[7.1538587E0,2.9653003E0,2.919007E0,4.036809E0,1.2829762E0,1.8134618E0,0E0,0E0,0E0,0E0,2.3744202E0,0E0,0E0,0E0,0E0],"parents":[2147483647,0,0,1,1,2,2,3,3,4,4,5,5,10,10],"right_children":[2,4,6,8,10,12,-1,-1,-1,-1,14,-1,-1,-1,-1],"split_conditions":[5.027127E-4,1.0003102E0,1.185E3,1.3987804E1,9.999239E-1,2.0197655E1,7.595741E-3,1.6568102E-2,-2.1502035E-2,1.9973344E-3,3.7682276E0,-2.8089013E-2,-1.1638359E-3,7.6563423E-3,3.2924637E-2],"split_indices":[26,3,0,17,8,22,0,0,0,0,22,0,0,0,0],"split_type":[0,0,0,0,0,0,0,0,0,0,0,0,0,0,0],"sum_hessian":[4.1580147E1,2.6495203E1,1.5084945E1,8.129714E0,1.8365488E1,1.1575176E1,3.5097687E0,3.6868742E0,4.44284E0,4.3517256E0,1.4013762E1,8.508743E0,3.066433E0,7.391007E0,6.6227555E0],"tree_param":{"num_deleted":"0","num_feature":"27","num_nodes":"15","size_leaf_vector":"1"}},{"base_weights":[1.0994967E-1,3.6769003E-1,-4.5500347E-1,6.594259E-1,-2.0459649E-1,-8.3877903E-1,2.0960385E-2,-2.4852271E-1,3.377495E-2,-2.752111E-2,2.3705766E-2,-8.27798E-3,-3.0824125E-2,2.2214217E-2,-3.151644E-2],"categories":[],"categories_nodes":[],"categories_segments":[],"categories_sizes":[],"default_left":[0,0,0,0,0,0,0,0,0,0,0,0,0,0,0],"id":66,"left_children":[1,3,5,7,9,11,-1,13,-1,-1,-1,-1,-1,-1,-1],"loss_changes":[6.566702E0,5.2659984E0,6.88003E0,9.000313E0,8.623941E0,8.9764214E-1,0E0,6.9709296E0,0E0,0E0,0E0,0E0,0E0,0E0,0E0],"parents":[2147483647,0,0,1,1,2,2,3,3,4,4,5,5,7,7],"right_children":[2,4,6,8,10,12,-1,14,-1,-1,-1,-1,-1,-1,-1],"split_conditions":[3.1274842E-4,3.5810364E1,4.640413E1,9.9831367E-1,-5.7172447E-2,9.999888E-1,2.0960385E-2,1.1666323E3,3.377495E-2,-2.752111E-2,2.3705766E-2,-8.27798E-3,-3.0824125E-2,2.2214217E-2,-3.151644E-2],"split_indices":[6,18,18,20,25,13,0,16,0,0,0,0,0,0,0],"split_type":[0,0,0,0,0,0,0,0,0,0,0,0,0,0,0],"sum_hessian":[4.294855E1,2.9733046E1,1.32155075E1,1.9592875E1,1.0140172E1,1.0121514E1,3.0939925E0,6.8076425E0,1.2785231E1,5.952781E0,4.1873903E0,3.1594815E0,6.9620333E0,3.082851E0,3.7247918E0],"tree_param":{"num_deleted":"0","num_feature":"27","num_nodes":"15","size_leaf_vector":"1"}},{"base_weights":[2.1561649E-2,-1.345465E-1,3.00306E-2,-2.8119022E-2,9.8224595E-2,3.101184E-2,-8.4000446E-2,-2.3488278E-2,7.690567E-3],"categories":[],"categories_nodes":[],"categories_segments":[],"categories_sizes":[],"default_left":[0,0,0,0,0,0,0,0,0],"id":67,"left_children":[1,3,-1,-1,5,-1,7,-1,-1],"loss_changes":[6.7071033E0,7.184639E0,0E0,0E0,5.2572503E0,0E0,6.459531E0,0E0,0E0],"parents":[2147483647,0,0,1,1,4,4,6,6],"right_children":[2,4,-1,-1,6,-1,8,-1,-1],"split_conditions":[7.640638E-2,1.2857142E1,3.00306E-2,-2.8119022E-2,1.4060976E1,3.101184E-2,1.78E1,-2.3488278E-2,7.690567E-3],"split_indices":[24,17,0,0,17,0,17,0,0],"split_type":[0,0,0,0,0,0,0,0,0],"sum_hessian":[4.198468E1,3.6957024E1,5.0276566E0,7.6270437E0,2.9329979E1,4.0198975E0,2.5310081E1,7.8627977E0,1.7447285E1],"tree_param":{"num_deleted":"0","num_feature":"27","num_nodes":"9","size_leaf_vector":"1"}},{"base_weights":[3.4744013E-2,-1.2292677E-1,2.984038E-2,-3.1599817E-1,2.8621405E-2,-4.7963476E-1,2.6262224E-2,-2.7883269E-2,-5.5976966E-3],"categories":[],"categories_nodes":[],"categories_segments":[],"categories_sizes":[],"default_left":[0,0,0,0,0,0,0,0,0],"id":68,"left_children":[1,3,-1,5,-1,7,-1,-1,-1],"loss_changes":[6.536644E0,8.055513E0,0E0,6.7312956E0,0E0,3.663661E0,0E0,0E0,0E0],"parents":[2147483647,0,0,1,1,3,3,5,5],"right_children":[2,4,-1,6,-1,8,-1,-1,-1],"split_conditions":[7.640638E-2,1.3774213E-1,2.984038E-2,7.6496973E0,2.8621405E-2,-3.136958E0,2.6262224E-2,-2.7883269E-2,-5.5976966E-3],"split_indices":[24,25,0,23,0,25,0,0,0],"split_type":[0,0,0,0,0,0,0,0,0],"sum_hessian":[4.137999E1,3.6291073E1,5.088919E0,3.1373299E1,4.9177723E0,2.8109896E1,3.263403E0,1.0232265E1,1.787763E1],"tree_param":{"num_deleted":"0","num_feature":"27","num_nodes":"9","size_leaf_vector":"1"}},{"base_weights":[3.109986E-2,-1.2372728E-1,2.8567052E-2,-3.092223E-1,2.7887143E-2,-7.234102E-2,-8.9628434E-1,-1.700096E-2,1.7632458E-2,-3.186165E-2,-1.3663115E-2],"categories":[],"categories_nodes":[],"categories_segments":[],"categories_sizes":[],"default_left":[0,0,0,0,0,0,0,0,0,0,0],"id":69,"left_children":[1,3,-1,5,-1,7,9,-1,-1,-1,-1],"loss_changes":[5.9039664E0,7.2465997E0,0E0,4.251044E0,0E0,7.9038677E0,1.6193962E-1,0E0,0E0,0E0,0E0],"parents":[2147483647,0,0,1,1,3,3,5,5,6,6],"right_children":[2,4,-1,6,-1,8,10,-1,-1,-1,-1],"split_conditions":[1.3774213E-1,7.6496973E0,2.8567052E-2,9.999972E-1,2.7887143E-2,-3.136958E0,8.64E2,-1.700096E-2,1.7632458E-2,-3.186165E-2,-1.3663115E-2],"split_indices":[25,23,0,2,0,25,0,0,0,0,0],"split_type":[0,0,0,0,0,0,0,0,0,0,0],"sum_hessian":[3.957132E1,3.461826E1,4.95306E0,3.0035223E1,4.583038E0,2.2200485E1,7.834737E0,1.2774686E1,9.4258E0,4.6696835E0,3.1650536E0],"tree_param":{"num_deleted":"0","num_feature":"27","num_nodes":"11","size_leaf_vector":"1"}},{"base_weights":[2.1850869E-2,-1.4009255E-1,2.8478513E-2,-2.9743513E-1,2.75526E-2,-6.2883454E-3,-8.6796707E-1,8.686661E-3,-2.252779E-2,-9.984331E-3,-3.0847423E-2],"categories":[],"categories_nodes":[],"categories_segments":[],"categories_sizes":[],"default_left":[0,0,0,0,0,0,0,0,0,0,0],"id":70,"left_children":[1,3,-1,5,-1,7,9,-1,-1,-1,-1],"loss_changes":[6.4448404E0,6.3770905E0,0E0,5.4199753E0,0E0,5.20348E0,6.037693E-1,0E0,0E0,0E0,0E0],"parents":[2147483647,0,0,1,1,3,3,5,5,6,6],"right_children":[2,4,-1,6,-1,8,10,-1,-1,-1,-1],"split_conditions":[2.7251451E1,1.3774213E-1,2.8478513E-2,1.5399836E-4,2.75526E-2,3.6379448E1,9.999888E-1,8.686661E-3,-2.252779E-2,-9.984331E-3,-3.0847423E-2],"split_indices":[22,25,0,21,0,18,13,0,0,0,0],"split_type":[0,0,0,0,0,0,0,0,0,0,0],"sum_hessian":[4.1025326E1,3.564937E1,5.375958E0,3.166198E1,3.9873884E0,2.163334E1,1.0028638E1,1.5919636E1,5.713705E0,3.020386E0,7.008252E0],"tree_param":{"num_deleted":"0","num_feature":"27","num_nodes":"11","size_leaf_vector":"1"}},{"base_weights":[4.197103E-2,-9.684533E-2,2.8973088E-2,-2.6660446E-2,9.6587196E-2,2.5135696E-2,-7.977705E-2,2.7267033E-2,-8.458427E-3],"categories":[],"categories_nodes":[],"categories_segments":[],"categories_sizes":[],"default_left":[0,0,0,0,0,0,0,0,0],"id":71,"left_children":[1,3,-1,-1,5,-1,7,-1,-1],"loss_changes":[5.30211E0,5.633428E0,0E0,0E0,3.9902177E0,0E0,5.2844257E0,0E0,0E0],"parents":[2147483647,0,0,1,1,4,4,6,6],"right_children":[2,4,-1,-1,6,-1,8,-1,-1],"split_conditions":[7.640638E-2,1.3091954E1,2.8973088E-2,-2.6660446E-2,2.2169282E0,2.5135696E-2,1.4060976E1,2.7267033E-2,-8.458427E-3],"split_indices":[24,17,0,0,19,0,17,0,0],"split_type":[0,0,0,0,0,0,0,0,0],"sum_hessian":[3.96164E1,3.5219276E1,4.3971257E0,6.2087674E0,2.9010508E1,4.8547964E0,2.4155712E1,3.50745E0,2.0648262E1],"tree_param":{"num_deleted":"0","num_feature":"27","num_nodes":"9","size_leaf_vector":"1"}},{"base_weights":[4.565692E-2,2.745491E-1,-4.7728297E-1,-2.4497847E-1,5.018974E-1,7.241565E-3,-2.6082564E-2,3.1012198E-2,-3.3133343E-2,-9.18162E-2,8.923029E-1,1.8511878E-2,-2.190905E-2,7.7340966E-3,3.798522E-2],"categories":[],"categories_nodes":[],"categories_segments":[],"categories_sizes":[],"default_left":[0,0,0,0,0,0,0,0,0,0,0,0,0,0,0],"id":72,"left_children":[1,3,5,7,9,-1,-1,-1,-1,11,13,-1,-1,-1,-1],"loss_changes":[5.0121994E0,3.548144E0,3.8115497E0,1.1581574E1,4.833555E0,0E0,0E0,0E0,0E0,4.541811E0,2.6295214E0,0E0,0E0,0E0,0E0],"parents":[2147483647,0,0,1,1,2,2,3,3,4,4,9,9,10,10],"right_children":[2,4,6,8,10,-1,-1,-1,-1,12,14,-1,-1,-1,-1],"split_conditions":[3.1024584E-4,9.9831367E-1,9.9998856E-1,1.167E3,3.5594233E-8,7.241565E-3,-2.6082564E-2,3.1012198E-2,-3.3133343E-2,2.5634146E1,-4.3848014E0,1.8511878E-2,-2.190905E-2,7.7340966E-3,3.798522E-2],"split_indices":[6,20,13,0,1,0,0,0,0,17,25,0,0,0,0],"split_type":[0,0,0,0,0,0,0,0,0,0,0,0,0,0,0],"sum_hessian":[3.977937E1,2.7999086E1,1.1780285E1,8.49929E0,1.9499796E1,4.2943854E0,7.485899E0,3.3348758E0,5.164415E0,8.0390835E0,1.14607115E1,3.82544E0,4.2136436E0,4.875691E0,6.585021E0],"tree_param":{"num_deleted":"0","num_feature":"27","num_nodes":"15","size_leaf_vector":"1"}},{"base_weights":[-1.9561548E-2,-1.7312637E-1,2.9205378E-2,-3.2454962E-1,2.6620716E-2,4.562479E-2,-7.324892E-1,-7.163176E-3,1.6075775E-2,-2.8438542E-2,-1.3249549E-2],"categories":[],"categories_nodes":[],"categories_segments":[],"categories_sizes":[],"default_left":[0,0,0,0,0,0,0,0,0,0,0],"id":73,"left_children":[1,3,-1,5,-1,7,9,-1,-1,-1,-1],"loss_changes":[6.1826205E0,5.9089565E0,0E0,4.7694106E0,0E0,2.5515952E0,5.1996994E-1,0E0,0E0,0E0,0E0],"parents":[2147483647,0,0,1,1,3,3,5,5,6,6],"right_children":[2,4,-1,6,-1,8,10,-1,-1,-1,-1],"split_conditions":[7.520143E-2,2.7251451E1,2.9205378E-2,1.1565994E-3,2.6620716E-2,3.7682276E0,9.9992394E-1,-7.163176E-3,1.6075775E-2,-2.8438542E-2,-1.3249549E-2],"split_indices":[24,22,0,9,0,22,2,0,0,0,0],"split_type":[0,0,0,0,0,0,0,0,0,0,0],"sum_hessian":[3.8436264E1,3.4003735E1,4.4325285E0,3.0362347E1,3.641387E0,1.6383614E1,1.3978735E1,1.0693174E1,5.6904383E0,6.7320337E0,7.2467012E0],"tree_param":{"num_deleted":"0","num_feature":"27","num_nodes":"11","size_leaf_vector":"1"}},{"base_weights":[5.335289E-2,3.14183E-1,-5.296689E-1,-2.6193646E-1,5.6204295E-1,-2.6411617E-2,1.0301793E-2,3.07621E-2,-3.3010196E-2,3.2860126E-2,-2.9005054E-1,-2.3125088E-2,5.331287E-3],"categories":[],"categories_nodes":[],"categories_segments":[],"categories_sizes":[],"default_left":[0,0,0,0,0,0,0,0,0,0,0,0,0],"id":74,"left_children":[1,3,5,7,9,-1,-1,-1,-1,-1,11,-1,-1],"loss_changes":[6.0739613E0,4.0695276E0,4.0930357E0,1.0782327E1,9.189327E0,0E0,0E0,0E0,0E0,0E0,2.0049195E0,0E0,0E0],"parents":[2147483647,0,0,1,1,2,2,3,3,4,4,10,10],"right_children":[2,4,6,8,10,-1,-1,-1,-1,-1,12,-1,-1],"split_conditions":[3.1024584E-4,9.9831367E-1,3.940873E1,1.167E3,3.576726E1,-2.6411617E-2,1.0301793E-2,3.07621E-2,-3.3010196E-2,3.2860126E-2,1.0003102E0,-2.3125088E-2,5.331287E-3],"split_indices":[6,20,18,0,18,0,0,0,0,0,3,0,0],"split_type":[0,0,0,0,0,0,0,0,0,0,0,0,0],"sum_hessian":[3.784765E1,2.646773E1,1.137992E1,7.9446335E0,1.8523096E1,8.112609E0,3.2673116E0,3.0454328E0,4.899201E0,1.1217193E1,7.3059034E0,3.2832718E0,4.0226316E0],"tree_param":{"num_deleted":"0","num_feature":"27","num_nodes":"13","size_leaf_vector":"1"}},{"base_weights":[4.1244816E-2,-1.0070115E-1,2.7746817E-2,2.0481706E-2,-2.6073504E-2,-3.1574056E-1,2.5816277E-1,-2.7388552E-2,4.553092E-3,-2.8375573E-3,2.4067964E-2],"categories":[],"categories_nodes":[],"categories_segments":[],"categories_sizes":[],"default_left":[0,0,0,0,0,0,0,0,0,0,0],"id":75,"left_children":[1,3,-1,5,-1,7,9,-1,-1,-1,-1],"loss_changes":[5.2479663E0,3.399032E0,0E0,2.6660457E0,0E0,4.003848E0,3.8180656E0,0E0,0E0,0E0,0E0],"parents":[2147483647,0,0,1,1,3,3,5,5,6,6],"right_children":[2,4,-1,6,-1,8,10,-1,-1,-1,-1],"split_conditions":[7.6496973E0,2.691018E-3,2.7746817E-2,9.999718E-1,-2.6073504E-2,9.9831367E-1,3.7682276E0,-2.7388552E-2,4.553092E-3,-2.8375573E-3,2.4067964E-2],"split_indices":[23,6,0,2,0,20,22,0,0,0,0],"split_type":[0,0,0,0,0,0,0,0,0,0,0],"sum_hessian":[4.0097115E1,3.531094E1,4.7861733E0,3.134157E1,3.969371E0,1.2844042E1,1.8497528E1,5.2213464E0,7.622695E0,1.1723326E1,6.774203E0],"tree_param":{"num_deleted":"0","num_feature":"27","num_nodes":"11","size_leaf_vector":"1"}},{"base_weights":[-2.4062205E-2,-1.5921122E-1,2.8030781E-2,-3.146713E-1,2.687519E-2,-4.801275E-1,2.568115E-2,1.6315475E-2,-1.9237919E-2],"categories":[],"categories_nodes":[],"categories_segments":[],"categories_sizes":[],"default_left":[0,0,0,0,0,0,0,0,0],"id":76,"left_children":[1,3,-1,5,-1,7,-1,-1,-1],"loss_changes":[5.1914625E0,6.0182695E0,0E0,6.4588423E0,0E0,4.9682417E0,0E0,0E0,0E0],"parents":[2147483647,0,0,1,1,3,3,5,5],"right_children":[2,4,-1,6,-1,8,-1,-1,-1],"split_conditions":[7.640638E-2,1.3774213E-1,2.8030781E-2,7.6496973E0,2.687519E-2,9.982877E-1,2.568115E-2,1.6315475E-2,-1.9237919E-2],"split_indices":[24,25,0,23,0,20,0,0,0],"split_type":[0,0,0,0,0,0,0,0,0],"sum_hessian":[3.7930847E1,3.3973988E1,3.9568608E0,3.0222498E1,3.7514894E0,2.6996912E1,3.225586E0,3.3477602E0,2.3649153E1],"tree_param":{"num_deleted":"0","num_feature":"27","num_nodes":"9","size_leaf_vector":"1"}},{"base_weights":[-6.537321E-3,-1.4840674E-1,2.7224576E-2,-3.2013145E-1,2.7212085E-2,-4.8671675E-1,2.5112772E-2,-6.4876904E-3,-2.7027706E-2],"categories":[],"categories_nodes":[],"categories_segments":[],"categories_sizes":[],"default_left":[0,0,0,0,0,0,0,0,0],"id":77,"left_children":[1,3,-1,5,-1,7,-1,-1,-1],"loss_changes":[5.1902933E0,6.563274E0,0E0,6.2880855E0,0E0,2.8633494E0,0E0,0E0,0E0],"parents":[2147483647,0,0,1,1,3,3,5,5],"right_children":[2,4,-1,6,-1,8,-1,-1,-1],"split_conditions":[7.6496973E0,1.3774213E-1,2.7224576E-2,7.520143E-2,2.7212085E-2,3.1024584E-4,2.5112772E-2,-6.4876904E-3,-2.7027706E-2],"split_indices":[23,25,0,24,0,6,0,0,0],"split_type":[0,0,0,0,0,0,0,0,0],"sum_hessian":[3.7987736E1,3.3608807E1,4.3789315E0,2.9505062E1,4.1037426E0,2.6298708E1,3.2063553E0,1.6830902E1,9.467805E0],"tree_param":{"num_deleted":"0","num_feature":"27","num_nodes":"9","size_leaf_vector":"1"}},{"base_weights":[-5.5338077E-2,-2.0765981E-1,2.6991406E-2,-3.7360287E-1,2.654847E-2,-6.565641E-1,1.7953642E-1,9.777098E-3,-2.7212005E-2,1.8437022E-2,-1.3688151E-2],"categories":[],"categories_nodes":[],"categories_segments":[],"categories_sizes":[],"default_left":[0,0,0,0,0,0,0,0,0,0,0],"id":78,"left_children":[1,3,-1,5,-1,7,9,-1,-1,-1,-1],"loss_changes":[5.576967E0,6.27178E0,0E0,4.6804175E0,0E0,5.0947285E0,3.2263389E0,0E0,0E0,0E0,0E0],"parents":[2147483647,0,0,1,1,3,3,5,5,6,6],"right_children":[2,4,-1,6,-1,8,10,-1,-1,-1,-1],"split_conditions":[2.7251451E1,1.3774213E-1,2.6991406E-2,1.1835588E3,2.654847E-2,9.982877E-1,9.999974E-1,9.777098E-3,-2.7212005E-2,1.8437022E-2,-1.3688151E-2],"split_indices":[22,25,0,16,0,20,13,0,0,0,0],"split_type":[0,0,0,0,0,0,0,0,0,0,0],"sum_hessian":[3.6051918E1,3.1767817E1,4.2841005E0,2.8150452E1,3.6173656E0,1.8499804E1,9.650648E0,3.6974556E0,1.4802349E1,5.749884E0,3.9007633E0],"tree_param":{"num_deleted":"0","num_feature":"27","num_nodes":"11","size_leaf_vector":"1"}},{"base_weights":[2.376352E-2,-1.2404063E-1,2.7152592E-2,-3.074104E-1,2.713574E-2,-7.144677E-2,-8.365532E-1,-1.7873537E-2,1.8650273E-2,-3.018558E-2,-1.2248209E-2],"categories":[],"categories_nodes":[],"categories_segments":[],"categories_sizes":[],"default_left":[0,0,0,0,0,0,0,0,0,0,0],"id":79,"left_children":[1,3,-1,5,-1,7,9,-1,-1,-1,-1],"loss_changes":[4.9340544E0,6.4227066E0,0E0,3.4857123E0,0E0,7.90498E0,2.1865225E-1,0E0,0E0,0E0,0E0],"parents":[2147483647,0,0,1,1,3,3,5,5,6,6],"right_children":[2,4,-1,6,-1,8,10,-1,-1,-1,-1],"split_conditions":[7.6496973E0,1.3774213E-1,2.7152592E-2,9.999972E-1,2.713574E-2,-3.136958E0,8.6400446E2,-1.7873537E-2,1.8650273E-2,-3.018558E-2,-1.2248209E-2],"split_indices":[23,25,0,15,0,25,16,0,0,0,0],"split_type":[0,0,0,0,0,0,0,0,0,0,0],"sum_hessian":[3.6015728E1,3.1578966E1,4.436762E0,2.739601E1,4.1829576E0,1.9731882E1,7.664126E0,1.1313675E1,8.418207E0,4.5232086E0,3.1409173E0],"tree_param":{"num_deleted":"0","num_feature":"27","num_nodes":"11","size_leaf_vector":"1"}},{"base_weights":[7.7280484E-2,3.0381703E-1,-4.469307E-1,-1.6983667E-1,5.919237E-1,-2.6825769E-2,1.3931476E-2,1.061248E-2,-1.937022E-2,1.0364184E0,-2.314764E-2,1.6214946E-2,3.6490038E-2,-1.0530557E-2,1.02763735E-2],"categories":[],"categories_nodes":[],"categories_segments":[],"categories_sizes":[],"default_left":[0,0,0,0,0,0,0,0,0,0,0,0,0,0,0],"id":80,"left_children":[1,3,5,7,9,-1,-1,-1,-1,11,13,-1,-1,-1,-1],"loss_changes":[4.603272E0,3.766406E0,5.2071185E0,2.9533098E0,4.651599E0,0E0,0E0,0E0,0E0,2.2120857E-1,1.0889003E0,0E0,0E0,0E0,0E0],"parents":[2147483647,0,0,1,1,2,2,3,3,4,4,9,9,10,10],"right_children":[2,4,6,8,10,-1,-1,-1,-1,12,14,-1,-1,-1,-1],"split_conditions":[3.1024584E-4,3.5594233E-8,4.0083004E1,2.5634146E1,5.0980783E0,-2.6825769E-2,1.3931476E-2,1.061248E-2,-1.937022E-2,2.311452E1,6.426735E-2,1.6214946E-2,3.6490038E-2,-1.0530557E-2,1.02763735E-2],"split_indices":[6,1,18,17,19,0,0,0,0,18,24,0,0,0,0],"split_type":[0,0,0,0,0,0,0,0,0,0,0,0,0,0,0],"sum_hessian":[3.6619995E1,2.5863554E1,1.075644E1,9.937157E0,1.5926397E1,7.2278733E0,3.5285668E0,4.8533573E0,5.0838E0,8.847512E0,7.0788856E0,3.4212782E0,5.426234E0,3.75362E0,3.325266E0],"tree_param":{"num_deleted":"0","num_feature":"27","num_nodes":"15","size_leaf_vector":"1"}},{"base_weights":[4.49569E-2,-6.828256E-1,2.2837906E-1,-5.208063E-3,-3.05289E-2,1.138762E-2,8.802736E-1,-2.3302745E-2,2.8066885E-1,1.4285323E-2,3.1428143E-2,-3.6929692E-3,2.9467307E-2],"categories":[],"categories_nodes":[],"categories_segments":[],"categories_sizes":[],"default_left":[0,0,0,0,0,0,0,0,0,0,0,0,0],"id":81,"left_children":[1,3,5,-1,-1,7,9,-1,11,-1,-1,-1,-1],"loss_changes":[5.1174E0,1.1415997E0,4.2951283E0,0E0,0E0,5.279165E0,1.4205456E-2,0E0,5.363989E0,0E0,0E0,0E0,0E0],"parents":[2147483647,0,0,1,1,2,2,5,5,6,6,8,8],"right_children":[2,4,6,-1,-1,8,10,-1,12,-1,-1,-1,-1],"split_conditions":[8.64E2,1.7265306E1,-1.0867143E-1,-5.208063E-3,-3.05289E-2,3.7682276E0,3.05E1,-2.3302745E-2,6.708472E0,1.4285323E-2,3.1428143E-2,-3.6929692E-3,2.9467307E-2],"split_indices":[0,17,25,0,0,22,17,0,23,0,0,0,0],"split_type":[0,0,0,0,0,0,0,0,0,0,0,0,0],"sum_hessian":[3.616686E1,6.7321863E0,2.9434671E1,3.2728443E0,3.4593422E0,2.2847168E1,6.587504E0,5.338275E0,1.7508892E1,3.055163E0,3.532341E0,1.1636458E1,5.872434E0],"tree_param":{"num_deleted":"0","num_feature":"27","num_nodes":"13","size_leaf_vector":"1"}},{"base_weights":[4.7982052E-2,2.4452455E-1,-6.3248074E-1,2.944613E-2,8.9944474E-2,-4.207786E-3,-2.7055789E-2,-2.7720226E-2,2.7401823E-1,2.0225473E-2,-2.6491052E-3],"categories":[],"categories_nodes":[],"categories_segments":[],"categories_sizes":[],"default_left":[0,0,0,0,0,0,0,0,0,0,0],"id":82,"left_children":[1,3,5,-1,7,-1,-1,-1,9,-1,-1],"loss_changes":[5.1092625E0,3.2686362E0,1.0113208E0,0E0,5.004671E0,0E0,0E0,0E0,3.295301E0,0E0,0E0],"parents":[2147483647,0,0,1,1,2,2,4,4,8,8],"right_children":[2,4,6,-1,8,-1,-1,-1,10,-1,-1],"split_conditions":[3.7143772E-4,2.1322737E1,9.999957E-1,2.944613E-2,2.2349674E1,-4.207786E-3,-2.7055789E-2,-2.7720226E-2,3.385986E1,2.0225473E-2,-2.6491052E-3],"split_indices":[6,18,13,0,18,0,0,0,18,0,0],"split_type":[0,0,0,0,0,0,0,0,0,0,0],"sum_hessian":[3.6046585E1,2.8465391E1,7.5811944E0,4.007685E0,2.4457706E1,3.219343E0,4.361851E0,3.14024E0,2.1317467E1,9.720732E0,1.1596735E1],"tree_param":{"num_deleted":"0","num_feature":"27","num_nodes":"11","size_leaf_vector":"1"}},{"base_weights":[3.9457437E-2,-8.987139E-2,2.6937531E-2,1.2817466E-1,-7.517266E-1,-1.819983E-1,5.974512E-1,-3.022199E-2,-7.446089E-3,2.585291E-2,-1.5645353E-2,3.4989778E-2,-2.3434453E-3],"categories":[],"categories_nodes":[],"categories_segments":[],"categories_sizes":[],"default_left":[0,0,0,0,0,0,0,0,0,0,0,0,0],"id":83,"left_children":[1,3,-1,5,7,9,11,-1,-1,-1,-1,-1,-1],"loss_changes":[4.3466377E0,5.046643E0,0E0,3.9887056E0,8.63019E-1,6.4082017E0,4.2574234E0,0E0,0E0,0E0,0E0,0E0,0E0],"parents":[2147483647,0,0,1,1,3,3,4,4,5,5,6,6],"right_children":[2,4,-1,6,8,10,12,-1,-1,-1,-1,-1,-1],"split_conditions":[1.3774213E-1,9.999972E-1,2.6937531E-2,-3.136958E0,8.6400446E2,-5.116201E0,-1.0092995E0,-3.022199E-2,-7.446089E-3,2.585291E-2,-1.5645353E-2,3.4989778E-2,-2.3434453E-3],"split_indices":[25,2,0,25,16,25,25,0,0,0,0,0,0],"split_type":[0,0,0,0,0,0,0,0,0,0,0,0,0],"sum_hessian":[3.7423702E1,3.3302E1,4.1217046E0,2.565604E1,7.645959E0,1.581508E1,9.8409605E0,4.4073496E0,3.2386093E0,3.5041342E0,1.23109455E1,4.947973E0,4.8929877E0],"tree_param":{"num_deleted":"0","num_feature":"27","num_nodes":"13","size_leaf_vector":"1"}},{"base_weights":[6.4363755E-2,-5.911449E-1,2.7741018E-1,-3.0724825E-2,4.086678E-3,2.915594E-2,-1.3736459E-2,2.756083E-1,-2.0815538E-2,-1.7563233E-2,2.3452215E-2],"categories":[],"categories_nodes":[],"categories_segments":[],"categories_sizes":[],"default_left":[0,0,0,0,0,0,0,0,0,0,0],"id":84,"left_children":[1,3,5,-1,-1,-1,7,9,-1,-1,-1],"loss_changes":[5.223211E0,3.0388699E0,5.6789556E0,0E0,0E0,0E0,4.2706356E0,7.1074452E0,0E0,0E0,0E0],"parents":[2147483647,0,0,1,1,2,2,6,6,7,7],"right_children":[2,4,6,-1,-1,-1,8,10,-1,-1,-1],"split_conditions":[2.3148147E-2,8.6400446E2,5.358743E0,-3.0724825E-2,4.086678E-3,2.915594E-2,3.48285E1,9.9831367E-1,-2.0815538E-2,-1.7563233E-2,2.3452215E-2],"split_indices":[24,16,23,0,0,0,18,20,0,0,0],"split_type":[0,0,0,0,0,0,0,0,0,0,0],