{"learner":{"attributes":{"scikit_learn":"{\"_estimator_type\": \"classifier\"}"},"feature_names":["koi_period","koi_period_err1","koi_period_err2","koi_time0bk","koi_time0bk_err1","koi_time0bk_err2","koi_impact","koi_impact_err1","koi_impact_err2","koi_duration","koi_duration_err1","koi_duration_err2","koi_depth","koi_depth_err1","koi_depth_err2","koi_prad","koi_prad_err1","koi_prad_err2","koi_teq","koi_insol","koi_insol_err1","koi_insol_err2","koi_model_snr","koi_steff","koi_steff_err1","koi_steff_err2","koi_slogg","koi_slogg_err1","koi_slogg_err2","koi_srad","koi_srad_err1","koi_srad_err2","koi_kepmag","glon","glat"],"feature_types":["float","float","float","float","float","float","float","float","float","float","float","float","float","float","float","float","float","float","float","float","float","float","float","float","float","float","float","float","float","float","float","float","float","float","float"],"gradient_booster":{"model":{"cats":{"enc":[],"feature_segments":[],"sorted_idx":[]},"gbtree_model_param":{"num_parallel_tree":"1","num_trees":"300"},"iteration_indptr":[0,1,2,3,4,5,6,7,8,9,10,11,12,13,14,15,16,17,18,19,20,21,22,23,24,25,26,27,28,29,30,31,32,33,34,35,36,37,38,39,40,41,42,43,44,45,46,47,48,49,50,51,52,53,54,55,56,57,58,59,60,61,62,63,64,65,66,67,68,69,70,71,72,73,74,75,76,77,78,79,80,81,82,83,84,85,86,87,88,89,90,91,92,93,94,95,96,97,98,99,100,101,102,103,104,105,106,107,108,109,110,111,112,113,114,115,116,117,118,119,120,121,122,123,124,125,126,127,128,129,130,131,132,133,134,135,136,137,138,139,140,141,142,143,144,145,146,147,148,149,150,151,152,153,154,155,156,157,158,159,160,161,162,163,164,165,166,167,168,169,170,171,172,173,174,175,176,177,178,179,180,181,182,183,184,185,186,187,188,189,190,191,192,193,194,195,196,197,198,199,200,201,202,203,204,205,206,207,208,209,210,211,212,213,214,215,216,217,218,219,220,221,222,223,224,225,226,227,228,229,230,231,232,233,234,235,236,237,238,239,240,241,242,243,244,245,246,247,248,249,250,251,252,253,254,255,256,257,258,259,260,261,262,263,264,265,266,267,268,269,270,271,272,273,274,275,276,277,278,279,280,281,282,283,284,285,286,287,288,289,290,291,292,293,294,295,296,297,298,299,300],"tree_info":[0,0,0,0,0,0,0,0,0,0,0,0,0,0,0,0,0,0,0,0,0,0,0,0,0,0,0,0,0,0,0,0,0,0,0,0,0,0,0,0,0,0,0,0,0,0,0,0,0,0,0,0,0,0,0,0,0,0,0,0,0,0,0,0,0,0,0,0,0,0,0,0,0,0,0,0,0,0,0,0,0,0,0,0,0,0,0,0,0,0,0,0,0,0,0,0,0,0,0,0,0,0,0,0,0,0,0,0,0,0,0,0,0,0,0,0,0,0,0,0,0,0,0,0,0,0,0,0,0,0,0,0,0,0,0,0,0,0,0,0,0,0,0,0,0,0,0,0,0,0,0,0,0,0,0,0,0,0,0,0,0,0,0,0,0,0,0,0,0,0,0,0,0,0,0,0,0,0,0,0,0,0,0,0,0,0,0,0,0,0,0,0,0,0,0,0,0,0,0,0,0,0,0,0,0,0,0,0,0,0,0,0,0,0,0,0,0,0,0,0,0,0,0,0,0,0,0,0,0,0,0,0,0,0,0,0,0,0,0,0,0,0,0,0,0,0,0,0,0,0,0,0,0,0,0,0,0,0,0,0,0,0,0,0,0,0,0,0,0,0,0,0,0,0,0,0,0,0,0,0,0,0,0,0,0,0,0,0,0,0,0,0,0,0,0,0,0,0,0,0],"trees":[{"base_weights":[-1.3936749E-2,1.2859364E0,-9.50742E-1,1.6054603E0,-1.7951535E0,-4.8639566E-1,-1.9484926E0,-1.0184731E0,1.7335393E0,-1.8901517E0,-6.045355E-1,2.0228854E-1,-1.5108812E0,3.7278673E-3,-1.955786E0,-1.6373101E0,-4.4638645E-2,1.7929425E0,-1.3724887E-1,-1.5407106E-1,-2.8404493E-2,5.2643424E-1,-1.1733333E-1,1.3924057E0,-5.696877E-1,-1.0771296E0,-1.8472524E0,-1.9631317E0,3.7278673E-3,-1.495082E-1,-7.393039E-3,6.6242546E-2,-9.9566564E-2,1.4532858E-1,-9.358034E-2,-1.3217391E-1,3.970484E-2,8.364299E-2,-1.4086377E-2,-9.9566564E-2,1.1868431E-1,-1.028135E-1,2.576713E-2,-1.4938496E-1,-3.925894E-2,-1.4893135E-1,3.7278673E-3,-4.0163707E-2,-1.5763633E-1],"categories":[],"categories_nodes":[],"categories_segments":[],"categories_sizes":[],"default_left":[0,0,0,0,0,0,0,0,0,0,0,0,0,0,0,0,0,0,0,0,0,0,0,0,0,0,0,0,0,0,0,0,0,0,0,0,0,0,0,0,0,0,0,0,0,0,0,0,0],"id":0,"left_children":[1,3,5,7,9,11,13,15,17,19,21,23,25,-1,27,29,31,33,35,-1,-1,37,-1,39,41,43,45,47,-1,-1,-1,-1,-1,-1,-1,-1,-1,-1,-1,-1,-1,-1,-1,-1,-1,-1,-1,-1,-1],"loss_changes":[1.9421509E3,6.6052344E2,4.2848004E2,2.0534705E2,6.010025E0,4.4751602E2,4.369629E0,1.7296654E1,6.447351E1,2.503296E0,6.761927E0,3.4984866E2,3.5203857E1,0E0,4.400879E0,6.121338E0,1.3834224E1,4.1403564E1,1.8783178E1,0E0,0E0,1.4214948E0,0E0,3.784488E1,1.4790323E2,5.1786987E1,3.9612732E0,2.1342773E0,0E0,0E0,0E0,0E0,0E0,0E0,0E0,0E0,0E0,0E0,0E0,0E0,0E0,0E0,0E0,0E0,0E0,0E0,0E0,0E0,0E0],"parents":[2147483647,0,0,1,1,2,2,3,3,4,4,5,5,6,6,7,7,8,8,9,9,10,10,11,11,12,12,14,14,15,15,16,16,17,17,18,18,21,21,23,23,24,24,25,25,26,26,27,27],"right_children":[2,4,6,8,10,12,14,16,18,20,22,24,26,-1,28,30,32,34,36,-1,-1,38,-1,40,42,44,46,48,-1,-1,-1,-1,-1,-1,-1,-1,-1,-1,-1,-1,-1,-1,-1,-1,-1,-1,-1,-1,-1],"split_conditions":[1.35E2,1.515E1,1.24E1,1.12E1,1.69901E1,2.13E-1,1.3112833E2,5.428E3,4.31E-1,7.144E1,2.85E1,9.26E2,4.74E-1,3.7278673E-3,3.28E2,-2E-2,1.198E0,2.374E3,1.35993E2,-1.5407106E-1,-2.8404493E-2,1.7E-2,-1.1733333E-1,7.2140226E0,-1.05E-1,6.042E-5,6.53E2,1.37E2,3.7278673E-3,-1.495082E-1,-7.393039E-3,6.6242546E-2,-9.9566564E-2,1.4532858E-1,-9.358034E-2,-1.3217391E-1,3.970484E-2,8.364299E-2,-1.4086377E-2,-9.9566564E-2,1.1868431E-1,-1.028135E-1,2.576713E-2,-1.4938496E-1,-3.925894E-2,-1.4893135E-1,3.7278673E-3,-4.0163707E-2,-1.5763633E-1],"split_indices":[24,15,15,22,34,10,3,23,10,7,13,18,10,0,24,28,29,18,3,0,0,7,0,34,11,1,13,24,0,0,0,0,0,0,0,0,0,0,0,0,0,0,0,0,0,0,0,0,0],"split_type":[0,0,0,0,0,0,0,0,0,0,0,0,0,0,0,0,0,0,0,0,0,0,0,0,0,0,0,0,0,0,0,0,0,0,0,0,0,0,0,0,0,0,0,0,0,0,0,0,0],"sum_hessian":[1.5928932E3,6.670076E2,9.258855E2,6.047691E2,6.223855E1,6.3284924E2,2.9303625E2,2.782252E1,5.769466E2,5.709542E1,5.14313E0,3.789275E2,2.5392175E2,1.04771E0,2.9198856E2,1.659542E1,1.1227099E1,5.5923096E2,1.7715649E1,5.554771E1,1.54771E0,2.3931298E0,2.75E0,1.48771E2,2.301565E2,1.1274237E2,1.4117938E2,2.9094083E2,1.04771E0,1.425E1,2.34542E0,6.6793895E0,4.54771E0,5.551832E2,4.04771E0,4.75E0,1.2965649E1,1.0954199E0,1.29771E0,4.54771E0,1.4422328E2,1.2745611E2,1.02700386E2,4.709542E1,6.564695E1,1.4013168E2,1.04771E0,1.79771E0,2.8914313E2],"tree_param":{"num_deleted":"0","num_feature":"35","num_nodes":"49","size_leaf_vector":"1"}},{"base_weights":[-1.5171108E-2,1.2011604E0,-8.869404E-1,1.5138203E0,-1.5413513E0,-4.6782082E-1,-1.4610182E-1,-1.1214963E0,1.6230035E0,-6.8061745E-1,-1.7517678E0,1.5543626E-1,-1.4025623E0,-3.0713493E-2,-1.4558847E0,3.4712318E-1,1.6908797E0,9.582791E-1,-1.364003E0,4.952269E-3,-1.7884756E0,1.2679286E0,-5.505505E-1,-1.0322257E0,-1.7076392E0,9.065206E-2,-7.647134E-2,-1.3989258E-1,-5.3110983E-2,7.549542E-2,-1.1964377E-1,5.442438E-2,1.3997185E-1,1.0926459E-1,1.30534E-2,3.9728344E-3,-1.3588504E-1,-2.3706252E-2,-1.4618109E-1,-1.21874236E-1,1.0837148E-1,-9.987003E-2,2.4074439E-2,-1.398229E-1,-3.5947345E-2,-8.1610285E-2,-1.4098497E-1],"categories":[],"categories_nodes":[],"categories_segments":[],"categories_sizes":[],"default_left":[0,0,0,0,0,0,0,0,0,0,0,0,0,0,0,0,0,0,0,0,0,0,0,0,0,0,0,0,0,0,0,0,0,0,0,0,0,0,0,0,0,0,0,0,0,0,0],"id":1,"left_children":[1,3,5,7,9,11,-1,13,15,17,19,21,23,25,27,29,31,33,35,-1,37,39,41,43,45,-1,-1,-1,-1,-1,-1,-1,-1,-1,-1,-1,-1,-1,-1,-1,-1,-1,-1,-1,-1,-1,-1],"loss_changes":[1.6844447E3,5.710258E2,3.634431E2,1.7326538E2,1.1189987E1,3.737642E2,0E0,8.817062E0,4.899768E1,1.8180508E1,3.7259521E0,3.035419E2,2.7228119E1,8.321391E0,3.145874E0,3.4586998E1,3.1080688E1,1.4040208E0,5.3080616E0,0E0,2.540985E0,3.837155E1,1.4095358E2,4.861093E1,3.4332886E0,0E0,0E0,0E0,0E0,0E0,0E0,0E0,0E0,0E0,0E0,0E0,0E0,0E0,0E0,0E0,0E0,0E0,0E0,0E0,0E0,0E0,0E0],"parents":[2147483647,0,0,1,1,2,2,3,3,4,4,5,5,7,7,8,8,9,9,10,10,11,11,12,12,13,13,14,14,15,15,16,16,17,17,18,18,20,20,21,21,22,22,23,23,24,24],"right_children":[2,4,6,8,10,12,-1,14,16,18,20,22,24,26,28,30,32,34,36,-1,38,40,42,44,46,-1,-1,-1,-1,-1,-1,-1,-1,-1,-1,-1,-1,-1,-1,-1,-1,-1,-1,-1,-1,-1,-1],"split_conditions":[1.35E2,1.392E1,1.24E1,1.09E1,1.88E1,2.13E-1,-1.4610182E-1,2.42E-1,1.3712889E0,2.03E-4,4.1E1,9.26E2,4.74E-1,1.16E-1,5.95E-1,2.231E0,-1.05E-2,-4.3E-2,-5.52E-1,4.952269E-3,-4.34E0,7.2140226E0,-1.07E-1,5.9965334E0,-6.08E-1,9.065206E-2,-7.647134E-2,-1.3989258E-1,-5.3110983E-2,7.549542E-2,-1.1964377E-1,5.442438E-2,1.3997185E-1,1.0926459E-1,1.30534E-2,3.9728344E-3,-1.3588504E-1,-2.3706252E-2,-1.4618109E-1,-1.21874236E-1,1.0837148E-1,-9.987003E-2,2.4074439E-2,-1.398229E-1,-3.5947345E-2,-8.1610285E-2,-1.4098497E-1],"split_indices":[24,15,15,22,15,10,0,10,0,4,24,18,10,7,6,9,5,8,8,0,8,34,11,0,8,0,0,0,0,0,0,0,0,0,0,0,0,0,0,0,0,0,0,0,0,0,0],"split_type":[0,0,0,0,0,0,0,0,0,0,0,0,0,0,0,0,0,0,0,0,0,0,0,0,0,0,0,0,0,0,0,0,0,0,0,0,0,0,0,0,0,0,0,0,0,0,0],"sum_hessian":[1.5865537E3,6.622187E2,9.24335E2,5.9485077E2,6.7367905E1,6.4018823E2,2.841468E2,2.329581E1,5.71555E2,1.4065573E1,5.3302334E1,3.8458945E2,2.5559879E2,5.7220864E0,1.7573725E1,2.917941E1,5.4237555E2,4.0207496E0,1.0044823E1,1.0437976E0,5.2258533E1,1.4899985E2,2.3558958E2,1.1743115E2,1.3816763E2,2.4345975E0,3.287489E0,1.1948788E1,5.624937E0,2.2411493E1,6.7679167E0,3.0498793E1,5.1187677E2,2.1837363E0,1.837013E0,2.0852585E0,7.9595647E0,1.542927E0,5.0715607E1,3.990103E0,1.4500975E2,1.292212E2,1.06368385E2,5.1818794E1,6.561236E1,1.1626251E1,1.2654138E2],"tree_param":{"num_deleted":"0","num_feature":"35","num_nodes":"47","size_leaf_vector":"1"}},{"base_weights":[-4.5942473E-3,1.1816174E0,-7.8971153E-1,1.4400802E0,-1.6043886E0,-3.9469224E-1,-1.6962504E0,-7.061439E-1,1.5306401E0,-4.4390497E-1,-1.6769038E0,1.5676065E-1,-1.411432E0,-1.7030946E0,-7.6863025E-3,-6.1248448E-2,-1.3028632E-1,1.5711999E0,-3.458983E-1,8.5538976E-2,-9.8823495E-2,-1.372177E-1,-9.866643E-3,6.07879E-1,-1.1840854E0,-9.8712236E-1,-1.6325396E0,-1.3739455E-1,-1.1799824E0,-9.786396E-2,5.7702404E-2,-3.7207555E-2,1.2818377E-1,5.7489224E-2,-9.231749E-2,1.0192579E-1,1.884484E-3,-3.1087795E-2,-1.2169567E-1,-1.24535166E-1,2.9630184E-3,-1.3162933E-1,9.3597425E-3,5.012649E-2,-1.2411569E-1],"categories":[],"categories_nodes":[],"categories_segments":[],"categories_sizes":[],"default_left":[0,0,0,0,0,0,0,0,0,0,0,0,0,0,0,0,0,0,0,0,0,0,0,0,0,0,0,0,0,0,0,0,0,0,0,0,0,0,0,0,0,0,0,0,0],"id":2,"left_children":[1,3,5,7,9,11,13,15,17,19,21,23,25,27,-1,29,-1,31,33,-1,-1,-1,-1,35,37,39,41,-1,43,-1,-1,-1,-1,-1,-1,-1,-1,-1,-1,-1,-1,-1,-1,-1,-1],"loss_changes":[1.4760022E3,4.5682385E2,3.4083508E2,1.1344946E2,3.80484E0,3.733719E2,3.0028076E0,1.4231552E1,4.2789307E1,6.7566338E0,2.7958374E0,2.6226736E2,2.035431E1,1.3226318E-1,0E0,1.4720423E1,0E0,3.5160645E1,1.1635676E1,0E0,0E0,0E0,0E0,1.2617313E2,2.8690765E1,4.8321358E1,3.6124268E0,0E0,8.269411E0,0E0,0E0,0E0,0E0,0E0,0E0,0E0,0E0,0E0,0E0,0E0,0E0,0E0,0E0,0E0,0E0],"parents":[2147483647,0,0,1,1,2,2,3,3,4,4,5,5,6,6,7,7,8,8,9,9,10,10,11,11,12,12,13,13,15,15,17,17,18,18,23,23,24,24,25,25,26,26,28,28],"right_children":[2,4,6,8,10,12,14,16,18,20,22,24,26,28,-1,30,-1,32,34,-1,-1,-1,-1,36,38,40,42,-1,44,-1,-1,-1,-1,-1,-1,-1,-1,-1,-1,-1,-1,-1,-1,-1,-1],"split_conditions":[1.26E2,1.515E1,1.392E1,1.1E1,2.2E-3,2.56E-1,3.28E2,7.009E-4,3.88511E3,1.0859E4,7.144E1,9.8163E2,4.5E-1,8.262813E1,-7.6863025E-3,1.14E0,-1.3028632E-1,6.7E-1,7.97E-2,8.5538976E-2,-9.8823495E-2,-1.372177E-1,-9.866643E-3,1.1E-1,2.5E-1,4.422E0,1.804E3,-1.3739455E-1,2.3E1,-9.786396E-2,5.7702404E-2,-3.7207555E-2,1.2818377E-1,5.7489224E-2,-9.231749E-2,1.0192579E-1,1.884484E-3,-3.1087795E-2,-1.2169567E-1,-1.24535166E-1,2.9630184E-3,-1.3162933E-1,9.3597425E-3,5.012649E-2,-1.2411569E-1],"split_indices":[24,15,15,22,10,10,24,1,19,12,7,19,10,33,0,15,0,15,10,0,0,0,0,10,6,9,13,0,15,0,0,0,0,0,0,0,0,0,0,0,0,0,0,0,0],"split_type":[0,0,0,0,0,0,0,0,0,0,0,0,0,0,0,0,0,0,0,0,0,0,0,0,0,0,0,0,0,0,0,0,0,0,0,0,0,0,0,0,0,0,0,0,0],"sum_hessian":[1.5828558E3,6.301997E2,9.5265607E2,5.771405E2,5.3059254E1,6.645274E2,2.881287E2,2.309131E1,5.540492E2,3.5393615E0,4.9519894E1,4.313956E2,2.3313179E2,2.8683755E2,1.2911558E0,1.4217753E1,8.873556E0,5.424865E2,1.1562654E1,1.0948702E0,2.4444911E0,4.8226383E1,1.2935103E0,3.2320288E2,1.0819272E2,8.173851E1,1.5139328E2,2.7696347E2,9.8740835E0,5.4947743E0,8.72298E0,7.950058E0,5.3453644E2,5.037367E0,6.525286E0,1.5046992E2,1.7273296E2,3.2843597E1,7.534912E1,5.2192608E1,2.9545898E1,1.503505E2,1.0427908E0,1.5668987E0,8.307185E0],"tree_param":{"num_deleted":"0","num_feature":"35","num_nodes":"45","size_leaf_vector":"1"}},{"base_weights":[-3.253738E-2,1.0493913E0,-8.026158E-1,1.3117093E0,-1.4230072E0,-4.455098E-1,-1.6019946E0,-9.6938694E-1,1.4138783E0,-1.5654973E0,-2.2640057E-1,5.7851534E-2,-1.4174986E0,1.5255998E-2,-1.6092823E0,-3.4159178E-1,-1.2708999E-1,-4.9189088E-1,1.4564347E0,-1.0296708E-2,-1.5959675E0,-1.00052014E-1,6.289608E-1,-1.2389975E0,5.739741E-1,-8.7586915E-1,-1.5261209E0,-2.6899695E-2,-1.2929335E-1,-1.1775043E-1,4.248667E-2,5.5908788E-2,-1.373024E-1,1.2013351E-1,-7.345377E-3,-1.3026454E-1,-3.2943476E-2,-2.358663E-2,8.981923E-2,-3.346201E-2,-1.1503722E-1,4.1009416E-3,9.450497E-2,-1.1729903E-1,-2.705627E-2,3.6730834E-3,-1.2300131E-1],"categories":[],"categories_nodes":[],"categories_segments":[],"categories_sizes":[],"default_left":[0,0,0,0,0,0,0,0,0,0,0,0,0,0,0,0,0,0,0,0,0,0,0,0,0,0,0,0,0,0,0,0,0,0,0,0,0,0,0,0,0,0,0,0,0,0,0],"id":3,"left_children":[1,3,5,7,9,11,13,15,17,19,21,23,25,-1,27,29,-1,31,33,-1,35,-1,37,39,41,43,45,-1,-1,-1,-1,-1,-1,-1,-1,-1,-1,-1,-1,-1,-1,-1,-1,-1,-1,-1,-1],"loss_changes":[1.2947911E3,4.20963E2,2.5844183E2,1.3764752E2,1.0296005E1,3.0777814E2,3.9642334E0,9.432974E0,4.6140137E1,2.230835E0,7.634E0,2.7867947E2,1.1289337E1,0E0,1.901123E0,1.4606848E1,0E0,2.0125021E1,3.8523315E1,0E0,1.4129486E0,0E0,2.5772772E0,1.8756317E1,9.446357E1,1.1628468E1,3.2487488E0,0E0,0E0,0E0,0E0,0E0,0E0,0E0,0E0,0E0,0E0,0E0,0E0,0E0,0E0,0E0,0E0,0E0,0E0,0E0,0E0],"parents":[2147483647,0,0,1,1,2,2,3,3,4,4,5,5,6,6,7,7,8,8,9,9,10,10,11,11,12,12,14,14,15,15,17,17,18,18,20,20,22,22,23,23,24,24,25,25,26,26],"right_children":[2,4,6,8,10,12,14,16,18,20,22,24,26,-1,28,30,-1,32,34,-1,36,-1,38,40,42,44,46,-1,-1,-1,-1,-1,-1,-1,-1,-1,-1,-1,-1,-1,-1,-1,-1,-1,-1,-1,-1],"split_conditions":[1.35E2,1.454E1,1.24E1,1.1E1,1.6429335E1,2.8E-1,1.3112833E2,3.414205E1,8.0627704E-1,1.315598E2,-3.66E1,2.5212455E0,3.57E-1,1.5255998E-2,1.37E2,1.14E0,-1.2708999E-1,7.38E-2,4.31E-1,-1.0296708E-2,7.144E1,-1.00052014E-1,-1.36E2,5.349E3,5.105E2,5.9965334E0,1.7E2,-2.6899695E-2,-1.2929335E-1,-1.1775043E-1,4.248667E-2,5.5908788E-2,-1.373024E-1,1.2013351E-1,-7.345377E-3,-1.3026454E-1,-3.2943476E-2,-2.358663E-2,8.981923E-2,-3.346201E-2,-1.1503722E-1,4.1009416E-3,9.450497E-2,-1.1729903E-1,-2.705627E-2,3.6730834E-3,-1.2300131E-1],"split_indices":[24,15,15,22,34,10,3,0,0,3,14,0,10,0,24,15,0,10,10,0,7,0,25,23,12,0,18,0,0,0,0,0,0,0,0,0,0,0,0,0,0,0,0,0,0,0,0],"split_type":[0,0,0,0,0,0,0,0,0,0,0,0,0,0,0,0,0,0,0,0,0,0,0,0,0,0,0,0,0,0,0,0,0,0,0,0,0,0,0,0,0,0,0,0,0,0,0],"sum_hessian":[1.5520433E3,6.4520044E2,9.0684283E2,5.8373627E2,6.1464165E1,6.278991E2,2.7894373E2,2.4660494E1,5.590758E2,5.4648434E1,6.8157315E0,4.142915E2,2.136076E2,1.0274732E0,2.7791623E2,1.30161295E1,1.1644365E1,1.1981022E1,5.470948E2,1.2433581E0,5.3405075E1,2.891356E0,3.9243755E0,1.1754311E2,2.967484E2,3.719642E1,1.7641118E2,1.7630069E0,2.7615323E2,5.3718634E0,7.644266E0,6.2915454E0,5.6894765E0,5.315936E2,1.5501135E1,5.1620293E1,1.7847816E0,1.5073106E0,2.417065E0,2.3541008E1,9.4002106E1,1.6006825E2,1.3668015E2,1.6906103E1,2.0290316E1,1.2477785E0,1.751634E2],"tree_param":{"num_deleted":"0","num_feature":"35","num_nodes":"47","size_leaf_vector":"1"}},{"base_weights":[1.6078673E-2,1.0124139E0,-6.9566244E-1,1.274926E0,-1.3207606E0,-3.4364942E-1,-1.5077415E0,1.4061415E0,-2.2174072E-1,-4.5228246E-1,-1.5152979E0,1.7450213E-1,-1.1999662E0,-1.514816E0,-5.047725E-4,3.0299002E-1,1.474764E0,-1.4852628E0,1.2599753E-1,-1.1666337E0,1.0986479E-1,1.0982988E-2,-1.24066964E-1,-4.1953963E-1,1.1460454E0,-6.191175E-1,-1.3760246E0,-1.5221976E0,-4.874884E-1,7.2895244E-2,-9.097494E-2,-1.987017E-2,1.19692326E-1,-1.3100855E-1,-3.4963128E-3,4.7570482E-2,-9.494101E-2,-1.2084914E-1,2.242552E-3,3.1482913E-2,-1.1163978E-1,-8.982775E-2,9.7708024E-2,-1.1273075E-1,7.5278706E-3,-9.147757E-2,-1.22202575E-1,-3.4544576E-2,-1.2230594E-1,5.5969185E-3,-6.707664E-2],"categories":[],"categories_nodes":[],"categories_segments":[],"categories_sizes":[],"default_left":[0,0,0,0,0,0,0,0,0,0,0,0,0,0,0,0,0,0,0,0,0,0,0,0,0,0,0,0,0,0,0,0,0,0,0,0,0,0,0,0,0,0,0,0,0,0,0,0,0,0,0],"id":4,"left_children":[1,3,5,7,9,11,13,15,17,19,21,23,25,27,-1,29,31,33,35,37,-1,-1,-1,39,41,43,45,47,49,-1,-1,-1,-1,-1,-1,-1,-1,-1,-1,-1,-1,-1,-1,-1,-1,-1,-1,-1,-1,-1,-1],"loss_changes":[1.084248E3,3.919024E2,2.544365E2,1.12876465E2,1.0283707E1,2.76847E2,2.8520508E0,3.945642E1,2.0866367E1,1.895591E1,3.3031921E0,2.2516568E2,2.3197052E1,1.2912598E0,0E0,2.9177662E1,1.865271E1,2.1763172E0,2.3978477E1,4.1949463E0,0E0,0E0,0E0,1.9283897E2,2.6656174E1,3.1978037E1,4.5830383E0,1.2600708E0,7.207285E-1,0E0,0E0,0E0,0E0,0E0,0E0,0E0,0E0,0E0,0E0,0E0,0E0,0E0,0E0,0E0,0E0,0E0,0E0,0E0,0E0,0E0,0E0],"parents":[2147483647,0,0,1,1,2,2,3,3,4,4,5,5,6,6,7,7,8,8,9,9,10,10,11,11,12,12,13,13,15,15,16,16,17,17,18,18,19,19,23,23,24,24,25,25,26,26,27,27,28,28],"right_children":[2,4,6,8,10,12,14,16,18,20,22,24,26,28,-1,30,32,34,36,38,-1,-1,-1,40,42,44,46,48,50,-1,-1,-1,-1,-1,-1,-1,-1,-1,-1,-1,-1,-1,-1,-1,-1,-1,-1,-1,-1,-1,-1],"split_conditions":[1.35E2,1.392E1,1.24E1,3.15E-1,1.782E1,2.28E-1,3.28E2,1.5833349E0,1.16E0,5.772E3,3.9E1,2.379E-5,3.24E-1,-1.5E0,-5.047725E-4,8.78E-2,3.616E0,1.331E0,2.773E-3,9.8E-2,1.0986479E-1,1.0982988E-2,-1.24066964E-1,1.05E-1,7.178516E0,5.9965334E0,6.21E-1,1.37E2,4.32085E0,7.2895244E-2,-9.097494E-2,-1.987017E-2,1.19692326E-1,-1.3100855E-1,-3.4963128E-3,4.7570482E-2,-9.494101E-2,-1.2084914E-1,2.242552E-3,3.1482913E-2,-1.1163978E-1,-8.982775E-2,9.7708024E-2,-1.1273075E-1,7.5278706E-3,-9.147757E-2,-1.22202575E-1,-3.4544576E-2,-1.2230594E-1,5.5969185E-3,-6.707664E-2],"split_indices":[24,15,15,10,15,10,24,0,15,23,24,1,10,14,0,10,26,29,1,27,0,0,0,10,34,0,10,24,0,0,0,0,0,0,0,0,0,0,0,0,0,0,0,0,0,0,0,0,0,0,0],"split_type":[0,0,0,0,0,0,0,0,0,0,0,0,0,0,0,0,0,0,0,0,0,0,0,0,0,0,0,0,0,0,0,0,0,0,0,0,0,0,0,0,0,0,0,0,0,0,0,0,0,0,0],"sum_hessian":[1.5269844E3,6.361056E2,8.9087885E2,5.721814E2,6.3924175E1,6.224763E2,2.684025E2,5.261163E2,4.6065098E1,1.2306931E1,5.1617245E1,3.8830923E2,2.341671E2,2.6713486E2,1.2676363E0,3.1128033E1,4.9498825E2,9.235672E0,3.6829426E1,9.105083E0,3.2018478E0,1.0263956E0,5.059085E1,2.4132271E2,1.4698653E2,5.55184E1,1.786487E2,2.647509E2,2.38398E0,2.2143799E1,8.984234E0,5.9390416E0,4.8904922E2,8.229934E0,1.0057385E0,2.7543789E1,9.285635E0,6.864204E0,2.240879E0,1.3197246E2,1.0935026E2,4.274922E0,1.427116E2,2.5878017E1,2.9640379E1,7.384635E1,1.04802345E2,1.9989295E0,2.6275195E2,1.2303926E0,1.1535875E0],"tree_param":{"num_deleted":"0","num_feature":"35","num_nodes":"51","size_leaf_vector":"1"}},{"base_weights":[1.2188618E-3,9.628546E-1,-6.646181E-1,1.208018E0,-1.1889114E0,-3.371589E-1,-1.4414688E0,-7.587641E-1,1.3047429E0,8.485662E-2,-1.2648767E0,1.5171835E-1,-1.123961E0,1.6926542E-2,-1.4487985E0,-2.5368333E-1,-1.2544218E-1,-1.0645108E0,1.3307024E0,-1.3644881E0,-4.379995E-1,-1.2448475E0,5.500824E-1,-6.511425E-1,-1.3442003E0,-1.1770255E-1,-7.2472626E-1,-8.4383704E-2,5.6260098E-2,-1.289073E-1,6.702894E-2,1.09367065E-1,5.5649667E-3,3.3577287E-3,-1.13060616E-1,3.1714804E-2,-9.639761E-2,-1.3232438E-1,-6.504875E-2,-1.3445271E-2,8.783887E-2,-1.0654308E-1,-8.100205E-3,-1.08466566E-1,2.0257039E-2,8.011134E-2,-8.81235E-2],"categories":[],"categories_nodes":[],"categories_segments":[],"categories_sizes":[],"default_left":[0,0,0,0,0,0,0,0,0,0,0,0,0,0,0,0,0,0,0,0,0,0,0,0,0,0,0,0,0,0,0,0,0,0,0,0,0,0,0,0,0,0,0,0,0,0,0],"id":5,"left_children":[1,3,5,7,9,11,13,15,17,-1,19,21,23,-1,25,27,-1,29,31,33,35,37,39,41,43,-1,45,-1,-1,-1,-1,-1,-1,-1,-1,-1,-1,-1,-1,-1,-1,-1,-1,-1,-1,-1,-1],"loss_changes":[9.512904E2,3.2209186E2,2.2283362E2,1.04890625E2,1.2052399E1,2.3821655E2,3.4569092E0,1.0324875E1,3.3455994E1,0E0,4.4336166E0,2.1352928E2,2.3834045E1,0E0,3.1499023E0,1.4038873E1,0E0,7.801273E0,2.3570618E1,3.766304E0,5.623307E0,1.3710129E1,1.17583374E2,2.88135E1,3.3337708E0,0E0,7.458102E0,0E0,0E0,0E0,0E0,0E0,0E0,0E0,0E0,0E0,0E0,0E0,0E0,0E0,0E0,0E0,0E0,0E0,0E0,0E0,0E0],"parents":[2147483647,0,0,1,1,2,2,3,3,4,4,5,5,6,6,7,7,8,8,10,10,11,11,12,12,14,14,15,15,17,17,18,18,19,19,20,20,21,21,22,22,23,23,24,24,26,26],"right_children":[2,4,6,8,10,12,14,16,18,-1,20,22,24,-1,26,28,-1,30,32,34,36,38,40,42,44,-1,46,-1,-1,-1,-1,-1,-1,-1,-1,-1,-1,-1,-1,-1,-1,-1,-1,-1,-1,-1,-1],"split_conditions":[1.35E2,1.392E1,1.24E1,1.12E1,1.3112833E2,2.13E-1,1.3112833E2,1.383E0,5.8E-1,8.485662E-2,1.6429335E1,1.8066314E0,3.57E-1,1.6926542E-2,8.262813E1,9E-2,-1.2544218E-1,1.7804056E1,4.31E-1,1.454E1,2.85E1,1.606E2,-3.4E-1,5.9965334E0,1.254E3,-1.1770255E-1,1.365E-1,-8.4383704E-2,5.6260098E-2,-1.289073E-1,6.702894E-2,1.09367065E-1,5.5649667E-3,3.3577287E-3,-1.13060616E-1,3.1714804E-2,-9.639761E-2,-1.3232438E-1,-6.504875E-2,-1.3445271E-2,8.783887E-2,-1.0654308E-1,-8.100205E-3,-1.08466566E-1,2.0257039E-2,8.011134E-2,-8.81235E-2],"split_indices":[24,15,15,22,3,10,3,29,15,0,34,0,10,0,33,30,0,34,10,15,13,12,17,0,13,0,6,0,0,0,0,0,0,0,0,0,0,0,0,0,0,0,0,0,0,0,0],"split_type":[0,0,0,0,0,0,0,0,0,0,0,0,0,0,0,0,0,0,0,0,0,0,0,0,0,0,0,0,0,0,0,0,0,0,0,0,0,0,0,0,0,0,0,0,0,0,0],"sum_hessian":[1.4837125E3,6.068388E2,8.768737E2,5.451637E2,6.167509E1,6.178646E2,2.5900912E2,2.5233236E1,5.199305E2,1.5911798E0,6.008391E1,3.8157886E2,2.3628577E2,1.0203855E0,2.5798874E2,1.6345245E1,8.887991E0,5.201429E0,5.1472906E2,5.304372E1,7.0401897E0,8.421543E1,2.973634E2,7.6343994E1,1.5994177E2,2.4921828E2,8.770477E0,8.841325E0,7.503921E0,4.15894E0,1.0424893E0,5.0021307E2,1.4515976E1,1.7823417E0,5.126138E1,3.6031818E0,3.4370077E0,4.1782368E1,4.243306E1,1.2898865E2,1.6837477E2,3.3480446E1,4.286355E1,1.5893568E2,1.0060803E0,1.2745492E0,7.4959283E0],"tree_param":{"num_deleted":"0","num_feature":"35","num_nodes":"47","size_leaf_vector":"1"}},{"base_weights":[-1.6964786E-2,9.331035E-1,-6.310154E-1,1.1451398E0,-1.2802519E0,-3.1683367E-1,-1.3869312E0,1.2422789E0,-6.567331E-1,1.2039259E-2,-1.3132354E0,6.144095E-1,-7.2404426E-1,-3.8817766E-1,-1.4011283E0,1.291105E0,-4.009163E-1,-1.2878989E-1,1.0474184E-2,-1.3481113E0,-1.0104982E-2,1.1638992E0,-7.0480436E-1,-3.7381953E-1,-1.3918303E0,5.540783E-2,-8.579562E-2,-1.4158536E0,-8.354744E-1,-2.5309164E-2,1.05593994E-1,2.1311572E-2,-1.1238699E-1,5.197733E-2,-9.733297E-2,-4.807648E-2,-1.13849446E-1,1.0707366E-1,-7.7230334E-2,-1.6141748E-2,-1.19161524E-1,7.02836E-2,-8.04296E-2,-7.951747E-2,-1.2804529E-1,-8.4155336E-2,-1.1464507E-1,4.390146E-2,-1.0048261E-1],"categories":[],"categories_nodes":[],"categories_segments":[],"categories_sizes":[],"default_left":[0,0,0,0,0,0,0,0,0,0,0,0,0,0,0,0,0,0,0,0,0,0,0,0,0,0,0,0,0,0,0,0,0,0,0,0,0,0,0,0,0,0,0,0,0,0,0,0,0],"id":6,"left_children":[1,3,5,7,9,11,13,15,17,-1,19,21,23,25,27,29,31,-1,33,35,-1,37,39,41,43,-1,-1,45,47,-1,-1,-1,-1,-1,-1,-1,-1,-1,-1,-1,-1,-1,-1,-1,-1,-1,-1,-1,-1],"loss_changes":[8.348359E2,2.6512558E2,2.0599081E2,9.0644775E1,2.5376663E0,2.3377292E2,3.070404E0,3.9614685E1,1.712772E1,0E0,1.8403625E0,1.3691103E2,9.970886E1,4.407782E0,9.0737915E-1,2.2352661E1,1.0306007E1,0E0,1.3985261E1,1.7833405E0,0E0,5.0682648E1,2.1736492E1,2.2431293E2,1.0622864E1,0E0,0E0,1.52282715E-2,5.8160343E0,0E0,0E0,0E0,0E0,0E0,0E0,0E0,0E0,0E0,0E0,0E0,0E0,0E0,0E0,0E0,0E0,0E0,0E0,0E0,0E0],"parents":[2147483647,0,0,1,1,2,2,3,3,4,4,5,5,6,6,7,7,8,8,10,10,11,11,12,12,13,13,14,14,15,15,16,16,18,18,19,19,21,21,22,22,23,23,24,24,27,27,28,28],"right_children":[2,4,6,8,10,12,14,16,18,-1,20,22,24,26,28,30,32,-1,34,36,-1,38,40,42,44,-1,-1,46,48,-1,-1,-1,-1,-1,-1,-1,-1,-1,-1,-1,-1,-1,-1,-1,-1,-1,-1,-1,-1],"split_conditions":[1.26E2,1.515E1,1.24E1,4.31E-1,3.9E1,1.1E-1,-4.04E2,1.957E3,5.269E3,1.2039259E-2,7.144E1,1.334E3,-2.43E-5,5.155E-1,8.262813E1,1.12E1,2.62E-1,-1.2878989E-1,-2.2E-1,1.782E1,-1.0104982E-2,9.08E-1,1.883E3,2.28E-1,4.631E-1,5.540783E-2,-8.579562E-2,-6.22E-1,2.3E1,-2.5309164E-2,1.05593994E-1,2.1311572E-2,-1.1238699E-1,5.197733E-2,-9.733297E-2,-4.807648E-2,-1.13849446E-1,1.0707366E-1,-7.7230334E-2,-1.6141748E-2,-1.19161524E-1,7.02836E-2,-8.04296E-2,-7.951747E-2,-1.2804529E-1,-8.4155336E-2,-1.1464507E-1,4.390146E-2,-1.0048261E-1],"split_indices":[24,15,15,10,24,10,25,18,23,0,7,18,2,6,33,22,30,0,17,15,0,6,18,10,6,0,0,8,15,0,0,0,0,0,0,0,0,0,0,0,0,0,0,0,0,0,0,0,0],"split_type":[0,0,0,0,0,0,0,0,0,0,0,0,0,0,0,0,0,0,0,0,0,0,0,0,0,0,0,0,0,0,0,0,0,0,0,0,0,0,0,0,0,0,0,0,0,0,0,0,0],"sum_hessian":[1.4289989E3,5.608005E2,8.681985E2,5.1221375E2,4.8586723E1,6.14297E2,2.5390146E2,4.8630743E2,2.5906298E1,1.0145712E0,4.757215E1,1.8673865E2,4.2755835E2,3.9557977E0,2.4994566E2,4.724823E2,1.3825135E1,1.0085614E1,1.5820683E1,4.608229E1,1.4898621E0,1.3191151E2,5.4827126E1,2.814893E2,1.4606908E2,1.5288544E0,2.4269433E0,2.4213913E2,7.8065295E0,8.146083E0,4.643362E2,8.746165E0,5.0789704E0,1.0711413E1,5.1092696E0,5.026317E0,4.1055973E1,1.2226201E2,9.649511E0,3.417607E1,2.0651056E1,9.42334E1,1.8725587E2,5.224639E1,9.382269E1,1.37392E1,2.2839993E2,1.7480552E0,6.058474E0],"tree_param":{"num_deleted":"0","num_feature":"35","num_nodes":"49","size_leaf_vector":"1"}},{"base_weights":[6.993525E-3,9.145926E-1,-5.897675E-1,1.1076576E0,-1.1534027E0,-2.5757122E-1,-1.3362806E0,-1.0618228E-1,1.2329972E0,-1.2537909E0,7.974182E-2,6.165738E-1,-6.2906474E-1,-8.5190266E-1,-1.37172E0,-1.1025393E0,3.9453596E-1,-1.1488253E0,1.2768762E0,-2.4112399E-1,-1.3301288E0,7.948061E-2,-7.340803E-2,-9.31565E-1,1.1277275E0,-2.6577052E-1,-1.3582001E0,-1.3579321E0,5.4432833E-1,-4.9804717E-1,-1.3792614E0,-1.09471425E-1,-1.3635503E-2,-1.2253239E-1,5.859713E-2,-1.1774041E-1,3.7161436E-2,-4.373319E-2,1.03666395E-1,8.316613E-2,-7.86597E-2,-1.1005846E-1,2.03091E-2,-8.478369E-2,3.170648E-2,9.84241E-2,-9.268757E-2,5.5448484E-2,-8.996562E-2,-8.308995E-2,-1.2503323E-1,-2.4885688E-2,-1.3341995E-1,-4.6687286E-2,8.0530174E-2,-6.8634264E-2,1.1497003E-2,-1.1157119E-1,-6.641886E-2],"categories":[],"categories_nodes":[],"categories_segments":[],"categories_sizes":[],"default_left":[0,0,0,0,0,0,0,0,0,0,0,0,0,0,0,0,0,0,0,0,0,0,0,0,0,0,0,0,0,0,0,0,0,0,0,0,0,0,0,0,0,0,0,0,0,0,0,0,0,0,0,0,0,0,0,0,0,0,0],"id":7,"left_children":[1,3,5,7,9,11,13,15,17,19,21,23,25,27,29,31,33,35,37,39,41,-1,-1,43,45,47,49,51,53,55,57,-1,-1,-1,-1,-1,-1,-1,-1,-1,-1,-1,-1,-1,-1,-1,-1,-1,-1,-1,-1,-1,-1,-1,-1,-1,-1,-1,-1],"loss_changes":[7.6723944E2,2.2563248E2,2.1159656E2,7.840198E1,6.100403E0,1.9285591E2,3.3452759E0,2.4916327E1,5.0210083E1,3.1488876E0,5.09388E0,1.4132661E2,1.09944885E2,1.52698145E1,9.166565E-1,3.8991203E0,2.285923E1,5.353345E0,1.6552979E1,5.173299E0,3.347992E0,0E0,0E0,8.00555E0,3.278421E1,2.3067978E2,7.420639E0,4.4699364E0,3.8124046E0,9.658449E-1,8.7475586E-1,0E0,0E0,0E0,0E0,0E0,0E0,0E0,0E0,0E0,0E0,0E0,0E0,0E0,0E0,0E0,0E0,0E0,0E0,0E0,0E0,0E0,0E0,0E0,0E0,0E0,0E0,0E0,0E0],"parents":[2147483647,0,0,1,1,2,2,3,3,4,4,5,5,6,6,7,7,8,8,9,9,10,10,11,11,12,12,13,13,14,14,15,15,16,16,17,17,18,18,19,19,20,20,23,23,24,24,25,25,26,26,27,27,28,28,29,29,30,30],"right_children":[2,4,6,8,10,12,14,16,18,20,22,24,26,28,30,32,34,36,38,40,42,-1,-1,44,46,48,50,52,54,56,58,-1,-1,-1,-1,-1,-1,-1,-1,-1,-1,-1,-1,-1,-1,-1,-1,-1,-1,-1,-1,-1,-1,-1,-1,-1,-1,-1,-1],"split_conditions":[1.26E2,1.515E1,9.09E0,-3.09E-1,1.69901E1,1.1E-1,1.392E1,1.18E1,-1.7227E3,2.2E-3,2.85E1,1.8514092E0,-2.19E-5,4.54E2,1.8E0,1.4867412E1,5.9965334E0,1.4327E1,5.8E-1,1.782E1,7.144E1,7.948061E-2,-7.340803E-2,1.5759E1,9.33E-1,3.15E-1,1.69E1,-2.08E-1,1.6E1,1.74E2,8.262813E1,-1.09471425E-1,-1.3635503E-2,-1.2253239E-1,5.859713E-2,-1.1774041E-1,3.7161436E-2,-4.373319E-2,1.03666395E-1,8.316613E-2,-7.86597E-2,-1.1005846E-1,2.03091E-2,-8.478369E-2,3.170648E-2,9.84241E-2,-9.268757E-2,5.5448484E-2,-8.996562E-2,-8.308995E-2,-1.2503323E-1,-2.4885688E-2,-1.3341995E-1,-4.6687286E-2,8.0530174E-2,-6.8634264E-2,1.1497003E-2,-1.1157119E-1,-6.641886E-2],"split_indices":[24,15,15,11,34,10,15,22,21,10,13,0,2,22,13,34,0,32,15,15,7,0,0,32,6,10,22,28,13,24,33,0,0,0,0,0,0,0,0,0,0,0,0,0,0,0,0,0,0,0,0,0,0,0,0,0,0,0,0],"split_type":[0,0,0,0,0,0,0,0,0,0,0,0,0,0,0,0,0,0,0,0,0,0,0,0,0,0,0,0,0,0,0,0,0,0,0,0,0,0,0,0,0,0,0,0,0,0,0,0,0,0,0,0,0,0,0,0,0,0,0],"sum_hessian":[1.4145688E3,5.6093066E2,8.536382E2,5.134593E2,4.7471394E1,5.91685E2,2.6195316E2,4.807121E1,4.6538806E2,4.388227E1,3.5891216E0,1.7626466E2,4.1542032E2,1.9566107E1,2.4238707E2,1.56761055E1,3.2395103E1,7.9629917E0,4.5742505E2,3.367614E0,4.051466E1,1.875047E0,1.7140747E0,4.354793E1,1.3271674E2,2.7818045E2,1.3723987E2,1.4381366E1,5.1847415E0,2.6480782E0,2.3973898E2,1.1832999E1,3.8431065E0,4.307853E0,2.808725E1,6.7080555E0,1.2549363E0,4.4191275E0,4.5300592E2,1.0884427E0,2.2791715E0,3.9508713E1,1.0059447E0,3.989708E1,3.6508496E0,1.27460236E2,5.2564983E0,1.315234E2,1.4665704E2,5.5958324E1,8.128155E1,3.7418466E0,1.063952E1,1.4310035E0,3.753738E0,1.4808316E0,1.1672466E0,2.3170845E2,8.030527E0],"tree_param":{"num_deleted":"0","num_feature":"35","num_nodes":"59","size_leaf_vector":"1"}},{"base_weights":[3.0090474E-2,-5.373248E-1,8.5955745E-1,-2.2353335E-1,-1.2995535E0,1.0382978E0,-1.0566397E0,-1.3061565E0,8.3557926E-2,-8.594911E-1,-1.3339052E0,1.2119522E0,3.3756223E-2,-1.5075256E-1,-1.2448375E0,-1.3433567E0,-1.4812426E-1,-9.325108E-1,3.966318E-1,4.6502915E-1,-1.2272005E0,-9.9857223E-1,-1.0822941E-1,1.71532E-1,1.2777126E0,-1.5729048E0,3.4888485E-1,8.138793E-1,-1.0822623E-1,1.7606713E-4,-1.284213E0,3.5337014E-3,-1.0962062E-1,-8.167925E-2,7.7816546E-2,-4.6894472E-2,-1.13617145E-1,4.8655707E-2,-9.153483E-2,-2.1453418E-2,7.276974E-2,-1.1956254E-1,-3.432988E-2,-1.01324335E-1,2.4906645E-2,3.9782353E-2,-1.3059096E-1,1.031709E-1,-1.3847359E-1,-2.9109815E-2,-1.3611174E-1,5.8178987E-2,-8.912475E-2,1.0760156E-1,-2.3637805E-2,-1.06189996E-1,-1.7987443E-2],"categories":[],"categories_nodes":[],"categories_segments":[],"categories_sizes":[],"default_left":[0,0,0,0,0,0,0,0,0,0,0,0,0,0,0,0,0,0,0,0,0,0,0,0,0,0,0,0,0,0,0,0,0,0,0,0,0,0,0,0,0,0,0,0,0,0,0,0,0,0,0,0,0,0,0,0,0],"id":8,"left_children":[1,3,5,7,9,11,13,15,17,19,21,23,25,27,29,31,33,35,37,39,41,43,-1,45,47,49,51,53,-1,-1,55,-1,-1,-1,-1,-1,-1,-1,-1,-1,-1,-1,-1,-1,-1,-1,-1,-1,-1,-1,-1,-1,-1,-1,-1,-1,-1],"loss_changes":[6.4283374E2,1.9370058E2,1.9111371E2,1.915246E2,2.4258728E0,8.8569214E1,7.9667473E0,5.284363E0,1.4334581E2,1.0273982E1,3.1402588E-2,2.9410278E1,3.8975746E1,1.1960649E1,1.9406738E0,4.6590576E0,5.9684963E0,1.7099823E1,1.12929886E2,1.8915129E0,2.7442684E0,5.8190775E0,0E0,1.66187E1,1.6838806E1,1.3425045E0,3.6384212E1,3.8267853E0,0E0,0E0,1.4509201E0,0E0,0E0,0E0,0E0,0E0,0E0,0E0,0E0,0E0,0E0,0E0,0E0,0E0,0E0,0E0,0E0,0E0,0E0,0E0,0E0,0E0,0E0,0E0,0E0,0E0,0E0],"parents":[2147483647,0,0,1,1,2,2,3,3,4,4,5,5,6,6,7,7,8,8,9,9,10,10,11,11,12,12,13,13,14,14,15,15,16,16,17,17,18,18,19,19,20,20,21,21,23,23,24,24,25,25,26,26,27,27,30,30],"right_children":[2,4,6,8,10,12,14,16,18,20,22,24,26,28,30,32,34,36,38,40,42,44,-1,46,48,50,52,54,-1,-1,56,-1,-1,-1,-1,-1,-1,-1,-1,-1,-1,-1,-1,-1,-1,-1,-1,-1,-1,-1,-1,-1,-1,-1,-1,-1,-1],"split_conditions":[-1.36E2,1.089E1,1.392E1,1.16E1,1.586E1,2.38E-1,1.88E1,-2.8E-2,2.249001E0,1.35E-4,-6.22E-1,1.4279665E0,5.629509E0,2.85E1,4.1E1,5E-3,1.09E1,2.4E0,1.5905846E2,-1.5E0,4.03E0,1.95E2,-1.0822941E-1,2.619E0,5.31E-1,-1.3E2,4.097E-3,2.03E-4,-1.0822623E-1,1.7606713E-4,7.144E1,3.5337014E-3,-1.0962062E-1,-8.167925E-2,7.7816546E-2,-4.6894472E-2,-1.13617145E-1,4.8655707E-2,-9.153483E-2,-2.1453418E-2,7.276974E-2,-1.1956254E-1,-3.432988E-2,-1.01324335E-1,2.4906645E-2,3.9782353E-2,-1.3059096E-1,1.031709E-1,-1.3847359E-1,-2.9109815E-2,-1.3611174E-1,5.8178987E-2,-8.912475E-2,1.0760156E-1,-2.3637805E-2,-1.06189996E-1,-1.7987443E-2],"split_indices":[25,15,15,22,15,10,15,28,0,4,8,0,0,13,24,7,22,9,0,17,16,24,0,9,7,25,1,4,0,0,7,0,0,0,0,0,0,0,0,0,0,0,0,0,0,0,0,0,0,0,0,0,0,0,0,0,0],"split_type":[0,0,0,0,0,0,0,0,0,0,0,0,0,0,0,0,0,0,0,0,0,0,0,0,0,0,0,0,0,0,0,0,0,0,0,0,0,0,0,0,0,0,0,0,0,0,0,0,0,0,0,0,0,0,0,0,0],"sum_hessian":[1.3638546E3,8.100644E2,5.537903E2,5.747477E2,2.353167E2,5.0695987E2,4.6830387E1,1.262856E2,4.4846207E2,1.892306E1,2.1639365E2,4.3206296E2,7.489693E1,8.365283E0,3.8465103E1,1.2220005E2,4.0855455E0,1.0516729E2,3.4329477E2,4.054336E0,1.4868724E1,1.4453778E1,2.0193987E2,2.5899857E1,4.0616312E2,1.1626864E1,6.3270058E1,4.82017E0,3.5451133E0,1.2062643E0,3.725884E1,2.3119116E0,1.1988814E2,2.3469193E0,1.7386264E0,6.2784462E1,4.2382828E1,3.023811E2,4.0913677E1,1.6802261E0,2.3741097E0,1.048418E1,4.384544E0,1.2026481E1,2.4272976E0,2.2551834E1,3.348023E0,4.0512888E2,1.0342366E0,1.4850746E0,1.014179E1,5.066879E1,1.260127E1,3.1158924E0,1.7042774E0,3.5557144E1,1.701693E0],"tree_param":{"num_deleted":"0","num_feature":"35","num_nodes":"57","size_leaf_vector":"1"}},{"base_weights":[-4.4169193E-3,8.3666044E-1,-5.432426E-1,1.0359492E0,-1.1063234E0,-2.72863E-1,-1.2396622E0,-6.5630835E-1,1.1167139E0,-2.2992156E-1,-1.22578E0,-6.569143E-1,5.712952E-1,-3.3867493E-1,-1.2675157E0,-1.5012276E-1,-1.0740115E-1,-1.1993619E0,1.14642E0,7.0183866E-2,-8.2658775E-2,-1.263555E0,-9.052192E-3,-1.2347457E0,-3.6451867E-1,1.0141901E0,-4.6280998E-1,9.200266E-1,-8.753484E-2,-1.114492E-2,-1.0206857E-1,-8.434956E-2,5.7276715E-2,2.6254954E-2,-1.2982708E-1,-3.0450901E-2,9.3985364E-2,-1.0109239E-2,-1.03685014E-1,-7.230211E-2,-1.1745596E-1,-6.894399E-2,6.026485E-2,9.5342755E-2,-6.7372866E-2,3.235288E-2,-6.82207E-2,2.1023724E-2,1.02308035E-1],"categories":[],"categories_nodes":[],"categories_segments":[],"categories_sizes":[],"default_left":[0,0,0,0,0,0,0,0,0,0,0,0,0,0,0,0,0,0,0,0,0,0,0,0,0,0,0,0,0,0,0,0,0,0,0,0,0,0,0,0,0,0,0,0,0,0,0,0,0],"id":9,"left_children":[1,3,5,7,9,11,13,15,17,19,21,23,25,27,29,31,-1,33,35,-1,-1,37,-1,39,41,43,45,47,-1,-1,-1,-1,-1,-1,-1,-1,-1,-1,-1,-1,-1,-1,-1,-1,-1,-1,-1,-1,-1],"loss_changes":[5.953811E2,1.9978494E2,1.5044052E2,6.439438E1,4.764927E0,1.877917E2,5.1836243E0,7.387109E0,3.1987549E1,7.144418E0,1.630352E0,6.675871E1,8.350411E1,8.682428E0,1.8605652E0,1.1483131E1,0E0,4.493621E0,1.951941E1,0E0,0E0,1.3411102E0,0E0,8.96788E0,1.48263E2,4.2954346E1,1.8961576E1,5.0602174E-1,0E0,0E0,0E0,0E0,0E0,0E0,0E0,0E0,0E0,0E0,0E0,0E0,0E0,0E0,0E0,0E0,0E0,0E0,0E0,0E0,0E0],"parents":[2147483647,0,0,1,1,2,2,3,3,4,4,5,5,6,6,7,7,8,8,9,9,10,10,11,11,12,12,13,13,14,14,15,15,17,17,18,18,21,21,23,23,24,24,25,25,26,26,27,27],"right_children":[2,4,6,8,10,12,14,16,18,20,22,24,26,28,30,32,-1,34,36,-1,-1,38,-1,40,42,44,46,48,-1,-1,-1,-1,-1,-1,-1,-1,-1,-1,-1,-1,-1,-1,-1,-1,-1,-1,-1,-1,-1],"split_conditions":[1.25E2,1.392E1,1.167E1,1.1E1,8.2E0,-1.09E-1,1.365E-1,3.414205E1,6.5178436E-1,2.74E0,7.144E1,2.19E-5,1.324E3,-4.8E-2,1.3151616E2,1.606E2,-1.0740115E-1,8.35E-4,-1.7227E3,7.0183866E-2,-8.2658775E-2,1.11E-7,-9.052192E-3,1.83E1,-2.04E-1,9.08E-1,2.11E-1,1.57E2,-8.753484E-2,-1.114492E-2,-1.0206857E-1,-8.434956E-2,5.7276715E-2,2.6254954E-2,-1.2982708E-1,-3.0450901E-2,9.3985364E-2,-1.0109239E-2,-1.03685014E-1,-7.230211E-2,-1.1745596E-1,-6.894399E-2,6.026485E-2,9.5342755E-2,-6.7372866E-2,3.235288E-2,-6.82207E-2,2.1023724E-2,1.02308035E-1],"split_indices":[24,15,15,22,13,11,6,0,0,16,7,1,18,8,3,12,0,4,21,0,0,1,0,22,11,6,6,24,0,0,0,0,0,0,0,0,0,0,0,0,0,0,0,0,0,0,0,0,0],"split_type":[0,0,0,0,0,0,0,0,0,0,0,0,0,0,0,0,0,0,0,0,0,0,0,0,0,0,0,0,0,0,0,0,0,0,0,0,0,0,0,0,0,0,0,0,0,0,0,0,0],"sum_hessian":[1.3117413E3,5.1199396E2,7.997473E2,4.647882E2,4.720576E1,5.770888E2,2.2265852E2,2.0847425E1,4.439408E2,6.0133257E0,4.1192436E1,3.9679022E2,1.802986E2,7.071559E0,2.1558696E2,1.26988125E1,8.148613E0,5.1232657E0,4.388175E2,2.489671E0,3.5236547E0,3.970863E1,1.4838077E0,1.3223831E2,2.645519E2,1.2624755E2,5.4051052E1,2.5707924E0,4.5007668E0,1.712199E0,2.1387476E2,6.1061673E0,6.592645E0,1.1608626E0,3.962403E0,7.7848215E0,4.3103268E2,1.2393875E0,3.8469242E1,5.671057E1,7.552774E1,1.8325674E2,8.129515E1,1.1555095E2,1.0696597E1,1.6754045E1,3.7297005E1,1.5196851E0,1.0511074E0],"tree_param":{"num_deleted":"0","num_feature":"35","num_nodes":"49","size_leaf_vector":"1"}},{"base_weights":[-5.4724194E-4,7.9934186E-1,-5.054719E-1,9.798781E-1,-1.1240046E0,-2.1754755E-1,-1.1931298E0,-4.2784882E-1,1.0906487E0,-1.2385529E0,1.941274E-1,1.13523535E-1,-1.0732573E0,-1.2144465E0,-2.1570432E-1,-1.2298953E-1,-5.7877928E-2,1.1450816E0,-6.244231E-1,-1.0220157E-1,5.91202E-3,7.942629E-2,-6.589126E-2,-8.83046E-1,4.594281E-1,-8.5603327E-1,-1.051949E-1,-8.4764546E-1,-1.26332E0,6.760371E-1,-7.6729156E-2,3.574366E-2,-1.4195451E-1,-6.913832E-2,9.353171E-2,-9.250636E-2,3.6913984E-2,-9.452374E-2,-3.7459195E-2,-5.897012E-2,5.4171935E-2,-8.585941E-2,-9.422134E-3,3.1473182E-2,-1.0466739E-1,-5.161782E-2,-1.01921216E-1,9.509006E-2,-7.710637E-3],"categories":[],"categories_nodes":[],"categories_segments":[],"categories_sizes":[],"default_left":[0,0,0,0,0,0,0,0,0,0,0,0,0,0,0,0,0,0,0,0,0,0,0,0,0,0,0,0,0,0,0,0,0,0,0,0,0,0,0,0,0,0,0,0,0,0,0,0,0],"id":10,"left_children":[1,3,5,7,9,11,13,15,17,19,21,23,25,27,29,-1,31,33,35,-1,-1,-1,-1,37,39,41,-1,43,45,47,-1,-1,-1,-1,-1,-1,-1,-1,-1,-1,-1,-1,-1,-1,-1,-1,-1,-1,-1],"loss_changes":[5.0470312E2,1.690127E2,1.514145E2,6.948447E1,6.5761642E0,1.5344205E2,4.444031E0,1.3459381E1,3.9047333E1,2.0757408E0,4.2477064E0,1.3523268E2,6.805298E0,2.887909E0,4.650312E0,0E0,2.3135471E1,2.0270874E1,8.20248E0,0E0,0E0,0E0,0E0,1.1967377E1,7.630981E1,1.3091034E1,0E0,1.7097399E1,4.5263672E-1,1.4334613E0,0E0,0E0,0E0,0E0,0E0,0E0,0E0,0E0,0E0,0E0,0E0,0E0,0E0,0E0,0E0,0E0,0E0,0E0,0E0],"parents":[2147483647,0,0,1,1,2,2,3,3,4,4,5,5,6,6,7,7,8,8,9,9,10,10,11,11,12,12,13,13,14,14,16,16,17,17,18,18,23,23,24,24,25,25,27,27,28,28,29,29],"right_children":[2,4,6,8,10,12,14,16,18,20,22,24,26,28,30,-1,32,34,36,-1,-1,-1,-1,38,40,42,-1,44,46,48,-1,-1,-1,-1,-1,-1,-1,-1,-1,-1,-1,-1,-1,-1,-1,-1,-1,-1,-1],"split_conditions":[1.26E2,1.515E1,7.97E0,-1.05E-2,1.69901E1,3.15E-1,2.42E2,-2.773E-3,1.934E3,-6.3E-8,1.8576189E1,2.3116407E0,3.56E-1,1.586E1,8.1E-3,-1.2298953E-1,1.016E3,5.8E-1,-1.51E-1,-1.0220157E-1,5.91202E-3,7.942629E-2,-6.589126E-2,1.2414728E1,1.3749E1,6.053E3,-1.051949E-1,2.22E-2,-2.251E0,7.4738E3,-7.6729156E-2,3.574366E-2,-1.4195451E-1,-6.913832E-2,9.353171E-2,-9.250636E-2,3.6913984E-2,-9.452374E-2,-3.7459195E-2,-5.897012E-2,5.4171935E-2,-8.585941E-2,-9.422134E-3,3.1473182E-2,-1.0466739E-1,-5.161782E-2,-1.01921216E-1,9.509006E-2,-7.710637E-3],"split_indices":[24,15,15,5,34,10,24,2,18,2,34,0,30,15,10,0,18,15,8,0,0,0,0,34,32,23,0,10,31,12,0,0,0,0,0,0,0,0,0,0,0,0,0,0,0,0,0,0,0],"split_type":[0,0,0,0,0,0,0,0,0,0,0,0,0,0,0,0,0,0,0,0,0,0,0,0,0,0,0,0,0,0,0,0,0,0,0,0,0,0,0,0,0,0,0,0,0,0,0,0,0],"sum_hessian":[1.2476244E3,4.8256842E2,7.65056E2,4.4160718E2,4.0961243E1,5.401923E2,2.2486371E2,3.200532E1,4.0960187E2,3.7741776E1,3.2194657E0,3.901226E2,1.500697E2,2.19827E2,5.036711E0,7.2143984E0,2.4790924E1,3.9732394E2,1.2277921E1,3.6679382E1,1.0623931E0,1.8175969E0,1.4018688E0,1.0011966E2,2.9000293E2,8.142547E1,6.864423E1,2.8003244E1,1.9182375E2,2.331108E0,2.705603E0,1.9729952E1,5.060973E0,4.2891054E0,3.9303482E2,8.197458E0,4.080463E0,5.7147217E1,4.2972443E1,4.4277317E1,2.4572562E2,6.2564137E1,1.8861334E1,7.620529E0,2.0382715E1,4.3058863E0,1.8751787E2,1.0773382E0,1.25377E0],"tree_param":{"num_deleted":"0","num_feature":"35","num_nodes":"49","size_leaf_vector":"1"}},{"base_weights":[-2.3796264E-2,7.620952E-1,-5.069189E-1,-1.0070975E0,9.496488E-1,-2.4569997E-1,-1.2025967E0,-1.2460552E0,-2.0034577E-1,1.068394E0,-8.8940166E-2,5.091818E-1,-5.7748806E-1,-4.690943E-1,-1.2241075E0,6.1881035E-3,-1.0647486E-1,-8.936157E-1,7.184631E-1,1.1072925E0,-2.4068192E-1,-1.2370025E0,2.2209398E-1,8.825018E-1,-6.867845E-1,-1.2305682E0,-2.5629124E-1,-8.862993E-2,7.334385E-2,-1.790893E-2,-1.233075E0,2.4847822E-2,-1.0596675E-1,-1.5381295E-3,9.767291E-2,-3.2280516E-2,9.090207E-2,-7.45633E-2,5.408053E-2,-1.2343817E-1,2.4387028E-2,4.43683E-2,-8.295001E-2,8.1886835E-2,-1.0210757E-1,2.4351377E-2,-7.726287E-2,-1.1249322E-1,-7.484562E-2,4.2066894E-2,-8.036947E-2,-9.946334E-2,-4.8017137E-2],"categories":[],"categories_nodes":[],"categories_segments":[],"categories_sizes":[],"default_left":[0,0,0,0,0,0,0,0,0,0,0,0,0,0,0,0,0,0,0,0,0,0,0,0,0,0,0,0,0,0,0,0,0,0,0,0,0,0,0,0,0,0,0,0,0,0,0,0,0,0,0,0,0],"id":11,"left_children":[1,3,5,7,9,11,13,15,17,19,21,23,25,27,29,-1,-1,31,33,35,37,39,41,43,45,47,49,-1,-1,-1,51,-1,-1,-1,-1,-1,-1,-1,-1,-1,-1,-1,-1,-1,-1,-1,-1,-1,-1,-1,-1,-1,-1],"loss_changes":[4.5643423E2,1.5282257E2,1.349896E2,8.300835E0,5.1192627E1,1.3616518E2,2.6282349E0,3.925228E0,7.8571067E0,1.9203613E1,1.5784377E1,7.479552E1,7.883376E1,7.570305E0,1.4870911E0,0E0,0E0,3.9931455E0,2.0344226E0,1.6280792E1,7.951979E0,4.9101124E0,1.5236322E1,4.0010384E1,1.1380959E1,5.1144714E0,1.4930151E2,0E0,0E0,0E0,5.119934E-1,0E0,0E0,0E0,0E0,0E0,0E0,0E0,0E0,0E0,0E0,0E0,0E0,0E0,0E0,0E0,0E0,0E0,0E0,0E0,0E0,0E0,0E0],"parents":[2147483647,0,0,1,1,2,2,3,3,4,4,5,5,6,6,7,7,8,8,9,9,10,10,11,11,12,12,13,13,14,14,17,17,18,18,19,19,20,20,21,21,22,22,23,23,24,24,25,25,26,26,30,30],"right_children":[2,4,6,8,10,12,14,16,18,20,22,24,26,28,30,-1,-1,32,34,36,38,40,42,44,46,48,50,-1,-1,-1,52,-1,-1,-1,-1,-1,-1,-1,-1,-1,-1,-1,-1,-1,-1,-1,-1,-1,-1,-1,-1,-1,-1],"split_conditions":[1.26E2,-2.19E0,1.167E1,1.4327E1,2.98E-1,1.1E-1,1.365E-1,3.85E-5,-2.91E1,1.934E3,1.3501186E2,1.35914E3,2.269E-5,5.988E3,1.3151616E2,6.1881035E-3,-1.0647486E-1,1.87E0,8E1,6.7E-1,1.2414728E1,1.3974418E1,5.292E-3,9.33E-1,5.349E3,-1.4E-1,3.15E-1,-8.862993E-2,7.334385E-2,-1.790893E-2,3.931E0,2.4847822E-2,-1.0596675E-1,-1.5381295E-3,9.767291E-2,-3.2280516E-2,9.090207E-2,-7.45633E-2,5.408053E-2,-1.2343817E-1,2.4387028E-2,4.43683E-2,-8.295001E-2,8.1886835E-2,-1.0210757E-1,2.4351377E-2,-7.726287E-2,-1.1249322E-1,-7.484562E-2,4.2066894E-2,-8.036947E-2,-9.946334E-2,-4.8017137E-2],"split_indices":[24,17,15,32,10,10,6,4,14,18,3,19,1,23,3,0,0,16,24,15,34,34,1,6,23,17,10,0,0,0,29,0,0,0,0,0,0,0,0,0,0,0,0,0,0,0,0,0,0,0,0,0,0],"split_type":[0,0,0,0,0,0,0,0,0,0,0,0,0,0,0,0,0,0,0,0,0,0,0,0,0,0,0,0,0,0,0,0,0,0,0,0,0,0,0,0,0,0,0,0,0,0,0,0,0,0,0,0,0],"sum_hessian":[1.2001312E3,4.566786E2,7.434527E2,4.335368E1,4.1332492E2,5.414847E2,2.01968E2,3.3026722E1,1.0326961E1,3.7089108E2,4.2433853E1,1.6516588E2,3.763188E2,6.4039936E0,1.9556401E2,1.995941E0,3.1030779E1,5.901508E0,4.4254527E0,3.6033795E2,1.0553109E1,8.410964E0,3.402289E1,1.2607405E2,3.909182E1,1.23130325E2,2.5318848E2,4.520862E0,1.8831313E0,1.9684212E0,1.935956E2,1.6290145E0,4.2724934E0,2.1826463E0,2.2428064E0,6.539425E0,3.5379852E2,6.0063896E0,4.54672E0,7.0176005E0,1.3933638E0,2.7357027E1,6.665862E0,1.18833954E2,7.2401013E0,8.566736E0,3.0525084E1,7.482449E1,4.8305832E1,1.2394376E2,1.292447E2,1.8957063E2,4.024958E0],"tree_param":{"num_deleted":"0","num_feature":"35","num_nodes":"53","size_leaf_vector":"1"}},{"base_weights":[-2.0309852E-3,-4.7164837E-1,7.554009E-1,-2.0383376E-1,-1.1480469E0,8.823234E-1,-1.0637321E0,5.051351E-1,-5.0803924E-1,2.605818E-2,-1.1614529E0,1.0383306E0,-1.3480493E-1,-1.1613333E0,1.6419973E-2,-7.773497E-1,9.496011E-1,-1.939882E-1,-1.1747004E0,-7.959549E-1,-1.2106943E0,1.0682409E0,-1.0778701E-1,-1.0028313E0,3.1877726E-1,-9.7906455E-2,9.459825E-4,-7.4080735E-2,4.3579474E-2,8.055764E-2,-1.17932186E-1,4.128164E-2,-7.303702E-2,-1.12829395E-1,-7.363726E-2,1.8334072E-2,-8.774968E-2,-9.7683564E-2,5.2007083E-3,8.698911E-2,-7.843886E-2,-1.0410285E-1,1.7585238E-2,4.7700662E-2,-1.2217693E-1],"categories":[],"categories_nodes":[],"categories_segments":[],"categories_sizes":[],"default_left":[0,0,0,0,0,0,0,0,0,0,0,0,0,0,0,0,0,0,0,0,0,0,0,0,0,0,0,0,0,0,0,0,0,0,0,0,0,0,0,0,0,0,0,0,0],"id":12,"left_children":[1,3,5,7,9,11,13,15,17,-1,19,21,23,25,-1,27,29,31,33,35,37,39,-1,41,43,-1,-1,-1,-1,-1,-1,-1,-1,-1,-1,-1,-1,-1,-1,-1,-1,-1,-1,-1,-1],"loss_changes":[4.1527783E2,1.3031325E2,1.0410475E2,1.1186055E2,4.412628E0,6.6503784E1,3.9038582E0,8.958833E1,7.568774E1,0E0,2.6820984E0,2.7321991E1,2.2565758E1,2.0404167E0,0E0,8.497131E0,1.7642693E1,1.26907455E2,5.6468964E0,8.571001E0,2.4111633E0,1.5122772E1,0E0,7.450203E0,2.030819E1,0E0,0E0,0E0,0E0,0E0,0E0,0E0,0E0,0E0,0E0,0E0,0E0,0E0,0E0,0E0,0E0,0E0,0E0,0E0,0E0],"parents":[2147483647,0,0,1,1,2,2,3,3,4,4,5,5,6,6,7,7,8,8,10,10,11,11,12,12,13,13,15,15,16,16,17,17,18,18,19,19,20,20,21,21,23,23,24,24],"right_children":[2,4,6,8,10,12,14,16,18,-1,20,22,24,26,-1,28,30,32,34,36,38,40,-1,42,44,-1,-1,-1,-1,-1,-1,-1,-1,-1,-1,-1,-1,-1,-1,-1,-1,-1,-1,-1,-1],"split_conditions":[-1.36E2,9.09E0,2.6E0,1.1E-1,1.3112833E2,2.56E-1,1.7509169E1,-3.3057E2,-2.19E-5,2.605818E-2,1.586E1,3.1644E3,6.3E-2,7.144E1,1.6419973E-2,1.5715E1,1.243E1,3.15E-1,3.48E-3,1.49E-4,2.068E0,1.56E2,-1.0778701E-1,1.7714134E1,1.131E3,-9.7906455E-2,9.459825E-4,-7.4080735E-2,4.3579474E-2,8.055764E-2,-1.17932186E-1,4.128164E-2,-7.303702E-2,-1.12829395E-1,-7.363726E-2,1.8334072E-2,-8.774968E-2,-9.7683564E-2,5.2007083E-3,8.698911E-2,-7.843886E-2,-1.0410285E-1,1.7585238E-2,4.7700662E-2,-1.2217693E-1],"split_indices":[25,15,16,10,3,10,34,21,2,0,15,20,27,7,0,32,9,10,4,4,30,13,0,34,18,0,0,0,0,0,0,0,0,0,0,0,0,0,0,0,0,0,0,0,0],"split_type":[0,0,0,0,0,0,0,0,0,0,0,0,0,0,0,0,0,0,0,0,0,0,0,0,0,0,0,0,0,0,0,0,0,0,0,0,0,0,0,0,0,0,0,0,0],"sum_hessian":[1.1654825E3,7.1966095E2,4.4582162E2,5.164701E2,2.0319089E2,4.1722635E2,2.8595278E1,1.5487177E2,3.615983E2,1.6216444E0,2.0156924E2,3.6172427E2,5.550209E1,2.6631779E1,1.9635E0,3.9666645E1,1.15205124E2,2.4668214E2,1.1491617E2,2.596988E1,1.7559937E2,3.5779068E2,3.9335914E0,1.8632984E1,3.6869106E1,2.524378E1,1.3879989E0,3.592656E1,3.740086E0,1.1311233E2,2.0927916E0,1.2425698E2,1.2242517E2,5.727583E1,5.7640335E1,5.947374E0,2.0022507E1,1.7422862E2,1.3707381E0,3.549468E2,2.8438551E0,1.4925319E1,3.7076657E0,3.2639828E1,4.2292795E0],"tree_param":{"num_deleted":"0","num_feature":"35","num_nodes":"45","size_leaf_vector":"1"}},{"base_weights":[4.3094824E-3,7.3257893E-1,-4.2446738E-1,9.0641314E-1,-9.4876957E-1,-1.4509574E-1,-1.0971085E0,-7.294388E-1,9.8933613E-1,1.07181996E-1,-1.0415224E0,-1.0938203E0,1.1396562E-1,-8.128321E-1,-1.1984621E0,-2.4566506E-1,-1.0374362E-1,1.0344677E0,-3.211592E-1,7.953636E-2,-6.2125705E-2,-1.1062238E0,8.007914E-3,-1.1262258E0,8.0161504E-2,-7.3239756E-1,3.4012434E-1,1.8766184E-1,-1.1197579E0,-9.681416E-2,1.5349623E-2,-8.077791E-2,3.486266E-2,-1.2300186E-1,8.431778E-2,-7.674832E-2,4.9571224E-2,1.8793933E-2,-9.276841E-2,2.9342407E-2,-9.233258E-2,-8.9138545E-2,-8.1239855E-3,3.956007E-2,-7.5707875E-2,8.283247E-2,-4.1353505E-2,-6.649153E-2,-1.2903261E-1],"categories":[],"categories_nodes":[],"categories_segments":[],"categories_sizes":[],"default_left":[0,0,0,0,0,0,0,0,0,0,0,0,0,0,0,0,0,0,0,0,0,0,0,0,0,0,0,0,0,0,0,0,0,0,0,0,0,0,0,0,0,0,0,0,0,0,0,0,0],"id":13,"left_children":[1,3,5,7,9,11,13,15,17,19,21,23,25,27,29,31,-1,33,35,-1,-1,37,-1,39,-1,41,43,45,47,-1,-1,-1,-1,-1,-1,-1,-1,-1,-1,-1,-1,-1,-1,-1,-1,-1,-1,-1,-1],"loss_changes":[3.521983E2,1.2302173E2,1.3324661E2,5.2175537E1,3.9953423E0,1.2368784E2,5.023926E0,4.862299E0,2.1709381E1,3.9927554E0,2.8100662E0,8.458694E0,7.601285E1,1.7965942E1,2.697403E0,6.387115E0,0E0,1.916043E1,8.277411E0,0E0,0E0,2.7543335E0,0E0,4.8752594E0,0E0,2.0067951E1,6.2636738E1,9.154652E0,4.9776573E0,0E0,0E0,0E0,0E0,0E0,0E0,0E0,0E0,0E0,0E0,0E0,0E0,0E0,0E0,0E0,0E0,0E0,0E0,0E0,0E0],"parents":[2147483647,0,0,1,1,2,2,3,3,4,4,5,5,6,6,7,7,8,8,9,9,10,10,11,11,12,12,13,13,14,14,15,15,17,17,18,18,21,21,23,23,25,25,26,26,27,27,28,28],"right_children":[2,4,6,8,10,12,14,16,18,20,22,24,26,28,30,32,-1,34,36,-1,-1,38,-1,40,-1,42,44,46,48,-1,-1,-1,-1,-1,-1,-1,-1,-1,-1,-1,-1,-1,-1,-1,-1,-1,-1,-1,-1],"split_conditions":[1.24E2,1.392E1,6.54E0,1.12E1,2.2E-3,1.13E1,2.3E1,2.5273355E1,1.934E3,1.782E1,1.69901E1,1.254E3,1.9855866E0,2.22E-4,3.28E2,4.012538E0,-1.0374362E-1,-1.18E2,-2.04E-1,7.953636E-2,-6.2125705E-2,-4.34E0,8.007914E-3,5E-3,8.0161504E-2,-8.92E-2,1.5905846E2,-4.4E-2,-4.7E-2,-9.681416E-2,1.5349623E-2,-8.077791E-2,3.486266E-2,-1.2300186E-1,8.431778E-2,-7.674832E-2,4.9571224E-2,1.8793933E-2,-9.276841E-2,2.9342407E-2,-9.233258E-2,-8.9138545E-2,-8.1239855E-3,3.956007E-2,-7.5707875E-2,8.283247E-2,-4.1353505E-2,-6.649153E-2,-1.2903261E-1],"split_indices":[24,15,15,22,10,22,15,0,18,15,34,13,0,4,24,0,0,14,8,0,0,8,0,7,0,11,0,8,8,0,0,0,0,0,0,0,0,0,0,0,0,0,0,0,0,0,0,0,0],"split_type":[0,0,0,0,0,0,0,0,0,0,0,0,0,0,0,0,0,0,0,0,0,0,0,0,0,0,0,0,0,0,0,0,0,0,0,0,0,0,0,0,0,0,0,0,0,0,0,0,0],"sum_hessian":[1.1258866E3,4.1696716E2,7.089194E2,3.7831424E2,3.8652912E1,5.0174332E2,2.0717607E2,1.7875776E1,3.6043845E2,3.1084921E0,3.554442E1,1.0692917E2,3.9481415E2,5.682193E1,1.5035414E2,1.0422076E1,7.4536996E0,3.4864233E2,1.1796113E1,1.4890021E0,1.61949E0,3.366733E1,1.8770885E0,1.05756615E2,1.1725497E0,8.2781E1,3.1203317E2,1.3430558E1,4.3391373E1,1.4922633E2,1.1278116E0,4.686127E0,5.735949E0,2.038229E0,3.4660413E2,7.016632E0,4.779481E0,1.158575E0,3.2508755E1,1.7193915E0,1.04037224E2,5.1090885E1,3.1690111E1,2.7915073E2,3.288243E1,5.882846E0,7.547713E0,2.9066002E1,1.4325371E1],"tree_param":{"num_deleted":"0","num_feature":"35","num_nodes":"49","size_leaf_vector":"1"}},{"base_weights":[1.3891778E-2,-4.131922E-1,7.006515E-1,-1.7924568E-1,-1.1344899E0,8.338944E-1,-9.2894226E-1,-1.0806807E0,4.3517098E-2,-4.7252828E-1,-1.167376E0,-7.676047E-1,9.2229414E-1,-9.834155E-1,2.7555069E-2,2.5926244E-1,-1.1130108E0,3.055465E-1,-8.051555E-1,9.414903E-2,-8.5100543E-1,-5.904542E-1,-9.5336944E-2,-1.1373123E0,9.409276E-3,-2.5371017E-2,9.915544E-1,-1.0371912E0,8.477057E-3,-5.3375117E-2,8.613717E-2,6.1762026E-3,-9.119092E-2,3.6911342E-2,-8.007564E-2,-3.564183E-2,-9.841127E-2,2.2763835E-2,-8.398387E-2,-8.412114E-2,1.4014427E-2,1.5889639E-2,-1.01156354E-1,-8.6400494E-2,7.036226E-2,5.0343346E-2,-9.397544E-2,8.128481E-2,-1.0731429E-1,4.9388325E-3,-8.660611E-2],"categories":[],"categories_nodes":[],"categories_segments":[],"categories_sizes":[],"default_left":[0,0,0,0,0,0,0,0,0,0,0,0,0,0,0,0,0,0,0,0,0,0,0,0,0,0,0,0,0,0,0,0,0,0,0,0,0,0,0,0,0,0,0,0,0,0,0,0,0,0,0],"id":14,"left_children":[1,3,5,7,9,11,13,15,17,19,21,23,25,27,-1,29,31,33,35,-1,37,39,-1,41,43,45,47,49,-1,-1,-1,-1,-1,-1,-1,-1,-1,-1,-1,-1,-1,-1,-1,-1,-1,-1,-1,-1,-1,-1,-1],"loss_changes":[3.2311658E2,1.1441811E2,9.249075E1,1.03279526E2,3.0657501E0,5.60625E1,2.5861378E0,4.703209E0,9.212851E1,6.959747E0,1.5093384E0,6.043091E0,2.4375916E1,1.9452839E0,0E0,3.150874E0,3.2770233E0,6.489089E1,1.4391998E1,0E0,2.182177E0,3.1359515E0,0E0,2.6693783E0,8.307673E0,2.0484867E1,2.1130493E1,1.5605354E0,0E0,0E0,0E0,0E0,0E0,0E0,0E0,0E0,0E0,0E0,0E0,0E0,0E0,0E0,0E0,0E0,0E0,0E0,0E0,0E0,0E0,0E0,0E0],"parents":[2147483647,0,0,1,1,2,2,3,3,4,4,5,5,6,6,7,7,8,8,9,9,10,10,11,11,12,12,13,13,15,15,16,16,17,17,18,18,20,20,21,21,23,23,24,24,25,25,26,26,27,27],"right_children":[2,4,6,8,10,12,14,16,18,20,22,24,26,28,-1,30,32,34,36,-1,38,40,-1,42,44,46,48,50,-1,-1,-1,-1,-1,-1,-1,-1,-1,-1,-1,-1,-1,-1,-1,-1,-1,-1,-1,-1,-1,-1,-1],"split_conditions":[-1.36E2,1.392E1,1.454E1,1.16E1,-3.22E2,1.09E1,8.284839E1,6.14E-1,8.9196E2,2.3E1,1.586E1,7.65E2,1.4279665E0,1.2942E0,2.7555069E-2,1.03E1,5E-3,1.067E1,3.06626E3,9.414903E-2,3.643E0,1.131E3,-9.5336944E-2,5.4E-1,4.0951385E0,8.46E-2,6.82E-1,1.22E0,8.477057E-3,-5.3375117E-2,8.613717E-2,6.1762026E-3,-9.119092E-2,3.6911342E-2,-8.007564E-2,-3.564183E-2,-9.841127E-2,2.2763835E-2,-8.398387E-2,-8.412114E-2,1.4014427E-2,1.5889639E-2,-1.01156354E-1,-8.6400494E-2,7.036226E-2,5.0343346E-2,-9.397544E-2,8.128481E-2,-1.0731429E-1,4.9388325E-3,-8.660611E-2],"split_indices":[25,15,15,22,25,22,33,29,19,15,15,18,0,6,0,22,7,9,19,0,26,18,0,15,0,10,7,9,0,0,0,0,0,0,0,0,0,0,0,0,0,0,0,0,0,0,0,0,0,0,0],"split_type":[0,0,0,0,0,0,0,0,0,0,0,0,0,0,0,0,0,0,0,0,0,0,0,0,0,0,0,0,0,0,0,0,0,0,0,0,0,0,0,0,0,0,0,0,0,0,0,0,0,0,0],"sum_hessian":[1.0996565E3,6.78258E2,4.2139856E2,5.130902E2,1.6516777E2,3.8999878E2,3.1399755E1,1.0090704E2,4.1218317E2,8.544516E0,1.5662326E2,1.9999182E1,3.699996E2,3.0329998E1,1.069756E0,2.2119453E0,9.86951E1,3.1543268E2,9.67505E1,1.2010238E0,7.343492E0,7.361805E0,1.4926146E2,1.3237168E1,6.762014E0,2.5242905E1,3.447567E2,2.8948881E1,1.3811171E0,1.1230109E0,1.0889344E0,2.138033E0,9.655707E1,2.8239404E2,3.303862E1,5.3514008E1,4.3236492E1,1.0297773E0,6.3137145E0,4.36178E0,3.0000246E0,1.1014637E0,1.2135705E1,2.895519E0,3.8664947E0,1.6370567E1,8.872337E0,3.417316E2,3.025094E0,1.13387E0,2.7815012E1],"tree_param":{"num_deleted":"0","num_feature":"35","num_nodes":"51","size_leaf_vector":"1"}},{"base_weights":[3.3709407E-3,6.8269706E-1,-3.9479282E-1,-8.3618647E-1,8.3343273E-1,-1.0243976E0,-1.6561472E-1,-1.0657218E0,1.7559871E-2,-6.690247E-2,9.888547E-1,-2.082982E-1,-1.076274E0,-8.610509E-1,6.6230625E-2,-1.1578741E0,2.655283E-2,9.2383295E-1,-8.8826275E-1,-1.3581079E0,2.1287455E-1,1.0138563E0,-1.08399324E-1,-6.052536E-1,1.0351839E-1,-5.97408E-1,-1.1455094E0,-1.015402E0,-4.968302E-1,6.33737E-1,-3.607167E-1,7.05921E-3,-9.751199E-2,8.975432E-2,9.293659E-3,-8.079767E-2,-1.7409932E-2,-2.283747E-2,-1.1653111E-1,4.170311E-2,-8.8199526E-2,-1.6496746E-2,8.3868094E-2,-1.0496475E-1,1.1992827E-2,8.958425E-3,-8.8876076E-2,1.4889274E-3,-9.254009E-2,-2.2594277E-2,-8.639561E-2,-9.0401426E-2,3.3836737E-2,6.01658E-2,-6.547777E-2,-7.694789E-2,1.267332E-2],"categories":[],"categories_nodes":[],"categories_segments":[],"categories_sizes":[],"default_left":[0,0,0,0,0,0,0,0,0,0,0,0,0,0,0,0,0,0,0,0,0,0,0,0,0,0,0,0,0,0,0,0,0,0,0,0,0,0,0,0,0,0,0,0,0,0,0,0,0,0,0,0,0,0,0,0,0],"id":15,"left_children":[1,3,5,7,9,11,13,15,17,19,21,23,25,27,29,31,-1,33,35,37,39,41,-1,43,-1,45,47,49,51,53,55,-1,-1,-1,-1,-1,-1,-1,-1,-1,-1,-1,-1,-1,-1,-1,-1,-1,-1,-1,-1,-1,-1,-1,-1,-1,-1],"loss_changes":[2.8285385E2,8.91696E1,9.496349E1,6.9532204E0,4.9327957E1,7.2165527E0,7.818408E1,3.9782944E0,7.7834983E0,1.934935E1,1.8970154E1,7.7867217E0,4.7864685E0,6.310463E0,8.850503E1,2.1152534E0,0E0,6.2644386E-1,1.680553E-1,5.9158516E-1,1.8517906E1,1.2744354E1,0E0,5.518715E0,0E0,8.479177E0,1.8939514E0,3.6776047E0,2.263239E1,2.7558159E1,6.523479E1,0E0,0E0,0E0,0E0,0E0,0E0,0E0,0E0,0E0,0E0,0E0,0E0,0E0,0E0,0E0,0E0,0E0,0E0,0E0,0E0,0E0,0E0,0E0,0E0,0E0,0E0],"parents":[2147483647,0,0,1,1,2,2,3,3,4,4,5,5,6,6,7,7,8,8,9,9,10,10,11,11,12,12,13,13,14,14,15,15,17,17,18,18,19,19,20,20,21,21,23,23,25,25,26,26,27,27,28,28,29,29,30,30],"right_children":[2,4,6,8,10,12,14,16,18,20,22,24,26,28,30,32,-1,34,36,38,40,42,-1,44,-1,46,48,50,52,54,56,-1,-1,-1,-1,-1,-1,-1,-1,-1,-1,-1,-1,-1,-1,-1,-1,-1,-1,-1,-1,-1,-1,-1,-1,-1,-1],"split_conditions":[1.26E2,-2.25E0,-1.36E0,1.4327E1,-2.56E-1,1.365E-1,-3.15E-1,-3.33E-5,3.91E1,1.3394572E2,1.079E0,8.2062195E1,-3.56E-1,-4.74E-1,-2.43E-5,4.1E1,2.655283E-2,-7.9E1,-3.7E-2,4.66E-2,3.599E-3,8.0627704E-1,-1.08399324E-1,1.3676E1,1.0351839E-1,7.507854E1,1.3112833E2,1.05E-2,4.5344E0,-1.1E-1,-1.05E-1,7.05921E-3,-9.751199E-2,8.975432E-2,9.293659E-3,-8.079767E-2,-1.7409932E-2,-2.283747E-2,-1.1653111E-1,4.170311E-2,-8.8199526E-2,-1.6496746E-2,8.3868094E-2,-1.0496475E-1,1.1992827E-2,8.958425E-3,-8.8876076E-2,1.4889274E-3,-9.254009E-2,-2.2594277E-2,-8.639561E-2,-9.0401426E-2,3.3836737E-2,6.01658E-2,-6.547777E-2,-7.694789E-2,1.267332E-2],"split_indices":[24,17,17,32,11,6,11,5,13,3,6,33,8,11,2,24,0,25,8,7,1,0,0,32,0,33,3,4,9,17,11,0,0,0,0,0,0,0,0,0,0,0,0,0,0,0,0,0,0,0,0,0,0,0,0,0,0],"split_type":[0,0,0,0,0,0,0,0,0,0,0,0,0,0,0,0,0,0,0,0,0,0,0,0,0,0,0,0,0,0,0,0,0,0,0,0,0,0,0,0,0,0,0,0,0,0,0,0,0,0,0,0,0,0,0,0,0],"sum_hessian":[1.0437395E3,3.8542795E2,6.583115E2,3.4386467E1,3.5104147E2,1.7475356E2,4.8355798E2,2.690468E1,7.4817886E0,5.1761974E1,2.992795E2,1.0744251E1,1.6400931E2,1.2022396E2,3.63334E2,2.5401394E1,1.5032854E0,3.7300253E0,3.7517633E0,8.531909E0,4.3230064E1,2.9668225E2,2.597249E0,8.970923E0,1.7733278E0,2.1933683E1,1.4207562E2,8.318401E1,3.7039944E1,1.5578171E2,2.075523E2,1.1650841E0,2.4236311E1,2.682885E0,1.0471404E0,2.7472126E0,1.0045507E0,1.0456692E0,7.4862404E0,3.5508163E1,7.721901E0,8.020557E0,2.886617E2,4.2529073E0,4.718016E0,9.538927E0,1.2394757E1,1.3526255E0,1.4072299E2,7.1671677E0,7.6016846E1,2.180246E1,1.5237485E1,1.4448984E2,1.1291861E1,9.578499E1,1.1176732E2],"tree_param":{"num_deleted":"0","num_feature":"35","num_nodes":"57","size_leaf_vector":"1"}},{"base_weights":[1.6899095E-3,2.2124717E-1,-1.053823E0,-9.975785E-1,4.1342142E-1,5.4016206E-2,-1.0760723E0,-6.15641E-1,-1.1832244E0,8.6508864E-1,5.49533E-2,-5.905432E-1,-1.1219047E0,-9.9656343E-1,2.3735755E-3,2.4662597E-2,-1.2083311E0,9.7722214E-1,1.1655016E-1,5.95119E-1,-2.710837E-1,6.414826E-1,-8.386468E-1,-1.1325221E0,1.8363351E-2,2.8600637E-2,-9.374791E-2,-8.3337575E-2,3.77612E-2,1.5657334E-2,-9.859189E-2,8.577238E-3,8.362433E-2,-1.17692545E-1,2.9992035E-2,5.868097E-2,-7.451623E-2,1.2592895E-2,-1.01677455E-1,-4.7439504E-2,1.12789236E-1,2.5286518E-2,-7.756463E-2,-2.412214E-2,-9.129593E-2],"categories":[],"categories_nodes":[],"categories_segments":[],"categories_sizes":[],"default_left":[0,0,0,0,0,0,0,0,0,0,0,0,0,0,0,0,0,0,0,0,0,0,0,0,0,0,0,0,0,0,0,0,0,0,0,0,0,0,0,0,0,0,0,0,0],"id":16,"left_children":[1,3,5,7,9,-1,11,13,15,17,19,21,23,25,27,-1,29,31,33,35,37,39,41,43,-1,-1,-1,-1,-1,-1,-1,-1,-1,-1,-1,-1,-1,-1,-1,-1,-1,-1,-1,-1,-1],"loss_changes":[2.3526596E2,1.9725122E2,7.4513702E0,7.407921E0,1.1759934E2,0E0,3.1866302E0,9.328884E0,3.2234268E0,2.6867355E1,7.1694824E1,5.7438793E0,2.5118713E0,6.23695E0,8.388676E0,0E0,2.7781525E0,1.64393E1,1.8195948E1,3.304877E1,1.090166E2,4.081422E0,2.5149603E0,7.79953E-1,0E0,0E0,0E0,0E0,0E0,0E0,0E0,0E0,0E0,0E0,0E0,0E0,0E0,0E0,0E0,0E0,0E0,0E0,0E0,0E0,0E0],"parents":[2147483647,0,0,1,1,2,2,3,3,4,4,6,6,7,7,8,8,9,9,10,10,11,11,12,12,13,13,14,14,16,16,17,17,18,18,19,19,20,20,21,21,22,22,23,23],"right_children":[2,4,6,8,10,-1,12,14,16,18,20,22,24,26,28,-1,30,32,34,36,38,40,42,44,-1,-1,-1,-1,-1,-1,-1,-1,-1,-1,-1,-1,-1,-1,-1,-1,-1,-1,-1,-1,-1],"split_conditions":[1.454E1,1.14E1,1.3112833E2,2.48E-1,1.28E2,5.4016206E-2,-5.09E-1,9.6E0,-9.94E2,2.38E-1,3.7E-1,-5.986E2,3.01E2,-5.52E-1,4.32085E0,2.4662597E-2,1.315598E2,1.4279665E0,3.7478669E0,1.883E3,-2.77E-1,1.2739149E1,-2.59E2,1.11E0,1.8363351E-2,2.8600637E-2,-9.374791E-2,-8.3337575E-2,3.77612E-2,1.5657334E-2,-9.859189E-2,8.577238E-3,8.362433E-2,-1.17692545E-1,2.9992035E-2,5.868097E-2,-7.451623E-2,1.2592895E-2,-1.01677455E-1,-4.7439504E-2,1.12789236E-1,2.5286518E-2,-7.756463E-2,-2.412214E-2,-9.129593E-2],"split_indices":[15,22,3,30,24,0,8,22,14,10,6,21,24,8,0,0,3,0,0,18,8,34,25,9,0,0,0,0,0,0,0,0,0,0,0,0,0,0,0,0,0,0,0,0,0],"split_type":[0,0,0,0,0,0,0,0,0,0,0,0,0,0,0,0,0,0,0,0,0,0,0,0,0,0,0,0,0,0,0,0,0,0,0,0,0,0,0,0,0,0,0,0,0],"sum_hessian":[1.0131849E3,8.393765E2,1.7380833E2,1.1374994E2,7.256266E2,1.8353243E0,1.7197302E2,3.8617233E1,7.5132706E1,3.204494E2,4.051772E2,1.6031116E1,1.559419E2,2.3512455E1,1.5104776E1,1.0570636E0,7.407564E1,2.7843362E2,4.2015785E1,1.5219725E2,2.5297993E2,2.4214098E0,1.3609708E1,1.5488705E2,1.0548425E0,2.5757024E0,2.0936752E1,4.3083844E0,1.0796392E1,1.1281767E0,7.2947464E1,2.039425E1,2.5803937E2,5.2230134E0,3.679277E1,1.4002283E2,1.217443E1,1.7767912E2,7.530082E1,1.0165262E0,1.4048835E0,1.241787E0,1.2367921E1,1.9700191E0,1.5291704E2],"tree_param":{"num_deleted":"0","num_feature":"35","num_nodes":"45","size_leaf_vector":"1"}},{"base_weights":[-2.450656E-2,6.126027E-1,-3.777952E-1,-9.178458E-1,7.6268363E-1,-9.631298E-1,-1.7674552E-1,-1.9737411E-2,-1.0516813E0,8.995681E-1,-8.930115E-2,-1.9217758E-1,-1.0097569E0,1.16657436E-1,-7.043518E-1,-6.2377598E-2,6.1783813E-2,-2.902399E-1,-1.0226807E-1,-1.8554273E-1,9.911384E-1,1.3776644E-1,-1.2973998E0,-9.001734E-1,3.9324218E-1,-5.7103515E-1,-1.0988162E0,6.9440055E-1,-2.7914494E-1,-9.5895207E-1,-3.659624E-1,-7.4354514E-2,3.7580058E-2,-1.1064283E-1,1.245038E-2,8.143038E-2,-3.3895347E-2,3.7495945E-2,-9.198519E-2,-2.1141414E-2,-1.1512806E-1,1.8961046E-2,-1.0208485E-1,8.753795E-2,-4.3314986E-2,2.936212E-2,-7.187486E-2,-8.901787E-2,9.40424E-3,-1.3333803E-1,6.1184138E-2,1.8854853E-2,-7.8258835E-2,-9.186818E-2,-5.11826E-2,2.4635764E-3,-7.299488E-2],"categories":[],"categories_nodes":[],"categories_segments":[],"categories_sizes":[],"default_left":[0,0,0,0,0,0,0,0,0,0,0,0,0,0,0,0,0,0,0,0,0,0,0,0,0,0,0,0,0,0,0,0,0,0,0,0,0,0,0,0,0,0,0,0,0,0,0,0,0,0,0,0,0,0,0,0,0],"id":17,"left_children":[1,3,5,7,9,11,13,15,17,19,21,23,25,27,29,-1,-1,31,-1,33,35,37,39,41,43,45,47,49,51,53,55,-1,-1,-1,-1,-1,-1,-1,-1,-1,-1,-1,-1,-1,-1,-1,-1,-1,-1,-1,-1,-1,-1,-1,-1,-1,-1],"loss_changes":[2.1679228E2,7.961931E1,7.273892E1,3.7220268E0,3.663597E1,5.4917603E0,7.165861E1,3.64647E0,4.30299E0,2.7027222E1,1.2330874E1,4.6046934E0,5.190979E0,6.83371E1,1.3897301E1,0E0,0E0,4.0828505E0,0E0,9.148517E0,9.862869E0,1.6813602E1,6.5981483E-1,2.4165869E0,4.7265635E0,8.686627E0,2.2065125E0,2.1461067E1,6.413547E1,4.933014E0,1.5774131E1,0E0,0E0,0E0,0E0,0E0,0E0,0E0,0E0,0E0,0E0,0E0,0E0,0E0,0E0,0E0,0E0,0E0,0E0,0E0,0E0,0E0,0E0,0E0,0E0,0E0,0E0],"parents":[2147483647,0,0,1,1,2,2,3,3,4,4,5,5,6,6,7,7,8,8,9,9,10,10,11,11,12,12,13,13,14,14,17,17,19,19,20,20,21,21,22,22,23,23,24,24,25,25,26,26,27,27,28,28,29,29,30,30],"right_children":[2,4,6,8,10,12,14,16,18,20,22,24,26,28,30,-1,-1,32,-1,34,36,38,40,42,44,46,48,50,52,54,56,-1,-1,-1,-1,-1,-1,-1,-1,-1,-1,-1,-1,-1,-1,-1,-1,-1,-1,-1,-1,-1,-1,-1,-1,-1,-1],"split_conditions":[1.26E2,-2.19E0,-1.36E0,7E-2,2.65E-1,1.365E-1,2.13E-1,3.721E0,-4.67E-1,1.4279665E0,1.016E3,1.361E1,-2.53E-1,-2.163E-5,1.505E1,-6.2377598E-2,6.1783813E-2,1.69E-1,-1.0226807E-1,7.1E1,1.6676E4,3.599E-3,2.4E0,-1.442E1,1.4155E1,4E-2,-1.5E0,7.178516E0,1.05E-1,3.11E-1,1.43E-2,-7.4354514E-2,3.7580058E-2,-1.1064283E-1,1.245038E-2,8.143038E-2,-3.3895347E-2,3.7495945E-2,-9.198519E-2,-2.1141414E-2,-1.1512806E-1,1.8961046E-2,-1.0208485E-1,8.753795E-2,-4.3314986E-2,2.936212E-2,-7.187486E-2,-8.901787E-2,9.40424E-3,-1.3333803E-1,6.1184138E-2,1.8854853E-2,-7.8258835E-2,-9.186818E-2,-5.11826E-2,2.4635764E-3,-7.299488E-2],"split_indices":[24,17,17,6,10,6,10,26,8,0,18,32,8,2,32,0,0,27,0,24,12,1,13,17,32,7,14,34,10,7,4,0,0,0,0,0,0,0,0,0,0,0,0,0,0,0,0,0,0,0,0,0,0,0,0,0,0],"split_type":[0,0,0,0,0,0,0,0,0,0,0,0,0,0,0,0,0,0,0,0,0,0,0,0,0,0,0,0,0,0,0,0,0,0,0,0,0,0,0,0,0,0,0,0,0,0,0,0,0,0,0,0,0,0,0,0,0],"sum_hessian":[9.6113586E2,3.4258862E2,6.1854724E2,3.013828E1,3.1245035E2,1.5717078E2,4.6137643E2,4.057531E0,2.608075E1,2.6915125E2,4.3299118E1,9.255649E0,1.4791513E2,2.969955E2,1.6438094E2,2.0785987E0,1.9789323E0,6.5059733E0,1.9574778E1,2.0865723E1,2.482855E2,3.7194256E1,6.1048636E0,3.945898E0,5.309751E0,2.6210289E1,1.2170484E2,1.2043909E2,1.7655643E2,9.275743E1,7.1623505E1,3.4127347E0,3.0932386E0,3.9494932E0,1.691623E1,2.4395514E2,4.3303785E0,3.0095201E1,7.0990543E0,1.0818849E0,5.022979E0,1.0720477E0,2.8738503E0,2.9366524E0,2.3730984E0,6.7498183E0,1.9460472E1,1.2041332E2,1.2915189E0,2.8306212E0,1.1760847E2,1.02059616E2,7.44968E1,5.658253E1,3.61749E1,4.2042774E1,2.9580727E1],"tree_param":{"num_deleted":"0","num_feature":"35","num_nodes":"57","size_leaf_vector":"1"}},{"base_weights":[-1.4598564E-3,6.1956805E-1,-3.5551006E-1,7.7730656E-1,-9.0157163E-1,-1.6348939E-1,-1.0601066E0,-2.1957037E-1,8.804177E-1,-9.458223E-2,-5.072498E-1,-7.182277E-1,1.0579236E-1,-1.1020675E0,-6.5544374E-2,-1.2103731E-1,8.525338E-2,9.815466E-2,9.859735E-1,3.659942E-1,-8.8599455E-1,-9.626643E-2,-8.9426416E-1,5.898591E-1,-2.1674635E-1,-4.5949638E-1,-9.058125E-2,8.744273E-2,-5.823784E-1,2.7138755E-2,-7.9943985E-2,-7.984851E-2,6.226683E-2,-4.673391E-2,8.057779E-2,-5.538967E-2,6.483824E-2,2.5581228E-2,-8.3710566E-2,3.6895182E-2,-7.406956E-2,-2.161395E-2,-7.9768226E-2,5.2875694E-2,-1.1876074E-1,-5.50302E-2,3.094739E-2,9.998475E-2,-7.75039E-2,-6.993795E-2,2.2476263E-2],"categories":[],"categories_nodes":[],"categories_segments":[],"categories_sizes":[],"default_left":[0,0,0,0,0,0,0,0,0,0,0,0,0,0,0,0,0,0,0,0,0,0,0,0,0,0,0,0,0,0,0,0,0,0,0,0,0,0,0,0,0,0,0,0,0,0,0,0,0,0,0],"id":18,"left_children":[1,3,5,7,9,11,13,15,17,-1,19,21,23,25,27,-1,29,31,33,35,37,39,41,43,45,47,-1,-1,49,-1,-1,-1,-1,-1,-1,-1,-1,-1,-1,-1,-1,-1,-1,-1,-1,-1,-1,-1,-1,-1,-1],"loss_changes":[2.0758414E2,8.295381E1,8.118023E1,3.2174286E1,3.0165958E0,7.083827E1,5.2942657E0,1.1943086E1,2.3202408E1,0E0,5.396931E0,1.6876884E1,5.005418E1,1.8727417E0,4.3903527E0,0E0,7.2796216E0,2.662003E1,8.879623E0,3.076744E0,2.459939E0,1.6751122E1,7.4728546E0,1.9876385E1,5.504603E1,7.4949203E0,0E0,0E0,1.5022618E0,0E0,0E0,0E0,0E0,0E0,0E0,0E0,0E0,0E0,0E0,0E0,0E0,0E0,0E0,0E0,0E0,0E0,0E0,0E0,0E0,0E0,0E0],"parents":[2147483647,0,0,1,1,2,2,3,3,4,4,5,5,6,6,7,7,8,8,10,10,11,11,12,12,13,13,14,14,16,16,17,17,18,18,19,19,20,20,21,21,22,22,23,23,24,24,25,25,28,28],"right_children":[2,4,6,8,10,12,14,16,18,-1,20,22,24,26,28,-1,30,32,34,36,38,40,42,44,46,48,-1,-1,50,-1,-1,-1,-1,-1,-1,-1,-1,-1,-1,-1,-1,-1,-1,-1,-1,-1,-1,-1,-1,-1,-1],"split_conditions":[1.26E2,1.392E1,1.392E1,-1.05E-2,-2.91E1,-2.28E-1,8.262813E1,1.01E0,2.178187E0,-9.458223E-2,1.88E1,1.13E-1,-2.163E-5,-3.22E2,2.3E1,-1.2103731E-1,4.097E-3,-8.1E-2,-2.32E0,3.3888872E0,-2.54E1,3.51E-1,-5.79E-1,-1.1E-1,-7.73E-2,2.3E1,-9.058125E-2,8.744273E-2,2.93E0,2.7138755E-2,-7.9943985E-2,-7.984851E-2,6.226683E-2,-4.673391E-2,8.057779E-2,-5.538967E-2,6.483824E-2,2.5581228E-2,-8.3710566E-2,3.6895182E-2,-7.406956E-2,-2.161395E-2,-7.9768226E-2,5.2875694E-2,-1.1876074E-1,-5.50302E-2,3.094739E-2,9.998475E-2,-7.75039E-2,-6.993795E-2,2.2476263E-2],"split_indices":[24,15,15,5,14,11,33,15,0,0,15,6,2,25,15,0,1,11,17,0,14,30,8,17,11,15,0,0,29,0,0,0,0,0,0,0,0,0,0,0,0,0,0,0,0,0,0,0,0,0,0],"split_type":[0,0,0,0,0,0,0,0,0,0,0,0,0,0,0,0,0,0,0,0,0,0,0,0,0,0,0,0,0,0,0,0,0,0,0,0,0,0,0,0,0,0,0,0,0,0,0,0,0,0,0],"sum_hessian":[9.4209875E2,3.4180313E2,6.0029565E2,3.1013214E2,3.1670965E1,4.7270374E2,1.2759188E2,2.8965414E1,2.8116675E2,1.7333496E1,1.4337469E1,1.5393018E2,3.1877356E2,1.22322945E2,5.268935E0,4.7685575E0,2.4196856E1,3.3658314E1,2.4750842E2,4.347477E0,9.989992E0,3.4297886E1,1.1963229E2,1.27137115E2,1.9163644E2,6.2185187E0,1.1610443E2,1.2814544E0,3.987481E0,2.0162426E1,4.034431E0,1.2708445E1,2.0949871E1,2.9510984E0,2.4455733E2,1.1208684E0,3.2266083E0,1.0561761E0,8.933816E0,2.0779245E1,1.3518641E1,1.7437523E1,1.0219477E2,1.2358338E2,3.5537372E0,1.0754924E2,8.408721E1,1.0937485E0,5.1247706E0,2.9706476E0,1.0168334E0],"tree_param":{"num_deleted":"0","num_feature":"35","num_nodes":"51","size_leaf_vector":"1"}},{"base_weights":[1.9112333E-3,1.8646267E-1,-1.0200086E0,-7.617765E-1,3.818299E-1,-2.7685377E-1,-1.055315E0,-4.9394065E-1,-1.1169088E0,-6.089165E-1,5.316981E-1,-7.438107E-2,7.757358E-1,8.837624E-3,-1.0660253E0,-9.692678E-2,-1.1617701E0,-9.5580064E-2,-4.252398E-1,-2.5513217E-1,-1.2443721E0,8.26522E-1,1.3698605E-1,9.912975E-2,3.8756665E-3,-5.126378E-1,-1.0925957E0,-4.265739E-2,4.345054E-2,-9.6499085E-2,-1.532775E-2,1.1915879E-1,-7.848749E-2,9.38807E-3,-9.423326E-2,-4.0169448E-2,-1.02816425E-1,7.211489E-2,-1.623015E-2,6.879687E-2,-1.2425245E-2,1.4432932E-2,-7.43693E-2,-8.85818E-2,-3.1927977E-2],"categories":[],"categories_nodes":[],"categories_segments":[],"categories_sizes":[],"default_left":[0,0,0,0,0,0,0,0,0,0,0,0,0,0,0,0,0,0,0,0,0,0,0,0,0,0,0,0,0,0,0,0,0,0,0,0,0,0,0,0,0,0,0,0,0],"id":19,"left_children":[1,3,5,7,9,11,13,15,17,19,21,-1,23,-1,25,27,29,-1,31,33,35,37,39,-1,-1,41,43,-1,-1,-1,-1,-1,-1,-1,-1,-1,-1,-1,-1,-1,-1,-1,-1,-1,-1],"loss_changes":[1.71303E2,1.4281723E2,3.353424E0,1.1981499E1,9.5142105E1,5.983639E0,1.7694397E0,2.0278576E1,2.499382E0,1.865049E1,6.44975E1,0E0,1.1116185E0,0E0,1.3686523E0,1.4063624E1,1.0020256E0,0E0,9.127597E0,1.9199486E1,2.613907E-1,2.467694E1,5.05543E1,0E0,0E0,2.4488564E0,8.230438E-1,0E0,0E0,0E0,0E0,0E0,0E0,0E0,0E0,0E0,0E0,0E0,0E0,0E0,0E0,0E0,0E0,0E0,0E0],"parents":[2147483647,0,0,1,1,2,2,3,3,4,4,5,5,6,6,7,7,8,8,9,9,10,10,12,12,14,14,15,15,16,16,18,18,19,19,20,20,21,21,22,22,25,25,26,26],"right_children":[2,4,6,8,10,12,14,16,18,20,22,-1,24,-1,26,28,30,-1,32,34,36,38,40,-1,-1,42,44,-1,-1,-1,-1,-1,-1,-1,-1,-1,-1,-1,-1,-1,-1,-1,-1,-1,-1],"split_conditions":[1.679E1,1.25E1,-3.22E2,7.622E-4,1.4279665E0,1.21263075E1,4.1E1,7.1665E2,-1.76E1,2.231E0,1.56E2,-7.438107E-2,3.579E0,8.837624E-3,-1.242E0,1.06E1,-5.9E-2,-9.5580064E-2,1.54E-2,3.1644E3,7.106675E0,1.1E-2,2.71E-1,9.912975E-2,3.8756665E-3,9.467E2,8.284839E1,-4.265739E-2,4.345054E-2,-9.6499085E-2,-1.532775E-2,1.1915879E-1,-7.848749E-2,9.38807E-3,-9.423326E-2,-4.0169448E-2,-1.02816425E-1,7.211489E-2,-1.623015E-2,6.879687E-2,-1.2425245E-2,1.4432932E-2,-7.43693E-2,-8.85818E-2,-3.1927977E-2],"split_indices":[15,22,25,1,0,34,24,19,14,9,24,0,26,0,8,22,31,0,4,20,34,4,6,0,0,12,33,0,0,0,0,0,0,0,0,0,0,0,0,0,0,0,0,0,0],"split_type":[0,0,0,0,0,0,0,0,0,0,0,0,0,0,0,0,0,0,0,0,0,0,0,0,0,0,0,0,0,0,0,0,0,0,0,0,0,0,0,0,0,0,0,0,0],"sum_hessian":[9.0629456E2,7.6835297E2,1.3794154E2,1.3076578E2,6.375872E2,6.657213E0,1.3128432E2,7.590793E1,5.4857845E1,8.3371735E1,5.5421545E2,4.180676E0,2.4765375E0,1.1103579E0,1.3017397E2,4.8324768E1,2.7583162E1,4.865478E1,6.203064E0,5.4455563E1,2.8916166E1,3.166241E2,2.3759135E2,1.0828545E0,1.393683E0,6.8935914E0,1.2328037E2,2.8835922E1,1.9488844E1,2.6141619E1,1.4415438E0,1.0177237E0,5.1853404E0,3.941747E1,1.5038094E1,2.2011487E0,2.6715017E1,2.9526093E2,2.1363194E1,6.784425E1,1.697471E2,2.8026738E0,4.0909176E0,1.2014112E2,3.1392522E0],"tree_param":{"num_deleted":"0","num_feature":"35","num_nodes":"45","size_leaf_vector":"1"}},{"base_weights":[-1.3565079E-2,5.7077503E-1,-3.3118576E-1,-8.0377036E-1,7.0717686E-1,-1.2540974E-1,-9.661845E-1,-4.0507432E-2,-9.75283E-1,8.098417E-1,-4.7613436E-1,-9.0504414E-1,1.0123637E-1,-1.0572436E0,-6.086535E-1,-7.165546E-1,7.7191286E-2,-9.171766E-2,-3.5433143E-1,-9.249829E-1,8.561243E-1,-1.131966E-1,-1.6492498E-1,-6.727732E-1,-9.4210826E-2,5.9028566E-1,-2.7632415E-1,-1.08964E0,-9.54911E-2,-1.0405041E0,5.834746E-2,-1.4584614E-2,-6.6496246E-2,4.6492092E-2,-8.574332E-2,3.956869E-2,-1.24522395E-1,7.126428E-2,-6.6337734E-2,2.4694273E-2,-8.492386E-2,1.719028E-2,-7.239583E-2,6.058487E-2,-8.341348E-2,1.8895969E-2,-5.7321534E-2,1.1354395E-2,-8.844461E-2,-6.203836E-2,6.281135E-2,-9.283472E-2,1.9986225E-2,8.517562E-2,-7.749016E-2],"categories":[],"categories_nodes":[],"categories_segments":[],"categories_sizes":[],"default_left":[0,0,0,0,0,0,0,0,0,0,0,0,0,0,0,0,0,0,0,0,0,0,0,0,0,0,0,0,0,0,0,0,0,0,0,0,0,0,0,0,0,0,0,0,0,0,0,0,0,0,0,0,0,0,0],"id":20,"left_children":[1,3,5,7,9,11,13,15,17,19,21,23,25,27,29,31,-1,-1,33,35,37,-1,39,41,-1,43,45,47,49,51,53,-1,-1,-1,-1,-1,-1,-1,-1,-1,-1,-1,-1,-1,-1,-1,-1,-1,-1,-1,-1,-1,-1,-1,-1],"loss_changes":[1.6176984E2,5.811712E1,7.3660416E1,3.6491814E0,3.437265E1,7.56498E1,3.8508148E0,4.9145794E0,2.0348377E0,2.149121E1,6.4761944E0,5.3119583E0,6.1501278E1,3.2817612E0,8.811191E0,1.1117077E-1,0E0,0E0,4.925109E0,7.2067337E0,1.5444962E1,0E0,8.132286E0,1.140324E1,0E0,4.0350548E1,4.2617012E1,2.215889E0,3.3857281E0,3.1516933E0,1.4348742E1,0E0,0E0,0E0,0E0,0E0,0E0,0E0,0E0,0E0,0E0,0E0,0E0,0E0,0E0,0E0,0E0,0E0,0E0,0E0,0E0,0E0,0E0,0E0,0E0],"parents":[2147483647,0,0,1,1,2,2,3,3,4,4,5,5,6,6,7,7,8,8,9,9,10,10,11,11,12,12,13,13,14,14,15,15,18,18,19,19,20,20,22,22,23,23,25,25,26,26,27,27,28,28,29,29,30,30],"right_children":[2,4,6,8,10,12,14,16,18,20,22,24,26,28,30,32,-1,-1,34,36,38,-1,40,42,-1,44,46,48,50,52,54,-1,-1,-1,-1,-1,-1,-1,-1,-1,-1,-1,-1,-1,-1,-1,-1,-1,-1,-1,-1,-1,-1,-1,-1],"split_conditions":[1.26E2,-2.25E0,7.97E0,9.3E0,1.23E-2,1.25E1,1.6985246E2,1.3722066E2,1.4327E1,6.2E1,1.18E0,3.8714962E1,1.6533E2,3.931E0,3.24E2,4.93944E3,7.7191286E-2,-9.171766E-2,3.91E1,-4.8E-2,2.25794E3,-1.131966E-1,4.3E-1,-2.858E-4,-9.4210826E-2,1.374E1,1.09E-1,-2.612636E4,2E2,6.96E1,1.392E1,-1.4584614E-2,-6.6496246E-2,4.6492092E-2,-8.574332E-2,3.956869E-2,-1.24522395E-1,7.126428E-2,-6.6337734E-2,2.4694273E-2,-8.492386E-2,1.719028E-2,-7.239583E-2,6.058487E-2,-8.341348E-2,1.8895969E-2,-5.7321534E-2,1.1354395E-2,-8.844461E-2,-6.203836E-2,6.281135E-2,-9.283472E-2,1.9986225E-2,8.517562E-2,-7.749016E-2],"split_indices":[24,17,15,13,4,22,3,3,32,24,15,0,19,29,22,19,0,0,13,28,20,0,16,2,0,9,10,21,24,7,15,0,0,0,0,0,0,0,0,0,0,0,0,0,0,0,0,0,0,0,0,0,0,0,0],"split_type":[0,0,0,0,0,0,0,0,0,0,0,0,0,0,0,0,0,0,0,0,0,0,0,0,0,0,0,0,0,0,0,0,0,0,0,0,0,0,0,0,0,0,0,0,0,0,0,0,0,0,0,0,0,0,0],"sum_hessian":[8.6959326E2,3.0594196E2,5.636513E2,2.7177444E1,2.7876453E2,4.2660446E2,1.3704683E2,5.213332E0,2.1964113E1,2.568E2,2.196452E1,9.5410614E1,3.3119385E2,1.07667946E2,2.9378891E1,3.2890272E0,1.9243051E0,1.6554073E1,5.41004E0,6.179679E0,2.5062032E2,4.585334E0,1.7379187E1,5.338776E1,4.2022858E1,1.4404752E2,1.8714632E2,1.04030716E2,3.6372294E0,1.7493032E1,1.1885858E1,1.0387468E0,2.2502804E0,2.4306931E0,2.9793465E0,1.9694896E0,4.2101893E0,2.4602925E2,4.591076E0,1.18013525E1,5.5778337E0,1.1084385E1,4.2303375E1,1.311674E2,1.2880104E1,8.668337E1,1.00462944E2,1.2263911E0,1.0280432E2,2.119808E0,1.5174214E0,1.6097519E1,1.3955146E0,5.984665E0,5.901193E0],"tree_param":{"num_deleted":"0","num_feature":"35","num_nodes":"55","size_leaf_vector":"1"}},{"base_weights":[-3.6026095E-3,2.162749E-1,-8.164818E-1,7.5818264E-1,-1.3483511E-1,-3.132383E-1,-1.0444255E0,8.904051E-1,-7.6343757E-1,1.38863E-1,-9.346504E-1,2.5934383E-1,-1.0686648E0,-5.440806E-1,-1.1107397E0,9.45139E-1,-5.5457497E-1,-1.07437834E-1,-1.26375E-1,4.5422006E-1,-7.5375164E-1,-4.874007E-1,-1.1915168E0,-1.0488378E0,8.2133603E-1,-8.7020874E-2,-2.5651447E-2,9.238294E-2,-8.7795034E-2,-1.1286153E0,-1.4493783E-1,3.9127905E-2,8.345852E-2,-8.938283E-2,7.028585E-2,4.980868E-2,-7.1610995E-2,-2.7947113E-2,5.1507115E-2,-7.022337E-2,4.653582E-3,1.4625892E-2,-9.685562E-2,6.5459874E-3,-1.0219506E-1,-9.560646E-2,1.2654629E-2,8.367396E-3,9.386305E-2,-3.919083E-2,9.055077E-2,-6.9916494E-2,-9.531188E-2,3.631733E-2,-5.1863007E-2],"categories":[],"categories_nodes":[],"categories_segments":[],"categories_sizes":[],"default_left":[0,0,0,0,0,0,0,0,0,0,0,0,0,0,0,0,0,0,0,0,0,0,0,0,0,0,0,0,0,0,0,0,0,0,0,0,0,0,0,0,0,0,0,0,0,0,0,0,0,0,0,0,0,0,0],"id":21,"left_children":[1,3,5,7,9,11,13,15,17,19,21,23,25,27,29,31,33,-1,35,37,39,41,43,45,47,-1,-1,49,-1,51,53,-1,-1,-1,-1,-1,-1,-1,-1,-1,-1,-1,-1,-1,-1,-1,-1,-1,-1,-1,-1,-1,-1,-1,-1],"loss_changes":[1.499315E2,1.257316E2,2.0159554E1,5.2939804E1,8.8025696E1,2.4977158E1,3.4599E0,1.9461807E1,7.6961594E0,8.479596E1,1.11946945E1,2.5334291E1,5.6972504E-3,5.8402615E0,1.6870422E0,9.826813E0,8.537304E0,0E0,7.0365467E0,3.409987E1,7.9770737E0,1.9168362E1,7.1519547E0,2.0322943E0,5.892563E0,0E0,0E0,5.699676E0,0E0,6.391449E-1,1.2274066E0,0E0,0E0,0E0,0E0,0E0,0E0,0E0,0E0,0E0,0E0,0E0,0E0,0E0,0E0,0E0,0E0,0E0,0E0,0E0,0E0,0E0,0E0,0E0,0E0],"parents":[2147483647,0,0,1,1,2,2,3,3,4,4,5,5,6,6,7,7,8,8,9,9,10,10,11,11,12,12,13,13,14,14,15,15,16,16,18,18,19,19,20,20,21,21,22,22,23,23,24,24,27,27,29,29,30,30],"right_children":[2,4,6,8,10,12,14,16,18,20,22,24,26,28,30,32,34,-1,36,38,40,42,44,46,48,-1,-1,50,-1,52,54,-1,-1,-1,-1,-1,-1,-1,-1,-1,-1,-1,-1,-1,-1,-1,-1,-1,-1,-1,-1,-1,-1,-1,-1],"split_conditions":[6.54E0,1.09E-1,6.18E-1,1.91E3,-2.19E-5,2.5302E4,-5.32E-1,9.33E-1,1.55E0,4.74E-1,4.631E-1,1.732E3,-2.5E-2,7.507854E1,8.284839E1,2.5212455E0,7.917359E1,-1.07437834E-1,5.973E3,2.909E0,8.46E-1,1.69E-1,9E-2,1.7299553E1,1.1477031E1,-8.7020874E-2,-2.5651447E-2,1.86E-1,-8.7795034E-2,1.35E-4,3.2729E2,3.9127905E-2,8.345852E-2,-8.938283E-2,7.028585E-2,4.980868E-2,-7.1610995E-2,-2.7947113E-2,5.1507115E-2,-7.022337E-2,4.653582E-3,1.4625892E-2,-9.685562E-2,6.5459874E-3,-1.0219506E-1,-9.560646E-2,1.2654629E-2,8.367396E-3,9.386305E-2,-3.919083E-2,9.055077E-2,-6.9916494E-2,-9.531188E-2,3.631733E-2,-5.1863007E-2],"split_indices":[15,10,6,18,2,12,8,6,9,10,6,12,28,33,33,0,33,0,23,9,6,10,16,34,34,0,0,27,0,4,20,0,0,0,0,0,0,0,0,0,0,0,0,0,0,0,0,0,0,0,0,0,0,0,0],"split_type":[0,0,0,0,0,0,0,0,0,0,0,0,0,0,0,0,0,0,0,0,0,0,0,0,0,0,0,0,0,0,0,0,0,0,0,0,0,0,0,0,0,0,0,0,0,0,0,0,0,0,0,0,0,0,0],"sum_hessian":[8.368655E2,6.5927155E2,1.775939E2,2.587516E2,4.0051996E2,5.610407E1,1.2148983E2,2.3844643E2,2.030517E1,2.990209E2,1.0149906E2,3.228788E1,2.3816189E1,1.5294748E1,1.06195076E2,2.3007733E2,8.369102E0,1.0052419E1,1.025275E1,2.2132043E2,7.770046E1,3.8084576E1,6.3414486E1,9.442273E0,2.2845608E1,2.2780449E1,1.0357405E0,7.500655E0,7.794093E0,1.0409978E2,2.0953045E0,4.1787903E1,1.8828943E2,6.167784E0,2.2013173E0,5.289478E0,4.963273E0,4.2093983E1,1.7922646E2,6.733266E1,1.0367811E1,2.0155333E1,1.7929241E1,4.0115585E0,5.9402927E1,8.430698E0,1.0115745E0,7.95091E0,1.4894697E1,5.1465745E0,2.3540804E0,2.3539587E1,8.056019E1,1.0016329E0,1.0936716E0],"tree_param":{"num_deleted":"0","num_feature":"35","num_nodes":"55","size_leaf_vector":"1"}},{"base_weights":[-1.4473396E-2,1.5375336E-1,-9.358975E-1,6.548266E-1,-1.3745935E-1,4.5285854E-2,-9.5888263E-1,8.132586E-1,-1.1839123E-1,8.521143E-3,-9.2331815E-1,-9.9653023E-1,-1.450983E-1,8.802152E-1,-4.8833838E-1,-9.1556424E-1,2.4031362E-1,1.3246901E-1,-9.7217906E-1,-9.986052E-1,-1.9936177E-1,-1.025225E0,-1.5611939E-1,7.216768E-2,-6.1259454E-1,-8.604673E-2,7.333757E-2,-8.046235E-2,5.760536E-2,-1.0977893E-1,-1.9282723E-2,3.4679312E-2,-9.457857E-2,-4.6834134E-2,2.1636471E-2,-9.783266E-2,-2.7499123E-2,-8.246434E-2,3.4991253E-2,-7.825576E-2,9.946347E-2,2.4615817E-3,-8.353195E-2,5.0087675E-2,-6.4186595E-2,-6.8924695E-2,1.5635913E-2],"categories":[],"categories_nodes":[],"categories_segments":[],"categories_sizes":[],"default_left":[0,0,0,0,0,0,0,0,0,0,0,0,0,0,0,0,0,0,0,0,0,0,0,0,0,0,0,0,0,0,0,0,0,0,0,0,0,0,0,0,0,0,0,0,0,0,0],"id":22,"left_children":[1,3,5,7,9,-1,11,13,15,17,19,21,23,25,27,29,31,33,35,37,39,41,43,-1,45,-1,-1,-1,-1,-1,-1,-1,-1,-1,-1,-1,-1,-1,-1,-1,-1,-1,-1,-1,-1,-1,-1],"loss_changes":[1.25653E2,1.0012427E2,4.8632126E0,3.098568E1,4.9841545E1,0E0,3.6431046E0,1.86792E1,1.2731162E1,4.4780224E1,3.5105247E0,2.6854248E0,3.8018234E0,1.5230255E1,7.5323315E0,3.9158144E0,9.022386E0,3.2550655E1,6.09301E0,3.2898674E0,9.823567E0,2.3086777E0,3.0678337E0,0E0,1.2112982E0,0E0,0E0,0E0,0E0,0E0,0E0,0E0,0E0,0E0,0E0,0E0,0E0,0E0,0E0,0E0,0E0,0E0,0E0,0E0,0E0,0E0,0E0],"parents":[2147483647,0,0,1,1,2,2,3,3,4,4,6,6,7,7,8,8,9,9,10,10,11,11,12,12,13,13,14,14,15,15,16,16,17,17,18,18,19,19,20,20,21,21,22,22,24,24],"right_children":[2,4,6,8,10,-1,12,14,16,18,20,22,24,26,28,30,32,34,36,38,40,42,44,-1,46,-1,-1,-1,-1,-1,-1,-1,-1,-1,-1,-1,-1,-1,-1,-1,-1,-1,-1,-1,-1,-1,-1],"split_conditions":[1.392E1,1.24E2,1.3112833E2,2.65E-1,4.61E-1,4.5285854E-2,8.262813E1,1.934E3,6.1E-2,2.16204E3,-1.03E-2,6.96E1,2.3E1,5.8E-1,1.4327E1,7.486916E1,1.2507E2,1.3758E1,1.322327E2,4.08E2,3.911E-4,5E1,1.7E1,7.216768E-2,1.89E2,-8.604673E-2,7.333757E-2,-8.046235E-2,5.760536E-2,-1.0977893E-1,-1.9282723E-2,3.4679312E-2,-9.457857E-2,-4.6834134E-2,2.1636471E-2,-9.783266E-2,-2.7499123E-2,-8.246434E-2,3.4991253E-2,-7.825576E-2,9.946347E-2,2.4615817E-3,-8.353195E-2,5.0087675E-2,-6.4186595E-2,-6.8924695E-2,1.5635913E-2],"split_indices":[15,24,3,10,10,0,33,18,27,20,5,7,15,15,32,33,20,32,3,13,1,24,22,0,24,0,0,0,0,0,0,0,0,0,0,0,0,0,0,0,0,0,0,0,0,0,0],"split_type":[0,0,0,0,0,0,0,0,0,0,0,0,0,0,0,0,0,0,0,0,0,0,0,0,0,0,0,0,0,0,0,0,0,0,0,0,0,0,0,0,0,0,0,0,0,0,0],"sum_hessian":[8.0869336E2,6.84547E2,1.24146355E2,2.5115324E2,4.3339377E2,1.5150756E0,1.2263128E2,2.0840031E2,4.2752922E1,3.663332E2,6.70606E1,1.1699428E2,5.636997E0,1.985122E2,9.888112E0,1.2785799E1,2.9967125E1,3.2599637E2,4.0336815E1,6.0399998E1,6.6606007E0,1.1291889E2,4.07539E0,1.4528878E0,4.1841097E0,3.1157339E0,1.9539647E2,7.040878E0,2.847234E0,7.0073214E0,5.778477E0,2.6996363E1,2.970761E0,5.2034924E1,2.7396146E2,2.8157036E1,1.2179779E1,5.9351337E1,1.0486579E0,4.534527E0,2.1260738E0,1.9769558E0,1.1094193E2,1.857767E0,2.2176228E0,3.147969E0,1.0361407E0],"tree_param":{"num_deleted":"0","num_feature":"35","num_nodes":"47","size_leaf_vector":"1"}},{"base_weights":[-3.67317E-3,1.6011791E-1,-9.2733735E-1,6.240644E-1,-1.7035128E-1,-5.178002E-1,-1.013291E0,-5.41831E-3,8.4679747E-1,-8.935095E-1,7.16161E-2,7.107652E-1,-9.553845E-1,-1.0504584E0,2.5640058E-3,-3.3379665E-1,8.229991E-1,9.228536E-1,-4.7421518E-1,-4.361571E-1,-1.2586348E0,-7.167714E-1,3.3917585E-1,-5.0835785E-2,1.1700366E0,-1.0676873E0,3.006648E-2,1.1608084E-1,-8.663731E-2,6.403263E-2,-5.9530113E-2,-8.4562995E-2,-2.3804798E-3,-1.5505044E-3,8.018516E-2,7.564873E-2,-9.537847E-2,4.983238E-2,-1.1764416E-1,-6.803123E-2,3.871772E-2,-1.044174E-1,-1.0765735E-3,-2.7890716E-2,-8.281411E-2,3.542993E-2,-8.484772E-2,1.0041676E-2,1.1565212E-1,-1.7098742E-2,-8.9711614E-2,-5.0933298E-2,6.795379E-2],"categories":[],"categories_nodes":[],"categories_segments":[],"categories_sizes":[],"default_left":[0,0,0,0,0,0,0,0,0,0,0,0,0,0,0,0,0,0,0,0,0,0,0,0,0,0,0,0,0,0,0,0,0,0,0,0,0,0,0,0,0,0,0,0,0,0,0,0,0,0,0,0,0],"id":23,"left_children":[1,3,5,7,9,11,13,15,17,19,21,23,25,27,29,31,33,35,37,39,41,43,45,-1,47,49,-1,51,-1,-1,-1,-1,-1,-1,-1,-1,-1,-1,-1,-1,-1,-1,-1,-1,-1,-1,-1,-1,-1,-1,-1,-1,-1],"loss_changes":[1.1925673E2,1.0276424E2,3.6547089E0,3.908683E1,6.8624725E1,1.2850921E1,3.668396E0,2.0363476E1,2.112474E1,1.586747E1,6.2367584E1,4.774465E0,2.960909E0,3.6775894E0,3.2313828E0,1.1753834E1,3.2294674E0,1.0514236E1,1.3890882E1,1.7628862E1,3.1224823E0,8.423985E0,3.248571E1,0E0,1.3193345E0,4.9642563E-1,0E0,2.4411528E0,0E0,0E0,0E0,0E0,0E0,0E0,0E0,0E0,0E0,0E0,0E0,0E0,0E0,0E0,0E0,0E0,0E0,0E0,0E0,0E0,0E0,0E0,0E0,0E0,0E0],"parents":[2147483647,0,0,1,1,2,2,3,3,4,4,5,5,6,6,7,7,8,8,9,9,10,10,11,11,12,12,13,13,14,14,15,15,16,16,17,17,18,18,19,19,20,20,21,21,22,22,24,24,25,25,27,27],"right_children":[2,4,6,8,10,12,14,16,18,20,22,24,26,28,30,32,34,36,38,40,42,44,46,-1,48,50,-1,52,-1,-1,-1,-1,-1,-1,-1,-1,-1,-1,-1,-1,-1,-1,-1,-1,-1,-1,-1,-1,-1,-1,-1,-1,-1],"split_conditions":[1.392E1,1.09E-1,3.07E0,-2.0759E2,2.19E-5,-2.5039E2,6.96E1,-1.33E2,4.95E1,1.83E1,1.16E1,3.73E1,1.08E-1,-4.04E2,7.507854E1,9.8683605E0,1.3916E0,2.4249E1,5.57E1,1.51E1,8.048E2,7.009E-4,7.17E1,-5.0835785E-2,1.0250667E1,1.29E1,3.006648E-2,3.028E0,-8.663731E-2,6.403263E-2,-5.9530113E-2,-8.4562995E-2,-2.3804798E-3,-1.5505044E-3,8.018516E-2,7.564873E-2,-9.537847E-2,4.983238E-2,-1.1764416E-1,-6.803123E-2,3.871772E-2,-1.044174E-1,-1.0765735E-3,-2.7890716E-2,-8.281411E-2,3.542993E-2,-8.484772E-2,1.0041676E-2,1.1565212E-1,-1.7098742E-2,-8.9711614E-2,-5.0933298E-2,6.795379E-2],"split_indices":[15,10,16,21,1,21,7,25,13,22,22,22,27,25,33,34,9,9,22,22,12,1,13,0,34,13,0,29,0,0,0,0,0,0,0,0,0,0,0,0,0,0,0,0,0,0,0,0,0,0,0,0,0],"split_type":[0,0,0,0,0,0,0,0,0,0,0,0,0,0,0,0,0,0,0,0,0,0,0,0,0,0,0,0,0,0,0,0,0,0,0,0,0,0,0,0,0,0,0,0,0,0,0,0,0,0,0,0,0],"sum_hessian":[7.862949E2,6.6856635E2,1.1772857E2,2.7774753E2,3.9081882E2,2.1641085E1,9.608749E1,7.284642E1,2.049011E2,9.7307396E1,2.9351144E2,5.5196824E0,1.61214E1,9.266313E1,3.424359E0,5.259517E1,2.0251255E1,1.9403133E2,1.0869778E1,4.4172226E1,5.3135174E1,7.394558E1,2.1956586E2,1.3064952E0,4.213187E0,1.5049748E1,1.0716532E0,2.4425418E0,9.022059E1,1.6206948E0,1.8036643E0,1.4833395E1,3.7761772E1,3.710789E0,1.6540466E1,1.9251305E2,1.5182679E0,5.3516235E0,5.5181546E0,3.0511862E1,1.3660363E1,5.1172565E1,1.9626079E0,3.5266106E1,3.8679474E1,2.0505829E2,1.4507563E1,1.1834841E0,3.0297031E0,1.1851705E0,1.3864577E1,1.2703769E0,1.1721648E0],"tree_param":{"num_deleted":"0","num_feature":"35","num_nodes":"53","size_leaf_vector":"1"}},{"base_weights":[-1.9177776E-2,4.979003E-1,-2.875192E-1,-7.6180124E-1,6.080324E-1,-8.313561E-1,-1.20565236E-1,3.667187E-1,-1.0125351E0,-8.474838E-2,7.3147976E-1,-1.0312462E0,-3.8848647E-1,-9.75675E-1,3.1094821E-2,-5.017957E-2,7.7714734E-2,3.413366E-2,-1.1444907E0,-5.260048E-1,4.6697387E-1,8.0744255E-1,-4.87583E-1,-1.0663556E0,2.348632E-2,9.1322565E-1,-5.6307834E-1,7.606664E-2,-1.0339272E0,1.5830721E-1,-1.0796579E0,-9.452607E-2,-2.425102E-2,-9.370477E-2,-1.3859192E-3,-1.0543159E-1,5.7967167E-2,-2.0110635E-2,6.928467E-2,-9.2956476E-2,6.2712155E-2,-1.5377316E-4,-8.9424595E-2,8.637317E-2,1.3507538E-2,-5.9567664E-2,4.669556E-2,1.4598652E-2,-8.569657E-2,-6.1052825E-2,2.2873556E-2,-9.4281055E-2,6.0347E-2],"categories":[],"categories_nodes":[],"categories_segments":[],"categories_sizes":[],"default_left":[0,0,0,0,0,0,0,0,0,0,0,0,0,0,0,0,0,0,0,0,0,0,0,0,0,0,0,0,0,0,0,0,0,0,0,0,0,0,0,0,0,0,0,0,0,0,0,0,0,0,0,0,0],"id":24,"left_children":[1,3,5,7,9,11,13,15,17,19,21,23,25,27,29,-1,-1,-1,31,33,35,37,39,41,-1,43,45,-1,47,49,51,-1,-1,-1,-1,-1,-1,-1,-1,-1,-1,-1,-1,-1,-1,-1,-1,-1,-1,-1,-1,-1,-1],"loss_changes":[1.05493E2,3.6501984E1,4.5342056E1,6.406494E0,2.0539436E1,9.99115E0,4.9842953E1,3.3811288E0,3.8530579E0,9.279971E0,1.922287E1,4.0470657E0,9.175526E0,7.4799347E0,4.640614E1,0E0,0E0,0E0,1.5667725E-1,6.9023166E0,8.781044E0,1.2120384E1,1.1672245E1,4.292717E0,0E0,4.23357E-1,7.5582476E0,0E0,2.7654266E0,3.484367E1,7.0081825E0,0E0,0E0,0E0,0E0,0E0,0E0,0E0,0E0,0E0,0E0,0E0,0E0,0E0,0E0,0E0,0E0,0E0,0E0,0E0,0E0,0E0,0E0],"parents":[2147483647,0,0,1,1,2,2,3,3,4,4,5,5,6,6,7,7,8,8,9,9,10,10,11,11,12,12,13,13,14,14,18,18,19,19,20,20,21,21,22,22,23,23,25,25,26,26,28,28,29,29,30,30],"right_children":[2,4,6,8,10,12,14,16,18,20,22,24,26,28,30,-1,-1,-1,32,34,36,38,40,42,-1,44,46,-1,48,50,52,-1,-1,-1,-1,-1,-1,-1,-1,-1,-1,-1,-1,-1,-1,-1,-1,-1,-1,-1,-1,-1,-1],"split_conditions":[1.26E2,-2.64E0,1.3758E1,7E-2,1.3272737E2,-1.28E-1,-7.05E1,3.721E0,5E1,1.892E2,6.7E1,3.02E2,1.37E2,-1.25E-1,9.72E-1,-5.017957E-2,7.7714734E-2,3.413366E-2,8.2062195E1,8E1,6.3E1,1.14E1,1.5918E1,-6.98E-1,2.348632E-2,3.65E-5,1.6429335E1,7.606664E-2,-1.242E0,1.16E1,8.284839E1,-9.452607E-2,-2.425102E-2,-9.370477E-2,-1.3859192E-3,-1.0543159E-1,5.7967167E-2,-2.0110635E-2,6.928467E-2,-9.2956476E-2,6.2712155E-2,-1.5377316E-4,-8.9424595E-2,8.637317E-2,1.3507538E-2,-5.9567664E-2,4.669556E-2,1.4598652E-2,-8.569657E-2,-6.1052825E-2,2.2873556E-2,-9.4281055E-2,6.0347E-2],"split_indices":[24,17,32,6,3,28,14,26,24,12,13,24,24,5,6,0,0,0,33,24,24,22,32,8,0,1,34,0,8,22,33,0,0,0,0,0,0,0,0,0,0,0,0,0,0,0,0,0,0,0,0,0,0],"split_type":[0,0,0,0,0,0,0,0,0,0,0,0,0,0,0,0,0,0,0,0,0,0,0,0,0,0,0,0,0,0,0,0,0,0,0,0,0,0,0,0,0,0,0,0,0,0,0,0,0,0,0,0,0],"sum_hessian":[7.5825916E2,2.5876968E2,4.9948944E2,2.0328882E1,2.3844081E2,1.16387726E2,3.831017E2,3.611484E0,1.67174E1,3.610948E1,2.0233133E2,7.927724E1,3.711049E1,5.6892067E1,3.2620966E2,1.351986E0,2.2594981E0,1.2164509E0,1.5500948E1,2.0089174E1,1.6020308E1,1.9078096E2,1.155038E1,7.742059E1,1.8566389E0,3.8884647E0,3.3222023E1,1.2200509E0,5.5672016E1,2.9345795E2,3.27517E1,1.4459237E1,1.0417111E0,8.281169E0,1.1808006E1,1.5015068E0,1.4518801E1,9.834978E0,1.8094597E2,7.603671E0,3.9467087E0,3.6175883E0,7.380301E1,2.809794E0,1.078671E0,2.8984848E1,4.237176E0,1.5396516E0,5.4132366E1,3.5091022E1,2.5836694E2,3.141575E1,1.3359511E0],"tree_param":{"num_deleted":"0","num_feature":"35","num_nodes":"53","size_leaf_vector":"1"}},{"base_weights":[-1.3048606E-3,-7.801766E-1,1.6533151E-1,-4.1515893E-1,-9.741009E-1,-5.401144E-1,3.343368E-1,-7.3847115E-1,1.9586974E-1,-1.0158387E0,7.356822E-2,-1.1544002E-1,-9.827765E-1,4.472362E-1,-8.3258784E-1,-1.7206302E-1,-9.817069E-1,-8.648876E-1,5.873044E-1,-4.6863828E-2,-1.0498934E0,7.524979E-2,-5.7918005E-2,6.96239E-1,-4.1829443E-1,-7.5481683E-1,-1.2307314E0,-6.581657E-1,5.3000605E-1,7.393906E-2,-9.001374E-1,3.3074703E-2,-8.302634E-2,-9.117494E-2,-2.2668115E-4,-9.743265E-2,9.2305E-3,-3.516896E-2,7.253571E-2,-5.8528382E-2,5.93039E-2,-3.0123672E-2,-8.583812E-2,8.401976E-2,-3.6510911E-3,-1.0828488E-1,-1.609399E-2,1.5575808E-3,-7.9014726E-2,-1.3991724E-1,-8.685047E-2,3.406294E-2,-7.379474E-2,-6.524589E-2,4.787595E-2,-3.0268185E-2,-9.1410644E-2],"categories":[],"categories_nodes":[],"categories_segments":[],"categories_sizes":[],"default_left":[0,0,0,0,0,0,0,0,0,0,0,0,0,0,0,0,0,0,0,0,0,0,0,0,0,0,0,0,0,0,0,0,0,0,0,0,0,0,0,0,0,0,0,0,0,0,0,0,0,0,0,0,0,0,0,0,0],"id":25,"left_children":[1,3,5,7,9,11,13,15,17,19,21,23,25,27,29,31,33,35,37,39,41,-1,-1,43,45,47,49,51,53,-1,55,-1,-1,-1,-1,-1,-1,-1,-1,-1,-1,-1,-1,-1,-1,-1,-1,-1,-1,-1,-1,-1,-1,-1,-1,-1,-1],"loss_changes":[9.65891E1,8.879738E0,7.3271194E1,9.478632E0,3.787651E0,2.2232037E1,6.561064E1,4.1168976E0,7.624654E0,2.6475601E0,3.5753794E0,1.5482752E1,2.3532372E0,4.171811E1,6.057358E0,5.781045E0,3.3293285E0,1.8792393E0,4.700272E0,2.604714E0,8.223648E-1,0E0,0E0,4.5568104E0,8.993757E0,5.940439E0,7.351303E-2,9.54319E0,3.9279778E1,0E0,4.99691E0,0E0,0E0,0E0,0E0,0E0,0E0,0E0,0E0,0E0,0E0,0E0,0E0,0E0,0E0,0E0,0E0,0E0,0E0,0E0,0E0,0E0,0E0,0E0,0E0,0E0,0E0],"parents":[2147483647,0,0,1,1,2,2,3,3,4,4,5,5,6,6,7,7,8,8,9,9,10,10,11,11,12,12,13,13,14,14,15,15,16,16,17,17,18,18,19,19,20,20,23,23,24,24,25,25,26,26,27,27,28,28,30,30],"right_children":[2,4,6,8,10,12,14,16,18,20,22,24,26,28,30,32,34,36,38,40,42,-1,-1,44,46,48,50,52,54,-1,56,-1,-1,-1,-1,-1,-1,-1,-1,-1,-1,-1,-1,-1,-1,-1,-1,-1,-1,-1,-1,-1,-1,-1,-1,-1,-1],"split_conditions":[-1.36E0,3.58E0,2.249001E0,-1.36E2,6.96E1,1.03E-1,6.39E-1,-1.72E-1,-3.91E1,-4.04E2,7.507854E1,1.11E2,1.65E1,7.8525853E0,5.99E-3,1.795E0,6.878E3,-1.7E-2,2.957E2,3.028E0,1.365E-1,7.524979E-2,-5.7918005E-2,4.169E-1,1.5E-1,1.56E-1,1.01E2,2.34E-3,8.9E0,7.393906E-2,-2.9E-1,3.3074703E-2,-8.302634E-2,-9.117494E-2,-2.2668115E-4,-9.743265E-2,9.2305E-3,-3.516896E-2,7.253571E-2,-5.8528382E-2,5.93039E-2,-3.0123672E-2,-8.583812E-2,8.401976E-2,-3.6510911E-3,-1.0828488E-1,-1.609399E-2,1.5575808E-3,-7.9014726E-2,-1.3991724E-1,-8.685047E-2,3.406294E-2,-7.379474E-2,-6.524589E-2,4.787595E-2,-3.0268185E-2,-9.1410644E-2],"split_indices":[17,16,0,25,7,10,10,28,14,25,33,24,22,34,4,29,23,8,12,29,6,0,0,6,16,10,24,4,22,0,17,0,0,0,0,0,0,0,0,0,0,0,0,0,0,0,0,0,0,0,0,0,0,0,0,0,0],"split_type":[0,0,0,0,0,0,0,0,0,0,0,0,0,0,0,0,0,0,0,0,0,0,0,0,0,0,0,0,0,0,0,0,0,0,0,0,0,0,0,0,0,0,0,0,0,0,0,0,0,0,0,0,0,0,0,0,0],"sum_hessian":[7.422109E2,1.3015837E2,6.120525E2,4.6248005E1,8.391036E1,1.1786705E2,4.9418546E2,3.0108297E1,1.6139708E1,8.072477E1,3.1855917E0,6.0799217E1,5.7067833E1,4.5115332E2,4.303214E1,9.558168E0,2.0550129E1,4.0243907E0,1.2115316E1,2.8214288E0,7.7903336E1,1.440329E0,1.7452627E0,1.6168135E1,4.463108E1,3.183979E1,2.5228045E1,3.0943748E1,4.2020956E2,1.1237338E0,4.1908405E1,6.013708E0,3.5444605E0,1.755298E1,2.9971483E0,2.7806008E0,1.24379E0,2.7848854E0,9.330431E0,1.5481682E0,1.2732606E0,3.1559112E0,7.474743E1,1.0663894E1,5.5042405E0,7.4227195E0,3.7208363E1,7.5736604E0,2.4266129E1,3.1006048E0,2.212744E1,5.945569E0,2.499818E1,1.9811144E1,4.003984E2,1.41092825E1,2.7799122E1],"tree_param":{"num_deleted":"0","num_feature":"35","num_nodes":"57","size_leaf_vector":"1"}},{"base_weights":[-2.5555542E-2,-2.678975E-1,5.34401E-1,-1.5346578E-1,-1.0298033E0,-6.04143E-1,6.257225E-1,-3.181314E-2,-9.2971146E-1,-1.0677722E0,-3.8130088E-3,-9.360257E-1,6.253787E-2,-2.0776202E-1,7.4964166E-1,-2.4440071E-1,4.6488187E-1,-2.6448143E-1,-1.0963714E0,-1.1020571E0,-2.790519E-1,-6.9080465E-2,7.177535E-2,2.52965E-2,-8.9039534E-2,7.208214E-2,-8.4593844E-1,-1.18028305E-1,7.8740485E-2,-9.5818564E-2,8.3795834E-1,-1.07587315E-2,-9.068611E-2,5.3988118E-2,-4.8618842E-2,5.9202082E-2,-6.282436E-2,-9.1098696E-2,1.4028746E-2,-3.578771E-2,-9.003413E-2,4.157863E-2,-5.8371417E-2,-9.593644E-2,2.7313759E-3,3.5802837E-2,-7.236671E-2,-8.23601E-2,3.8999684E-2,6.943961E-2,-8.720471E-2],"categories":[],"categories_nodes":[],"categories_segments":[],"categories_sizes":[],"default_left":[0,0,0,0,0,0,0,0,0,0,0,0,0,0,0,0,0,0,0,0,0,0,0,0,0,0,0,0,0,0,0,0,0,0,0,0,0,0,0,0,0,0,0,0,0,0,0,0,0,0,0],"id":26,"left_children":[1,3,5,7,9,11,13,15,17,19,21,23,25,27,29,31,33,35,37,39,41,-1,-1,-1,-1,-1,43,-1,45,47,49,-1,-1,-1,-1,-1,-1,-1,-1,-1,-1,-1,-1,-1,-1,-1,-1,-1,-1,-1,-1],"loss_changes":[9.648062E1,4.3099487E1,2.2708782E1,4.0816105E1,2.5129318E0,3.699676E0,2.0742165E1,3.970731E1,6.2032547E0,1.3772202E0,3.3381183E0,2.8005838E0,5.6425924E0,9.769581E0,1.3052834E1,2.5575333E1,2.5799255E1,7.4091983E0,2.7056847E0,4.0489197E-1,1.7953397E0,0E0,0E0,0E0,0E0,0E0,1.1573486E0,0E0,8.611534E0,9.939971E0,1.0061829E1,0E0,0E0,0E0,0E0,0E0,0E0,0E0,0E0,0E0,0E0,0E0,0E0,0E0,0E0,0E0,0E0,0E0,0E0,0E0,0E0],"parents":[2147483647,0,0,1,1,2,2,3,3,4,4,5,5,6,6,7,7,8,8,9,9,10,10,11,11,12,12,13,13,14,14,15,15,16,16,17,17,18,18,19,19,20,20,26,26,28,28,29,29,30,30],"right_children":[2,4,6,8,10,12,14,16,18,20,22,24,26,28,30,32,34,36,38,40,42,-1,-1,-1,-1,-1,44,-1,46,48,50,-1,-1,-1,-1,-1,-1,-1,-1,-1,-1,-1,-1,-1,-1,-1,-1,-1,-1,-1,-1],"split_conditions":[-1.26E2,9.66E-1,-2.25E0,6.21E1,8.284839E1,1.4327E1,-1.01E-2,5.105E2,1.365E-1,6.96E1,4.484E0,1.46E0,2.91E1,1.3435532E2,1.4279665E0,5.055E2,-1.4E-2,1.6358349E1,4.046352E2,9.82E1,-4.546E-4,-6.9080465E-2,7.177535E-2,2.52965E-2,-8.9039534E-2,7.208214E-2,9.4378E0,-1.18028305E-1,-1.06E0,-8.46E-2,5.31E-1,-1.07587315E-2,-9.068611E-2,5.3988118E-2,-4.8618842E-2,5.9202082E-2,-6.282436E-2,-9.1098696E-2,1.4028746E-2,-3.578771E-2,-9.003413E-2,4.157863E-2,-5.8371417E-2,-9.593644E-2,2.7313759E-3,3.5802837E-2,-7.236671E-2,-8.23601E-2,3.8999684E-2,6.943961E-2,-8.720471E-2],"split_indices":[25,6,17,13,33,32,5,12,6,7,26,9,13,3,0,12,8,0,3,12,2,0,0,0,0,0,9,0,21,11,7,0,0,0,0,0,0,0,0,0,0,0,0,0,0,0,0,0,0,0,0],"split_type":[0,0,0,0,0,0,0,0,0,0,0,0,0,0,0,0,0,0,0,0,0,0,0,0,0,0,0,0,0,0,0,0,0,0,0,0,0,0,0,0,0,0,0,0,0,0,0,0,0,0,0],"sum_hessian":[7.089246E2,4.9515118E2,2.1377345E2,4.3153915E2,6.3612057E1,1.5456396E1,1.9831706E2,3.739716E2,5.756756E1,6.1302696E1,2.3093593E0,1.0049575E1,5.4068213E0,2.55811E1,1.7273595E2,2.6223978E2,1.117318E2,1.20512905E1,4.551627E1,5.836821E1,2.9344857E0,1.2030703E0,1.106289E0,1.1469496E0,8.902625E0,2.8159795E0,2.5908415E0,3.9509814E0,2.163012E1,1.6329344E1,1.5640662E2,2.344137E2,2.7826096E1,9.375055E1,1.798125E1,3.9711964E0,8.080093E0,4.415017E1,1.3660983E0,2.705805E0,5.5662407E1,1.0029893E0,1.9314964E0,1.5900016E0,1.0008401E0,1.6126692E1,5.5034275E0,5.984822E0,1.0344522E1,1.5454868E2,1.8579352E0],"tree_param":{"num_deleted":"0","num_feature":"35","num_nodes":"51","size_leaf_vector":"1"}},{"base_weights":[1.2564531E-2,1.8830651E-1,-7.1882516E-1,6.486483E-1,-9.5338754E-2,-4.301382E-1,-1.0668584E0,2.4496326E-2,8.736079E-1,1.3434559E-1,-8.0037177E-1,1.9713739E-2,-9.2953825E-1,-4.1498622E-1,-1.0995135E0,-5.279523E-1,3.5308865E-1,8.990196E-1,-9.4116636E-2,-4.194914E-1,4.541998E-1,-3.1278938E-1,-1.3091357E0,-8.0609506E-1,5.8999157E-1,-1.0029492E0,1.4177382E-1,-6.627654E-2,4.1584358E-2,-1.131101E0,-3.3066097E-1,-6.804475E-2,4.7833145E-2,4.908872E-2,-5.4004706E-2,2.9613344E-2,7.857496E-2,-7.740061E-2,-1.5655486E-2,-2.7248923E-2,4.8127968E-2,1.3061752E-2,-8.251466E-2,-1.9896583E-1,-9.434799E-2,4.738106E-2,-7.809555E-2,7.350631E-2,-2.371233E-2,1.5958173E-2,-8.3894186E-2,-5.137541E-2,7.153402E-2,-9.297407E-2,-5.1920712E-2,2.6320646E-2,-5.594809E-2],"categories":[],"categories_nodes":[],"categories_segments":[],"categories_sizes":[],"default_left":[0,0,0,0,0,0,0,0,0,0,0,0,0,0,0,0,0,0,0,0,0,0,0,0,0,0,0,0,0,0,0,0,0,0,0,0,0,0,0,0,0,0,0,0,0,0,0,0,0,0,0,0,0,0,0,0,0],"id":27,"left_children":[1,3,5,7,9,11,13,15,17,19,21,23,25,27,29,31,33,35,-1,37,39,41,43,45,47,49,51,-1,-1,53,55,-1,-1,-1,-1,-1,-1,-1,-1,-1,-1,-1,-1,-1,-1,-1,-1,-1,-1,-1,-1,-1,-1,-1,-1,-1,-1],"loss_changes":[9.159466E1,7.5075005E1,1.341217E1,3.0749512E1,5.781091E1,1.7347977E1,8.6180115E-1,1.0913035E1,9.448303E0,4.7955E1,2.134697E1,2.004869E1,3.0188198E0,2.1931489E0,1.0433121E0,8.658654E0,1.0499184E1,6.6586914E0,0E0,1.1980804E1,2.0285404E1,1.5939607E1,3.5804825E0,4.716893E0,7.6065245E0,2.0981865E0,2.474648E0,0E0,0E0,7.9330444E-2,1.1339025E0,0E0,0E0,0E0,0E0,0E0,0E0,0E0,0E0,0E0,0E0,0E0,0E0,0E0,0E0,0E0,0E0,0E0,0E0,0E0,0E0,0E0,0E0,0E0,0E0,0E0,0E0],"parents":[2147483647,0,0,1,1,2,2,3,3,4,4,5,5,6,6,7,7,8,8,9,9,10,10,11,11,12,12,13,13,14,14,15,15,16,16,17,17,19,19,20,20,21,21,22,22,23,23,24,24,25,25,26,26,29,29,30,30],"right_children":[2,4,6,8,10,12,14,16,18,20,22,24,26,28,30,32,34,36,-1,38,40,42,44,46,48,50,52,-1,-1,54,56,-1,-1,-1,-1,-1,-1,-1,-1,-1,-1,-1,-1,-1,-1,-1,-1,-1,-1,-1,-1,-1,-1,-1,-1,-1,-1],"split_conditions":[6.54E0,1.09E-1,4.78E1,-2.2412E2,-2.19E-5,3.81E0,-1.242E0,1.0787231E1,1.243E1,-1.05E-2,2.04E1,2.1955E3,2.41E2,-2.409E0,8.262813E1,2.89E0,3.1644E3,1.77E0,-9.4116636E-2,-2.1E-1,2.6E0,1.98E-1,1.03E2,5E1,-2.7E-2,-2.409E0,3.028E0,-6.627654E-2,4.1584358E-2,-9E1,1.782E1,-6.804475E-2,4.7833145E-2,4.908872E-2,-5.4004706E-2,2.9613344E-2,7.857496E-2,-7.740061E-2,-1.5655486E-2,-2.7248923E-2,4.8127968E-2,1.3061752E-2,-8.251466E-2,-1.9896583E-1,-9.434799E-2,4.738106E-2,-7.809555E-2,7.350631E-2,-2.371233E-2,1.5958173E-2,-8.3894186E-2,-5.137541E-2,7.153402E-2,-9.297407E-2,-5.1920712E-2,2.6320646E-2,-5.594809E-2],"split_indices":[15,10,13,21,2,16,8,34,9,5,22,12,24,8,33,9,20,9,0,28,9,10,24,24,8,8,29,0,0,25,15,0,0,0,0,0,0,0,0,0,0,0,0,0,0,0,0,0,0,0,0,0,0,0,0,0,0],"split_type":[0,0,0,0,0,0,0,0,0,0,0,0,0,0,0,0,0,0,0,0,0,0,0,0,0,0,0,0,0,0,0,0,0,0,0,0,0,0,0,0,0,0,0,0,0,0,0,0,0,0,0,0,0,0,0,0,0],"sum_hessian":[7.105469E2,5.734887E2,1.370582E2,2.181521E2,3.553366E2,7.6138596E1,6.0919605E1,5.808996E1,1.6006215E2,2.686317E2,8.6704895E1,4.056173E1,3.5576866E1,3.560089E0,5.7359516E1,2.1438908E1,3.665105E1,1.5865697E2,1.4051731E0,9.823075E1,1.7040096E2,4.509865E1,4.160624E1,1.639987E1,2.4161861E1,3.3355045E1,2.2218208E0,2.5471857E0,1.0129033E0,5.46434E1,2.7161195E0,1.6854055E1,4.5848513E0,2.9563261E1,7.0877905E0,2.2300611E1,1.3635635E2,2.7519737E1,7.071101E1,2.6452518E1,1.4394843E2,2.7592783E1,1.7505869E1,2.3266468E0,3.9279594E1,1.5094082E0,1.4890461E1,1.7597067E1,6.5647945E0,1.0988333E0,3.225621E1,1.1598197E0,1.062001E0,5.0009186E1,4.634211E0,1.0123785E0,1.7037411E0],"tree_param":{"num_deleted":"0","num_feature":"35","num_nodes":"57","size_leaf_vector":"1"}},{"base_weights":[-6.2514544E-3,4.6816745E-1,-2.4209538E-1,6.3994014E-1,-3.9719746E-1,-9.712186E-2,-8.098256E-1,-4.9915904E-1,7.231375E-1,-8.9334553E-1,1.4764653E-1,-1.2439929E0,-1.633737E-2,-4.2011636E-1,-1.0397415E0,-9.3051314E-1,7.0800774E-2,8.409898E-1,9.812765E-2,-1.3208005E-1,-1.0435612E0,7.5590104E-1,-4.6781975E-1,-1.2626844E-2,-1.290474E0,-6.5758973E-1,1.399526E-1,3.1307444E-1,-1.0014926E0,4.1920524E-3,-1.0736756E0,3.563289E-2,-9.481537E-2,7.1353965E-2,-3.9578144E-2,2.6088087E-2,-1.3664387E-1,-6.879711E-2,5.457381E-2,-9.221551E-3,-8.76533E-2,8.016899E-2,-4.7445614E-2,1.8503893E-2,-7.060344E-2,-1.0646653E-1,-1.8671654E-2,-9.122577E-2,-2.8448703E-2,2.4230178E-2,-6.530566E-2,-1.8307064E-2,6.763358E-2,-1.5226878E-3,-8.8468276E-2,-8.901148E-2,-8.563557E-3],"categories":[],"categories_nodes":[],"categories_segments":[],"categories_sizes":[],"default_left":[0,0,0,0,0,0,0,0,0,0,0,0,0,0,0,0,0,0,0,0,0,0,0,0,0,0,0,0,0,0,0,0,0,0,0,0,0,0,0,0,0,0,0,0,0,0,0,0,0,0,0,0,0,0,0,0,0],"id":28,"left_children":[1,3,5,7,9,11,13,15,17,19,21,23,25,27,29,31,-1,33,35,37,39,41,43,-1,45,47,49,51,53,-1,55,-1,-1,-1,-1,-1,-1,-1,-1,-1,-1,-1,-1,-1,-1,-1,-1,-1,-1,-1,-1,-1,-1,-1,-1,-1,-1],"loss_changes":[7.622196E1,3.3879078E1,3.7371223E1,1.8284424E1,1.0426348E1,3.3666073E1,7.8439293E0,8.862868E0,1.293013E1,2.1576557E0,7.4696336E0,1.0035515E0,3.42352E1,1.5646332E1,2.1853333E0,4.295987E0,0E0,1.0544525E1,1.2563397E1,3.2259161E0,6.776123E-1,3.8965554E0,3.1226513E0,0E0,6.61705E-1,9.352184E0,4.30521E1,5.0025206E0,2.0603676E0,0E0,1.981369E0,0E0,0E0,0E0,0E0,0E0,0E0,0E0,0E0,0E0,0E0,0E0,0E0,0E0,0E0,0E0,0E0,0E0,0E0,0E0,0E0,0E0,0E0,0E0,0E0,0E0,0E0],"parents":[2147483647,0,0,1,1,2,2,3,3,4,4,5,5,6,6,7,7,8,8,9,9,10,10,11,11,12,12,13,13,14,14,15,15,17,17,18,18,19,19,20,20,21,21,22,22,24,24,25,25,26,26,27,27,28,28,30,30],"right_children":[2,4,6,8,10,12,14,16,18,20,22,24,26,28,30,32,-1,34,36,38,40,42,44,-1,46,48,50,52,54,-1,56,-1,-1,-1,-1,-1,-1,-1,-1,-1,-1,-1,-1,-1,-1,-1,-1,-1,-1,-1,-1,-1,-1,-1,-1,-1,-1],"split_conditions":[1.24E2,6.09E0,6.54E0,7.8E-1,5.332E3,7.3734617E0,7.85E-1,1.6646826E1,1.9802E2,1E1,6E-1,7.360461E1,1.9855866E0,4.78E1,-2.251E0,-1.28E2,7.0800774E-2,4.097E-3,6.268E3,1.406E-5,4.5E-1,3.07E0,1.84E-1,-1.2626844E-2,5.01E0,1.3187904E2,1.5905846E2,1.640077E2,3.71E2,4.1920524E-3,6.96E1,3.563289E-2,-9.481537E-2,7.1353965E-2,-3.9578144E-2,2.6088087E-2,-1.3664387E-1,-6.879711E-2,5.457381E-2,-9.221551E-3,-8.76533E-2,8.016899E-2,-4.7445614E-2,1.8503893E-2,-7.060344E-2,-1.0646653E-1,-1.8671654E-2,-9.122577E-2,-2.8448703E-2,2.4230178E-2,-6.530566E-2,-1.8307064E-2,6.763358E-2,-1.5226878E-3,-8.8468276E-2,-8.901148E-2,-8.563557E-3],"split_indices":[24,15,15,15,23,34,6,34,20,13,6,33,0,13,31,25,0,1,23,1,16,16,30,0,15,3,0,3,18,0,7,0,0,0,0,0,0,0,0,0,0,0,0,0,0,0,0,0,0,0,0,0,0,0,0,0,0],"split_type":[0,0,0,0,0,0,0,0,0,0,0,0,0,0,0,0,0,0,0,0,0,0,0,0,0,0,0,0,0,0,0,0,0,0,0,0,0,0,0,0,0,0,0,0,0,0,0,0,0,0,0,0,0,0,0,0,0],"sum_hessian":[6.792165E2,2.2520782E2,4.5400864E2,1.8812584E2,3.7081985E1,3.6259003E2,9.14186E1,1.2464747E1,1.756611E2,1.9073532E1,1.8008455E1,2.2912323E1,3.396777E2,3.4970535E1,5.6448067E1,9.753096E0,2.7116508E0,1.4750238E2,2.815872E1,3.4531045E0,1.5620427E1,8.942532E0,9.065924E0,1.1206647E0,2.1791658E1,6.593621E1,2.737415E2,1.5670055E1,1.9300478E1,1.6846534E0,5.4763416E1,1.4063367E0,8.34676E0,1.4240434E2,5.0980377E0,2.57305E1,2.4282215E0,1.7936078E0,1.6594967E0,1.0008981E0,1.4619529E1,7.779722E0,1.1628095E0,3.5402462E0,5.5256777E0,2.0740835E1,1.050823E0,2.4305864E1,4.163035E1,2.3447603E2,3.9265472E1,8.047775E0,7.62228E0,1.9668485E0,1.733363E1,5.2496082E1,2.267334E0],"tree_param":{"num_deleted":"0","num_feature":"35","num_nodes":"57","size_leaf_vector":"1"}},{"base_weights":[-1.3591276E-3,-9.2998004E-1,1.131045E-1,2.7771017E-2,-9.6871454E-1,-7.5168425E-1,2.2848941E-1,1.862029E-2,-9.89488E-1,-3.8023403E-1,-1.0231061E0,3.064008E-1,-8.68132E-1,-8.0369584E-2,-1.0237509E0,-8.862688E-2,-1.0031478E-1,3.888423E-2,-1.075905E0,6.174813E-1,